tree
version=v3
num_class=5
num_tree_per_iteration=5
label_index=0
max_feature_idx=47
objective=multiclass num_class:5
average_output
feature_names=average_day_max_mean_magn average_day_min_mean_magn average_day_mean_max_magn average_day_mean_min_magn average_mean_magn average_max_magn average_min_magn average_max_min_magn average_lastday_mean_magn average_lastday_max_magn average_lastday_min_magn average_lastday_max_min_magn diff_1_day_max_mean_magn diff_1_day_min_mean_magn diff_1_day_mean_max_magn diff_1_day_mean_min_magn diff_1_mean_magn diff_1_max_magn diff_1_min_magn diff_1_max_min_magn diff_1_lastday_mean_magn diff_1_lastday_max_magn diff_1_lastday_min_magn diff_1_lastday_max_min_magn average_day_max_mean_sound average_day_min_mean_sound average_day_mean_max_sound average_day_mean_min_sound average_mean_sound average_max_sound average_min_sound average_max_min_sound average_lastday_mean_sound average_lastday_max_sound average_lastday_min_sound average_lastday_max_min_sound diff_1_day_max_mean_sound diff_1_day_min_mean_sound diff_1_day_mean_max_sound diff_1_day_mean_min_sound diff_1_mean_sound diff_1_max_sound diff_1_min_sound diff_1_max_min_sound diff_1_lastday_mean_sound diff_1_lastday_max_sound diff_1_lastday_min_sound diff_1_lastday_max_min_sound
feature_infos=[4.2293580483209787:7.8437116197495493] [-2.0459352521552154:1.4673809054638329] [-0.79243631653415314:4.8264681971304997] [-1.8038595214540405:3.0685136137971663] [-0.86071535219364692:3.6716214213368485] [4.7154909054638336:7.9006209054638337] [-2.0464654378695002:0.84191090546383363] [6.5826089999999988:9.9139879999999998] [-1.8038595214540405:4.14263291935272] [2.1501409054638336:7.8619909054638342] [-2.0458632012028333:2.3686309054638337] [3.576550000000001:9.8746492000000003] [0.46805857142857149:7.0568177142857138] [-6.7770742857142841:-0.59787285714285709] [0.00017173846970179398:0.023920536585365856] [-0.02019805902777776:-0.00027504601571268146] [-0.0022749999999999953:0.0020509443339960199] [0.59399999999999986:9.3750103333333339] [-9.3431382500000009:-1.4695800000000006] [2.0635800000000004:17.798867866666672] [-0.010615138888888894:0.023920536585365856] [0.34963999999999995:8.9184990000000006] [-8.300849666666668:-0.29031999999999991] [0.63995999999999986:16.295584166666668] [-0.091311039339434422:2.7630952606605703] [-0.093740167910863079:-0.079949325053720197] [-0.091937098032390821:0.10572964581015844] [-0.092018433640029637:0.038954936666992589] [-0.091981026831458437:0.068061242502299002] [-0.09119451791086304:2.8357488320891369] [-0.093740167910863023:-0.079990367910863031] [0.0014243699999999945:2.9294889999999998] [-0.091937098032390821:0.10572964581015844] [-0.09119451791086304:2.803187832089137] [-0.093740167910863023:-0.079892167910863024] [0.0014243699999999945:2.8969279999999999] [4.4811428571430089e-05:0.44831673809523831] [-0.3844749761904761:-4.7528571428572181e-05] [-8.177974965229496e-06:0.0012592449165446556] [-0.00099913021834992862:3.118402777777798e-06] [-0.00014421465383204939:0.00011336230309972756] [6.6280000000001893e-05:2.0147274850000003] [-2.0519254550000001:-7.6400000000004242e-05] [0.00014268000000000614:4.0666529400000009] [-0.00029044290044247771:0.00064124428314120971] [4.0789999999998876e-05:1.0257256666666668] [-1.2339160000000002:-3.961000000000936e-05] [8.0400000000008243e-05:2.0686257500000003]
tree_sizes=1109 826 526 423 328 1110 827 526 621 328 1071 727 528 527 332 1150 828 530 515 325 991 834 528 529 327

Tree=0
num_leaves=10
num_cat=0
split_feature=18 42 20 37 6 33 20 41 29
split_gain=13.3389 10.1895 11.8283 5.66258 5.41164 5.12345 12.6202 1.7032 1.68356
threshold=-5.2956486499999995 -0.77804833333333334 0.00015329099800619506 -0.21518001190476183 -2.0434562632028324 -0.035882417910863017 0.00028118506095101321 0.64599608333333369 -0.043838617910863013
decision_type=2 2 2 2 2 2 2 2 2
left_child=1 3 4 -1 -3 8 -7 -5 -4
right_child=-2 2 5 7 -6 6 -8 -9 -10
leaf_value=-0.4717731347584187 0.29855406425333264 -0.88126599244113324 -0.95440844182120643 -1.6872820779206488 0.30062228984503903 -1.5371188117656189 0.29443045919160749 -1.0671929820866628 -1.6814512741271965
leaf_weight=6.5000000000000027 11.999999999999998 5.0000000000000027 5.5000000000000009 17.000000000000004 15.999999999999998 7.0000000000000009 7.9999999999999991 6.4999999999999991 8.4999999999999982
leaf_count=13 24 10 11 34 32 14 16 13 17
internal_value=0 -0.13679 0.138861 -0.597338 0.710214 -0.273666 0.129568 -0.825902 -0.708185
internal_weight=0 80 50 30 21 29 15 23.5 14
internal_count=184 160 100 60 42 58 30 47 28
shrinkage=1


Tree=1
num_leaves=7
num_cat=0
split_feature=9 11 14 34 2 12
split_gain=28.156 19.4197 12.3574 6.86616 1.52675 1.45234
threshold=7.7082200721305014 9.746118233333334 0.00072265374973337062 -0.093518218827529684 1.4083923589379077 5.0093831821428676
decision_type=2 2 2 2 2 2
left_child=2 3 -1 -2 -5 -3
right_child=1 5 -4 4 -6 -7
leaf_value=-0.17633728491977996 0.6830928005884882 -2.1018517795419851 -2.1149761604158739 -1.1095871600623433 -0.17633728491978018 -1.2881880924338609
leaf_weight=3.5476049780845633 8.5142519474029523 5.3214074671268445 36.895091772079468 3.9023654758930233 3.5476049780845642 3.5476049780845642
leaf_count=10 24 15 104 11 10 10
internal_value=0 0.87664 -0.474881 1.53467 0.814549 -0.30418
internal_weight=0 24.8332 40.4427 15.9642 7.44997 8.86901
internal_count=184 70 114 45 21 25
shrinkage=1


Tree=2
num_leaves=4
num_cat=0
split_feature=2 6 2
split_gain=26.2361 15.7258 7.57166
threshold=-0.49858942002065071 -2.0457101600361658 2.5698590394479051
decision_type=2 2 2
left_child=-1 -2 -3
right_child=1 2 -4
leaf_value=1.2700460289121205 0.25133500832332922 -2.7909494443710101 -0.76737601226546204
leaf_weight=1.913265287876128 1.913265287876128 29.464285433292392 1.913265287876128
leaf_count=10 10 154 10
internal_value=0 -0.257728 -0.430241
internal_weight=0 33.2908 31.3776
internal_count=184 174 164
shrinkage=1


Tree=3
num_leaves=3
num_cat=0
split_feature=3 22
split_gain=38.8252 49.8188
threshold=-0.4177822038639849 -3.9018232500000001
decision_type=2 2
left_child=1 -1
right_child=-2 -3
leaf_value=-2.6949001873866965 -2.7100905520130669 2.0710212496206091
leaf_weight=4.3353010565042496 29.31489285826683 4.3353010565042478
leaf_count=21 142 21
internal_value=0 1.83943
internal_weight=0 8.6706
internal_count=184 42
shrinkage=1


Tree=4
num_leaves=2
num_cat=0
split_feature=40
split_gain=49.9406
threshold=3.2463405017581922e-05
decision_type=2
left_child=-1
right_child=-2
leaf_value=-3.6098226407334 3.9863999689180667
leaf_weight=15.099173650145529 0.86776860058307714
leaf_count=174 10
internal_value=0
internal_weight=0
internal_count=184
shrinkage=1


Tree=5
num_leaves=10
num_cat=0
split_feature=18 45 43 0 34 36 45 37 17
split_gain=13.3389 11.3375 10.2429 9.64385 6.85599 10.0388 7.03619 4.7616 0.0353152
threshold=-5.2956486499999995 0.046022391000000135 1.2758757333333337 7.6684270959400349 -0.093538116244196348 0.044880464575963681 0.0018858050000000043 -0.21518001190476183 8.3607738666666691
decision_type=2 2 2 2 2 2 2 2 2
left_child=1 2 3 4 5 -1 -6 -4 -9
right_child=-2 -3 7 -5 6 -7 -8 8 -10
leaf_value=0.29580309568314889 0.29855406425333264 0.29443045919160749 -0.61206609947886426 0.29515691300730607 -0.30700856669855997 -1.2136150168172553 -1.685767106759207 -1.6872820779206488 -1.4753253983817274
leaf_weight=8.9999999999999947 11.999999999999998 7.9999999999999991 5.5000000000000027 8.4999999999999982 5.0000000000000098 8.4999999999999982 13.499999999999998 17.000000000000004 4.9999999999999991
leaf_count=18 24 16 11 17 10 17 27 34 10
internal_value=0 -0.13679 -0.263012 0.0325477 -0.192788 0.253561 -0.617251 -0.742287 -0.950113
internal_weight=0 80 72 44.5 36 17.5 18.5 27.5 22
internal_count=184 160 144 89 72 35 37 55 44
shrinkage=1


Tree=6
num_leaves=7
num_cat=0
split_feature=9 11 44 7 1 3
split_gain=28.156 19.4197 12.3574 5.03324 2.53896 1.45234
threshold=7.7082200721305014 9.746118233333334 -2.0493148049050285e-05 9.7679033133333366 -2.0137968820361665 -1.0000000180025095e-35
decision_type=2 2 2 2 2 2
left_child=2 3 -1 -2 -5 -3
right_child=1 5 -4 4 -6 -7
leaf_value=-0.17633728491977996 -1.0102253905553411 -1.2881880924338609 -2.1149761604158739 0.6830928005884882 -0.35054804328578437 -2.1018517795419851
leaf_weight=3.5476049780845633 3.5476049780845669 3.5476049780845642 36.895091772079468 8.5142519474029523 3.9023654758930197 5.3214074671268445
leaf_count=10 10 10 104 24 11 15
internal_value=0 0.87664 -0.474881 1.53467 1.83545 -0.30418
internal_weight=0 24.8332 40.4427 15.9642 12.4166 8.86901
internal_count=184 70 114 45 35 25
shrinkage=1


Tree=7
num_leaves=4
num_cat=0
split_feature=2 1 2
split_gain=26.2361 15.7258 7.57166
threshold=-0.49858942002065071 -2.0355036403695004 2.5698590394479051
decision_type=2 2 2
left_child=-1 -2 -3
right_child=1 2 -4
leaf_value=1.2700460289121205 0.25133500832332922 -2.7909494443710101 -0.76737601226546204
leaf_weight=1.913265287876128 1.913265287876128 29.464285433292392 1.913265287876128
leaf_count=10 10 154 10
internal_value=0 -0.257728 -0.430241
internal_weight=0 33.2908 31.3776
internal_count=184 174 164
shrinkage=1


Tree=8
num_leaves=5
num_cat=0
split_feature=9 6 0 0
split_gain=36.2266 6.37958 9.38391 4.48082
threshold=7.474253405463835 -2.0456304345361658 7.6405690840352625 7.6186219530828856
decision_type=2 2 2 2
left_child=3 2 -2 -1
right_child=1 -3 -4 -5
leaf_value=-0.52591071320084293 0.11462952532018367 -2.7100133903397641 -2.6841121808410349 1.5334522613706887
leaf_weight=2.6837577968835822 2.0644290745258322 28.489121228456497 2.6837577968835831 2.0644290745258331
leaf_count=13 10 138 13 10
internal_value=0 -0.383575 0.679775 2.55548
internal_weight=0 33.2373 4.74819 4.74819
internal_count=184 161 23 23
shrinkage=1


Tree=9
num_leaves=2
num_cat=0
split_feature=40
split_gain=49.9406
threshold=3.2463405017581922e-05
decision_type=2
left_child=-1
right_child=-2
leaf_value=-3.6098226407334 3.9863999689180667
leaf_weight=15.099173650145529 0.86776860058307714
leaf_count=174 10
internal_value=0
internal_weight=0
internal_count=184
shrinkage=1


Tree=10
num_leaves=10
num_cat=0
split_feature=26 23 7 7 26 1 20 23 12
split_gain=12.4483 8.93093 12.1008 11.6933 4.95619 4.54952 1.76293 1.58715 0.898715
threshold=0.0475481511539773 13.397471650000004 9.7127807773333341 9.7720689650000025 -0.019144677879069743 -2.0227032367980713 -0.000499173472109112 14.015002200000005 5.7101090738095364
decision_type=2 2 2 2 2 2 2 2 2
left_child=1 2 -1 5 -5 6 -4 -3 -2
right_child=8 7 3 4 -6 -7 -8 -9 -10
leaf_value=0.30221244821035631 -1.1345886220013868 -1.6751291625419276 -1.6826759763714638 -0.69314718055994529 0.29947274563931658 -0.541314719826961 -0.95440844182120643 -0.88126599244113335 -1.6814512741271965
leaf_weight=21.5 5.4999999999999991 5.4999999999999982 9.4999999999999947 8.0000000000000018 13.499999999999998 9.5000000000000018 5.5000000000000027 5 8.4999999999999982
leaf_count=43 11 11 19 16 27 19 11 10 17
internal_value=0 0.242793 0.376758 0.0857763 0.62413 -0.384929 -0.727575 -0.611374 -0.779359
internal_weight=0 78 67.5 46 21.5 24.5 15 10.5 14
internal_count=184 156 135 92 43 49 30 21 28
shrinkage=1


Tree=11
num_leaves=6
num_cat=0
split_feature=3 8 11 19 8
split_gain=20.2867 15.7444 6.10307 3.34135 2.72256
threshold=-0.024447732795900224 0.30523452372102938 9.7312666533333338 15.104180000000003 0.94382130966316546
decision_type=2 2 2 2 2
left_child=2 3 -1 -2 -3
right_child=1 4 -4 -5 -6
leaf_value=-2.1150386787595137 -0.47560278679405343 -2.1036436461224737 -1.0889280228457601 0.67000922468863378 -1.0102253905553407
leaf_weight=37.959373265504837 6.0309284627437609 6.0309284627437574 6.7404494583606711 4.9666469693183899 3.5476049780845642
leaf_count=107 17 17 19 14 10
internal_value=0 0.706865 -0.49152 1.52105 -0.22579
internal_weight=0 20.5761 44.6998 10.9976 9.57853
internal_count=184 58 126 31 27
shrinkage=1


Tree=12
num_leaves=4
num_cat=0
split_feature=38 6 1
split_gain=25.7365 24.4554 5.42631
threshold=1.0037687448470356e-05 -2.041397049119499 -1.7781248088218813
decision_type=2 2 2
left_child=1 -1 -3
right_child=-2 2 -4
leaf_value=1.0701719237328766 -2.790509850005761 -2.7752788636386789 -0.76737601226546137
leaf_weight=3.8265305757522583 25.255101799964905 4.2091836333274841 1.9132652878761272
leaf_count=20 132 22 10
internal_value=0 1.33799 0.0844768
internal_weight=0 9.94898 6.12245
internal_count=184 52 32
shrinkage=1


Tree=13
num_leaves=4
num_cat=0
split_feature=3 46 4
split_gain=31.6513 41.0897 2.38756
threshold=-0.4177822038639849 -0.021949833333332995 -0.17663297132694442
decision_type=2 2 2
left_child=1 2 -1
right_child=-2 -3 -4
leaf_value=0.44407486634247206 -2.7099525237268902 -2.6971100259494509 2.0346672986069163
leaf_weight=2.4773148894309998 27.869792506098747 4.9546297788619977 2.6837577968835831
leaf_count=12 135 24 13
internal_value=0 1.49746 3.45954
internal_weight=0 10.1157 5.16107
internal_count=184 49 25
shrinkage=1


Tree=14
num_leaves=2
num_cat=0
split_feature=38
split_gain=75.1113
threshold=0.00042920201478859309
decision_type=2
left_child=-1
right_child=-2
leaf_value=-3.6097936658567975 5.3207220531411714
leaf_weight=15.012396790087221 0.95454546064138479
leaf_count=173 11
internal_value=0
internal_weight=0
internal_count=184
shrinkage=1


Tree=15
num_leaves=11
num_cat=0
split_feature=26 15 10 5 17 27 40 21 10 16
split_gain=12.4483 8.68344 8.38121 11.1458 6.65756 8.30019 5.05483 7.15228 1.72461 0.898715
threshold=0.0475481511539773 -0.013999004340277779 -2.0203619445361656 7.7357900721305013 7.1986980000000012 -0.022126747197419694 6.757986387544089e-08 4.8300028333333342 -2.0298130278694999 0.00018248253184404846
decision_type=2 2 2 2 2 2 2 2 2 2
left_child=1 -1 3 6 -4 -6 8 -8 -3 -2
right_child=9 2 4 -5 5 -7 7 -9 -10 -11
leaf_value=-1.4322776153425538 -1.1345886220013868 -0.95440844182120654 0.30269481528205044 0.29515691300730607 -1.3725364935370443 0.28883480142203688 0.28883480142203688 -1.3147688021815669 -1.6820974568030387 -1.6814512741271965
leaf_weight=7.9999999999999991 5.4999999999999991 5.4999999999999991 24 8.4999999999999982 6.5 5.4999999999999982 5.4999999999999982 5.5 9.0000000000000018 8.4999999999999982
leaf_count=16 11 11 48 17 13 11 11 11 18 17
internal_value=0 0.242793 0.356174 -0 0.692094 0.0788382 -0.330724 0.176471 -0.718213 -0.779359
internal_weight=0 78 70 34 36 12 25.5 11 14.5 14
internal_count=184 156 140 68 72 24 51 22 29 28
shrinkage=1


Tree=16
num_leaves=7
num_cat=0
split_feature=23 3 8 23 26 8
split_gain=23.6051 10.4116 11.3901 2.89908 2.83604 2.50769
threshold=13.397471650000004 0.1756952484108702 0.30523452372102938 14.015002200000005 -0.019144677879069743 0.94382130966316546
decision_type=2 2 2 2 2 2
left_child=1 4 -3 -2 -1 -4
right_child=3 2 5 -5 -6 -7
leaf_value=-1.3233540837441886 0.66150411241629303 0.40849107349077385 -2.1007657740329897 -0.60356108221130411 -2.115153769178149 -1.0102253905553407
leaf_weight=4.966646969318389 3.9023654758930197 3.9023654758930197 4.9666469693183881 3.9023654758930206 40.087936252355576 3.5476049780845642
leaf_count=14 11 11 14 11 113 10
internal_value=0 -0.335427 0.471805 1.51228 -0.559277 -0.173099
internal_weight=0 57.4712 12.4166 7.80473 45.0546 8.51425
internal_count=184 162 35 22 127 24
shrinkage=1


Tree=17
num_leaves=4
num_cat=0
split_feature=30 40 8
split_gain=24.4088 34.2894 14.5651
threshold=-0.093683578659863015 1.0000000180025095e-35 -0.28661391110838247
decision_type=2 2 2
left_child=-1 2 -2
right_child=1 -3 -4
leaf_value=-2.7904625238756493 2.3360390898321706 -2.778637717834564 -1.0978810502820102
leaf_weight=24.872448742389679 2.8698979318141937 5.1658162772655487 2.2959183454513532
leaf_count=130 15 27 12
internal_value=0 1.26804 3.07855
internal_weight=0 10.3316 5.16582
internal_count=184 54 27
shrinkage=1


Tree=18
num_leaves=4
num_cat=0
split_feature=3 46 17
split_gain=31.6513 41.0897 1.8464
threshold=-0.4177822038639849 -0.021949833333332995 7.400385
decision_type=2 2 2
left_child=1 2 -1
right_child=-2 -3 -4
leaf_value=0.57147986328819655 -2.7099525237268902 -2.6971100259494509 2.0267822987769022
leaf_weight=2.6837577968835831 27.869792506098747 4.9546297788619977 2.4773148894309998
leaf_count=13 135 24 12
internal_value=0 1.49746 3.45954
internal_weight=0 10.1157 5.16107
internal_count=184 49 25
shrinkage=1


Tree=19
num_leaves=2
num_cat=0
split_feature=26
split_gain=82.695
threshold=0.069249692637509574
decision_type=2
left_child=-1
right_child=-2
leaf_value=-3.6098226407334 6.165598482494401
leaf_weight=15.099173650145529 0.86776860058307714
leaf_count=174 10
internal_value=0
internal_weight=0
internal_count=184
shrinkage=1


Tree=20
num_leaves=9
num_cat=0
split_feature=14 17 12 12 7 7 22 39
split_gain=15.058 12.0356 9.57739 12.316 5.41164 4.83091 3.92341 1.1751
threshold=0.0017229909426440353 5.2865349999999998 4.8553966428571522 5.4652069785714357 9.6432755750000059 9.7127807773333341 -4.9888839999999979 -8.4992958243146323e-06
decision_type=2 2 2 2 2 2 2 2
left_child=4 -2 5 -4 -1 -3 -5 -7
right_child=1 2 3 6 -6 7 -8 -9
leaf_value=-0.88126599244113324 0.29266842227693424 -0.69314718055994529 0.29638161525157247 -0.5361223871715155 0.30062228984503903 -1.6887125907595018 -1.5716002192339784 -1.2401085065267958
leaf_weight=5.0000000000000027 6.9999999999999991 7.9999999999999991 9.5000000000000018 5.9999999999999991 15.999999999999998 22.5 8.9999999999999982 9.0000000000000018
leaf_count=10 14 16 19 12 32 45 18 18
internal_value=0 -0.252639 -0.389539 0.0997963 0.710214 -0.694058 -0.461794 -0.870048
internal_weight=0 71 64 24.5 21 39.5 15 31.5
internal_count=184 142 128 49 42 79 30 63
shrinkage=1


Tree=21
num_leaves=7
num_cat=0
split_feature=9 44 44 17 12 2
split_gain=30.9271 14.6542 9.04555 6.55675 4.16008 2.97029
threshold=7.7082200721305014 1.4770721153847065e-06 -1.5871863736027181e-05 5.8513616666666666 5.4652069785714357 0.50773229887227966
decision_type=2 2 2 2 2 2
left_child=2 4 -1 -3 -2 -5
right_child=1 3 -4 5 -6 -7
leaf_value=-0.45429998679830019 -2.1028032197160642 -1.0484378359587245 -2.1148869757912951 -0.45429998679830019 -0.73226268867682054 0.68382870808709351
leaf_weight=3.5476049780845633 5.6761679649353045 4.6118864715099361 35.476049780845642 3.5476049780845633 3.5476049780845642 8.8690124452114087
leaf_count=10 16 13 100 10 10 25
internal_value=0 0.908346 -0.494122 1.4571 -0.101739 1.83545
internal_weight=0 26.2523 39.0237 17.0285 9.22377 12.4166
internal_count=184 74 110 48 26 35
shrinkage=1


Tree=22
num_leaves=4
num_cat=0
split_feature=38 6 25
split_gain=33.209 27.696 8.40878
threshold=1.0037687448470356e-05 -2.041397049119499 -0.081691055053720152
decision_type=2 2 2
left_child=1 -1 -3
right_child=-2 2 -4
leaf_value=1.5421242374808566 -2.7905557661653648 -2.7744175174341477 -0.25802050197106552
leaf_weight=3.6352040469646454 25.637754857540131 4.0178571045398712 1.9132652878761272
leaf_count=19 134 21 10
internal_value=0 1.6215 0.272285
internal_weight=0 9.56633 5.93112
internal_count=184 50 31
shrinkage=1


Tree=23
num_leaves=4
num_cat=0
split_feature=27 34 29
split_gain=28.7588 36.486 9.90416
threshold=0.018947450228775062 -0.093740167905042068 2.6823623320891374
decision_type=2 2 2
left_child=2 -2 -1
right_child=1 -3 -4
leaf_value=-2.7100905520130669 2.0524967318999745 -2.687870841046867 -0.56774071495591194
leaf_weight=29.314892858266834 3.303086519241333 3.0966436117887488 2.2708719819784156
leaf_count=142 16 15 11
internal_value=0 1.91118 -0.405652
internal_weight=0 6.39973 31.5858
internal_count=184 31 153
shrinkage=1


Tree=24
num_leaves=2
num_cat=0
split_feature=32
split_gain=36.6489
threshold=0.038685483490420967
decision_type=2
left_child=-1
right_child=-2
leaf_value=-3.6098226407334 2.8968007121298984
leaf_weight=15.099173650145529 0.86776860058307714
leaf_count=174 10
internal_value=0
internal_weight=0
internal_count=184
shrinkage=1


end of trees

feature importances:
average_day_mean_max_magn=6
average_day_mean_min_magn=6
average_min_magn=5
average_max_min_magn=5
average_lastday_mean_magn=5
diff_1_day_max_mean_magn=5
diff_1_max_magn=5
average_day_mean_max_sound=5
average_day_min_mean_magn=4
average_lastday_max_magn=4
diff_1_lastday_max_min_magn=4
diff_1_mean_sound=4
average_day_max_mean_magn=3
average_lastday_max_min_magn=3
diff_1_lastday_mean_magn=3
average_lastday_min_sound=3
diff_1_day_mean_max_sound=3
diff_1_lastday_mean_sound=3
average_lastday_min_magn=2
diff_1_day_mean_max_magn=2
diff_1_min_magn=2
diff_1_lastday_min_magn=2
average_day_mean_min_sound=2
average_max_sound=2
diff_1_day_min_mean_sound=2
diff_1_lastday_max_sound=2
diff_1_lastday_min_sound=2
average_mean_magn=1
average_max_magn=1
diff_1_day_mean_min_magn=1
diff_1_mean_magn=1
diff_1_max_min_magn=1
diff_1_lastday_max_magn=1
average_day_min_mean_sound=1
average_min_sound=1
average_lastday_mean_sound=1
average_lastday_max_sound=1
diff_1_day_max_mean_sound=1
diff_1_day_mean_min_sound=1
diff_1_max_sound=1
diff_1_min_sound=1
diff_1_max_min_sound=1

parameters:
[boosting: rf]
[objective: multiclass]
[metric: multi_logloss]
[tree_learner: serial]
[device_type: cpu]
[data: ]
[valid: ]
[num_iterations: 100]
[learning_rate: 0.05]
[num_leaves: 48]
[num_threads: -1]
[max_depth: -1]
[min_data_in_leaf: 10]
[min_sum_hessian_in_leaf: 0.001]
[bagging_fraction: 0.6]
[pos_bagging_fraction: 1]
[neg_bagging_fraction: 1]
[bagging_freq: 2]
[bagging_seed: 3]
[feature_fraction: 0.6]
[feature_fraction_bynode: 1]
[feature_fraction_seed: 2]
[early_stopping_round: 0]
[first_metric_only: 0]
[max_delta_step: 0]
[lambda_l1: 0.05]
[lambda_l2: 0.05]
[min_gain_to_split: 0]
[drop_rate: 0.1]
[max_drop: 50]
[skip_drop: 0.5]
[xgboost_dart_mode: 0]
[uniform_drop: 0]
[drop_seed: 4]
[top_rate: 0.2]
[other_rate: 0.1]
[min_data_per_group: 100]
[max_cat_threshold: 32]
[cat_l2: 10]
[cat_smooth: 10]
[max_cat_to_onehot: 4]
[top_k: 20]
[monotone_constraints: ]
[feature_contri: ]
[forcedsplits_filename: ]
[forcedbins_filename: ]
[refit_decay_rate: 0.9]
[cegb_tradeoff: 1]
[cegb_penalty_split: 0]
[cegb_penalty_feature_lazy: ]
[cegb_penalty_feature_coupled: ]
[verbosity: -1]
[max_bin: 200]
[max_bin_by_feature: ]
[min_data_in_bin: 3]
[bin_construct_sample_cnt: 200000]
[histogram_pool_size: -1]
[data_random_seed: 1]
[output_model: LightGBM_model.txt]
[snapshot_freq: -1]
[input_model: ]
[output_result: LightGBM_predict_result.txt]
[initscore_filename: ]
[valid_data_initscores: ]
[pre_partition: 0]
[enable_bundle: 1]
[max_conflict_rate: 0]
[is_enable_sparse: 1]
[sparse_threshold: 0.8]
[use_missing: 1]
[zero_as_missing: 0]
[two_round: 0]
[save_binary: 0]
[header: 0]
[label_column: ]
[weight_column: ]
[group_column: ]
[ignore_column: ]
[categorical_feature: ]
[predict_raw_score: 0]
[predict_leaf_index: 0]
[predict_contrib: 0]
[num_iteration_predict: -1]
[pred_early_stop: 0]
[pred_early_stop_freq: 10]
[pred_early_stop_margin: 10]
[convert_model_language: ]
[convert_model: gbdt_prediction.cpp]
[num_class: 5]
[is_unbalance: 0]
[scale_pos_weight: 1]
[sigmoid: 1]
[boost_from_average: 1]
[reg_sqrt: 0]
[alpha: 0.9]
[fair_c: 1]
[poisson_max_delta_step: 0.7]
[tweedie_variance_power: 1.5]
[max_position: 20]
[lambdamart_norm: 1]
[label_gain: ]
[metric_freq: 1]
[is_provide_training_metric: 0]
[eval_at: ]
[multi_error_top_k: 1]
[num_machines: 1]
[local_listen_port: 12400]
[time_out: 120]
[machine_list_filename: ]
[machines: ]
[gpu_platform_id: -1]
[gpu_device_id: -1]
[gpu_use_dp: 0]

end of parameters

pandas_categorical:[]
