tree
version=v3
num_class=5
num_tree_per_iteration=5
label_index=0
max_feature_idx=47
objective=multiclass num_class:5
average_output
feature_names=average_day_max_mean_magn average_day_min_mean_magn average_day_mean_max_magn average_day_mean_min_magn average_mean_magn average_max_magn average_min_magn average_max_min_magn average_lastday_mean_magn average_lastday_max_magn average_lastday_min_magn average_lastday_max_min_magn diff_1_day_max_mean_magn diff_1_day_min_mean_magn diff_1_day_mean_max_magn diff_1_day_mean_min_magn diff_1_mean_magn diff_1_max_magn diff_1_min_magn diff_1_max_min_magn diff_1_lastday_mean_magn diff_1_lastday_max_magn diff_1_lastday_min_magn diff_1_lastday_max_min_magn average_day_max_mean_sound average_day_min_mean_sound average_day_mean_max_sound average_day_mean_min_sound average_mean_sound average_max_sound average_min_sound average_max_min_sound average_lastday_mean_sound average_lastday_max_sound average_lastday_min_sound average_lastday_max_min_sound diff_1_day_max_mean_sound diff_1_day_min_mean_sound diff_1_day_mean_max_sound diff_1_day_mean_min_sound diff_1_mean_sound diff_1_max_sound diff_1_min_sound diff_1_max_min_sound diff_1_lastday_mean_sound diff_1_lastday_max_sound diff_1_lastday_min_sound diff_1_lastday_max_min_sound
feature_infos=[-0.43806051047605338:8.6823506800001375] [-1.0613706701903387:0.3817475847620414] [-0.74923022724192578:5.6490273250343099] [-0.82757200640859363:3.0568347648947536] [-0.77865473832060739:3.475140791579733] [-0.31349993904748186:8.7104797276191839] [-1.0615064070474818:0.30146806095251805] [0.62782299999999991:9.6651891509999999] [-0.77860949884686448:3.6599703576346165] [-0.41362593904748191:8.6797830609525164] [-1.0615064070474818:0.46862972761918459] [0.4682639999999999:9.558662895000003] [0.1555447619047616:6.0688112714285767] [-5.3465173142857099:-0.17000351190476165] [8.2112284820030749e-05:0.027797424010217099] [-0.02093681933842239:-9.7856481481480804e-05] [-0.0029835631898454729:0.0033508437365475643] [0.22190749999999992:7.9345886666666674] [-9.4313382499999978:-0.2129596666666668] [0.44056749999999978:15.552601333333332] [-0.0068661754551520866:0.0077236565281617016] [0.10080858333333333:7.2107657000000005] [-9.4313382499999978:-0.098750833333333121] [0.20197758333333327:14.1818917] [-0.0039064068041395781:0.26000385510062235] [-0.003906406804139625:-0.0011386640898535733] [-0.0039064068041396015:0.10691752371669323] [-0.0039064068041396059:0.078121597624872169] [-0.0039064068041395434:0.084663959109102377] [-0.0039064068041396007:0.27639309319586042] [-0.0039064068041396007:-0.0012826318041396006] [0:0.28029950000000003] [-0.0039064068041396015:0.078121597624872169] [-0.0039064068041396007:0.25033059319586037] [-0.0039064068041396007:-0.00086183680413960077] [0:0.25423699999999999] [0:0.053067925696831948] [-0.045711382214285716:0] [0:0.00056995844907407379] [-0.00056861797697368359:0] [-0.00014037870129870124:8.9038774969915833e-05] [0:0.22296221699999999] [-0.247677433:0] [0:0.47063965000000002] [-4.2765848384948463e-05:1.0823970023148143e-05] [0:0.18561033333333327] [-0.14109800052774751:0] [0:0.32670833386108078]
tree_sizes=895 639 627 532 629 882 643 722 532 636 913 644 738 537 645 1076 637 724 537 538 1006 537 626 537 540 1012 534 739 532 540 963 534 626 427 631 1165 636 720 427 626 998 534 633 529 731 978 738 630 536 636 1013 534 725 538 535 955 737 529 535 640 990 539 627 429 534 1109 535 628 538 533 1090 536 725 535 730 1118 634 623 540 633 994 736 635 538 638 1010 539 629 538 621 884 633 727 539 742 880 736 723 542 634 1063 742 728 535 528 998 740 731 433 539 1088 645 728 538 625 880 538 735 538 630 889 635 630 436 644 908 641 630 435 631 1085 540 632 533 736 996 538 721 537 633 896 538 626 536 639 890 534 631 536 639 926 639 731 532 631 926 739 828 531 633 1087 640 628 532 629 894 738 723 532 629 1128 532 741 538 538 1087 643 730 537 533 1100 633 726 538 633 1098 742 627 538 740 978 639 730 538 540 969 639 626 537 640 1023 640 730 425 639 977 738 629 431 643 898 634 725 430 629 985 634 628 540 633 997 638 630 435 536 972 738 630 435 639 1094 634 734 541 640 890 639 727 538 639 1098 636 633 542 530 1106 540 633 542 632 1073 635 630 535 634 1108 533 731 534 641 969 534 628 532 736 874 733 727 536 737 988 637 630 533 629 1005 637 630 535 633 1009 639 633 544 640 1004 639 728 545 535 1021 534 734 429 626 1109 540 629 430 626 1005 735 628 542 639 966 637 637 539 638 968 743 630 431 641 1076 640 630 431 523 998 536 730 435 638 1089 539 726 434 627 984 535 629 539 643 974 536 626 540 645 1077 535 633 542 637 992 539 631 541 637 958 737 625 430 737 1039 642 626 431 634 951 537 734 429 643 1161 623 729 427 628 1011 826 730 541 631 1004 645 726 539 541 960 538 629 539 629 1083 640 725 543 628 965 734 721 431 627 977 643 734 433 637 979 742 630 538 538 1090 643 622 540 533 1084 735 734 540 632 992 741 729 538 633 981 744 632 540 627 915 642 726 532 629 1028 533 732 430 633 1002 534 632 430 635 901 641 629 434 633 959 738 629 432 643 1006 639 740 541 632 906 534 733 431 636 967 735 727 542 631 1087 641 625 539 631 1085 531 833 536 539 1115 639 630 537 539 901 532 633 541 538 1079 536 632 540 538 919 644 734 537 630 1068 632 725 536 730 998 632 728 432 631 1017 638 730 430 631 973 732 725 539 538 946 737 632 534 538 978 537 732 536 538 1004 533 728 539 537 1011 531 731 529 636 999 432 630 532 638 894 637 723 437 641 984 727 731 437 633 968 635 629 540 638 1113 538 629 540 638

Tree=0
num_leaves=8
num_cat=0
split_feature=22 26 39 26 6 23 20
split_gain=24.6188 7.91958 9.25081 3.38363 2.72381 1.72163 2.78016
threshold=-2.8712017833333334 -0.0020865855127707969 -7.198144352098822e-07 0.00036129802017118771 -0.99362803904748176 6.7017584000000019 -0.0014783028016543643
decision_type=2 2 2 2 2 2 2
left_child=3 2 -2 5 -3 -1 -7
right_child=1 4 -4 -5 -6 6 -8
leaf_value=-1.6869166509649294 -1.6778800049874261 -0.367180329731216 -0.07824034826180859 -0.69314718055994529 0.30210222561582645 -1.6751291625419271 -0.69314718055994529
leaf_weight=16.000000000000004 6.5 8.9999999999999982 7.9999999999999982 6.9999999999999991 21.000000000000004 5.5 5.9999999999999982
leaf_count=32 13 18 16 14 42 11 12
internal_value=0 0.503928 -0.0996564 -0.620839 0.797005 -0.778584 -0.471861
internal_weight=0 44.5 14.5 34.5 30 27.5 11.5
internal_count=158 89 29 69 60 55 23
shrinkage=1


Tree=1
num_leaves=5
num_cat=0
split_feature=44 12 5 11
split_gain=30.5098 9.51841 0.300695 0.358288
threshold=1.4228262491117526e-06 4.4593611142857172 -0.024006939047481739 8.0302110340000024
decision_type=2 2 2 2
left_child=1 2 -1 -4
right_child=-2 -3 3 -5
leaf_value=-2.1079129932230627 0.72173462760883988 -0.66822794833264854 -2.5435520069460598 -2.1079129932230627
leaf_weight=2.4101813137531307 3.6152719706296912 3.1332357078790656 26.511994451284412 2.4101813137531272
leaf_count=10 15 13 110 10
internal_value=0 -0.347428 -0.515248 -0.544253
internal_weight=0 34.4656 31.3324 28.9222
internal_count=158 143 130 120
shrinkage=1


Tree=2
num_leaves=5
num_cat=0
split_feature=2 14 14 6
split_gain=40.9174 18.6123 4.17004 2.49932
threshold=0.28755181302274285 0.0020495779169144497 0.0015544158730158733 -1.0612366105474818
decision_type=2 2 2 2
left_child=3 2 -2 -1
right_child=1 -3 -4 -5
leaf_value=-1.3164883419518594 -0.38462483667503378 -2.2085457152249841 0.8614219442940394 -2.2286952339345985
leaf_weight=3.2090795040130571 4.8136192560195905 3.5299874544143668 7.3808828592300415 31.769887089729313
leaf_count=10 15 11 23 99
internal_value=0 1.40181 1.9863 -0.537629
internal_weight=0 15.7245 12.1945 34.979
internal_count=158 49 38 109
shrinkage=1


Tree=3
num_leaves=4
num_cat=0
split_feature=17 38 29
split_gain=6.73104 18.6467 0.849407
threshold=0.68463150000000017 1.9455762105958165e-06 0.054308248195860408
decision_type=2 2 2
left_child=1 -1 -2
right_child=2 -3 -4
leaf_value=-3.4338407855623339 -3.4581300360155236 1.2962915058382385 -2.5388339691433797
leaf_weight=2.4104683399200453 11.248852252960203 1.2052341699600218 1.0043618083000172
leaf_count=24 112 12 10
internal_value=0 1.10236 -0.440511
internal_weight=0 3.6157 12.2532
internal_count=158 36 122
shrinkage=1


Tree=4
num_leaves=5
num_cat=0
split_feature=40 47 31 12
split_gain=9.08059 23.5039 17.9324 1.60709
threshold=-1.3584462554841432e-08 0.0043486534999999998 0.0066460612500000007 3.917881400000002
decision_type=2 2 2 2
left_child=1 2 -1 -3
right_child=-2 3 -4 -5
leaf_value=-2.2491941439502932 -2.798068545489325 -2.7931023773676253 1.6808258872505424 -1.7867628535122697
leaf_weight=1.896235048770907 15.549127399921415 7.7745636999607068 2.8443525731563568 1.8962350487709043
leaf_count=10 82 41 15 10
internal_value=0 0.545549 2.35848 -0.345557
internal_weight=0 14.4114 4.74059 9.6708
internal_count=158 76 25 51
shrinkage=1


Tree=5
num_leaves=8
num_cat=0
split_feature=22 28 15 28 10 6 10
split_gain=24.6188 7.356 8.00545 3.14579 3.43719 2.70287 0.67762
threshold=-2.8712017833333334 -0.0024004658527942728 -0.0015760663580246901 -0.00018276511741056772 -1.0612358035474816 -0.99362803904748176 -1.0612299105474816
decision_type=2 2 2 2 2 2 2
left_child=3 2 -2 6 -5 -3 -1
right_child=1 5 -4 4 -6 -7 -8
leaf_value=-1.2825511540698791 -1.5371188117656189 -0.367180329731216 -0.07824034826180859 -1.3952748401344133 -0.37083313097316839 0.3019866393913927 -1.686029742837525
leaf_weight=7.4999999999999991 7 8.9999999999999982 7.9999999999999982 7 5.9999999999999982 20.500000000000004 14.000000000000002
leaf_count=15 14 18 16 14 12 41 28
internal_value=0 0.503928 -0.0631229 -0.620839 -0.226054 0.79357 -0.856148
internal_weight=0 44.5 15 34.5 13 29.5 21.5
internal_count=158 89 30 69 26 59 43
shrinkage=1


Tree=6
num_leaves=5
num_cat=0
split_feature=44 12 46 37
split_gain=30.5098 9.51841 0.56024 0.601984
threshold=1.4228262491117526e-06 4.4593611142857172 -0.0064578709999999996 -0.0090931956309523859
decision_type=2 2 2 2
left_child=1 2 3 -1
right_child=-2 -3 -4 -5
leaf_value=-2.5172550088224721 0.72173462760883988 -0.66822794833264854 -2.5434687013467858 -1.8738816287880946
leaf_weight=2.6511994451284409 3.6152719706296912 3.1332357078790656 25.788940057158474 2.8922175765037528
leaf_count=11 15 13 107 12
internal_value=0 -0.347428 -0.515248 -0.209797
internal_weight=0 34.4656 31.3324 5.54342
internal_count=158 143 130 23
shrinkage=1


Tree=7
num_leaves=6
num_cat=0
split_feature=2 3 28 22 1
split_gain=40.9174 9.87605 13.1176 2.49932 0.15885
threshold=0.28755181302274285 0.2620244881965712 -0.00059915730896994372 -3.3060233999999995 -1.0440638646903386
decision_type=2 2 2 2 2
left_child=3 4 -3 -1 -2
right_child=1 2 -4 -5 -6
leaf_value=-1.3164883419518594 0.84356907925564961 0.32746544771579211 -2.211997253026091 -2.2286952339345985 0.27749655376010596
leaf_weight=3.2090795040130571 4.17180335521698 3.8508954048156729 4.1718033552169791 31.769887089729313 3.5299874544143668
leaf_count=10 13 12 13 99 11
internal_value=0 1.40181 0.610832 -0.537629 2.21005
internal_weight=0 15.7245 8.0227 34.979 7.70179
internal_count=158 49 25 109 24
shrinkage=1


Tree=8
num_leaves=4
num_cat=0
split_feature=17 38 31
split_gain=6.73104 18.6467 0.849407
threshold=0.68463150000000017 1.9455762105958165e-06 0.049668349999937446
decision_type=2 2 2
left_child=1 -1 -2
right_child=2 -3 -4
leaf_value=-3.4338407855623339 -3.4581300360155236 1.2962915058382385 -2.5388339691433797
leaf_weight=2.4104683399200453 11.248852252960203 1.2052341699600218 1.0043618083000172
leaf_count=24 112 12 10
internal_value=0 1.10236 -0.440511
internal_weight=0 3.6157 12.2532
internal_count=158 36 122
shrinkage=1


Tree=9
num_leaves=5
num_cat=0
split_feature=25 9 10 8
split_gain=9.96262 30.4084 1.82818 0.366464
threshold=-0.0039064068041189523 4.0001830609525193 -0.89325393904748174 -1.0000000180025095e-35
decision_type=2 2 2 2
left_child=1 3 -2 -1
right_child=2 -3 -4 -5
leaf_value=-2.7885192667920853 -2.7986102653367486 0.94429976929715531 -1.7867628535122697 -2.2491941439502932
leaf_weight=5.3094581365585327 17.445362448692325 3.4132230877876282 1.8962350487709034 1.8962350487709061
leaf_count=28 92 18 10 10
internal_value=0 0.750836 -0.452164 -0.410754
internal_weight=0 10.6189 19.3416 7.20569
internal_count=158 56 102 38
shrinkage=1


Tree=10
num_leaves=8
num_cat=0
split_feature=33 17 34 13 39 23 11
split_gain=17.1596 9.12406 7.52511 3.91221 2.78033 1.48959 1.07002
threshold=0.0028121616958603998 0.32395050000000009 -0.0039064068032494377 -3.1460062698412661 -3.0431522832491596e-06 7.3802148999999995 2.1233112083333339
decision_type=2 2 2 2 2 2 2
left_child=1 -1 3 5 -4 -2 -3
right_child=2 6 4 -5 -6 -7 -8
leaf_value=-1.2773055964015292 -1.6867163123927427 0.30186528826798464 -0.8852001606923956 -0.74026759940811282 -0.055720279975149944 -1.111586896872002 -0.20554387477482128
leaf_weight=5.0000000000000027 15.499999999999998 20.000000000000004 7.4999999999999991 9.5000000000000018 8.4999999999999982 6.9999999999999991 5.9999999999999991
leaf_count=10 31 40 15 19 17 14 12
internal_value=0 0.642512 -0.311134 -0.591264 0.246106 -0.818182 0.880998
internal_weight=0 31 48 32 16 22.5 26
internal_count=158 62 96 64 32 45 52
shrinkage=1


Tree=11
num_leaves=5
num_cat=0
split_feature=44 12 40 39
split_gain=29.8346 18.7051 4.30967 4.91425
threshold=1.4228262491117526e-06 4.4593611142857172 1.1621152339984623e-07 -1.9173390303240741e-06
decision_type=2 2 2 2
left_child=1 2 -1 -4
right_child=-2 -3 3 -5
leaf_value=-2.5435520069460598 0.95177329574062397 0.075670008562380486 -2.5143871052370312 -0.52266395576289182
leaf_weight=26.511994451284412 3.3742538392543784 3.3742538392543784 2.4101813137531281 2.4101813137531272
leaf_count=110 14 14 10 10
internal_value=0 -0.176422 -0.419653 0.440823
internal_weight=0 34.7066 31.3324 4.82036
internal_count=158 144 130 20
shrinkage=1


Tree=12
num_leaves=6
num_cat=0
split_feature=1 15 32 14 1
split_gain=23.3516 10.7786 2.46063 6.79101 2.48357
threshold=-1.0520771198570056 -0.0022706496905588614 -0.00022425345711364367 0.0017920966700126094 -0.80463917714272026
decision_type=2 2 2 2 2
left_child=1 -1 4 -4 -2
right_child=2 -3 3 -5 -6
leaf_value=-1.3548391448769586 -2.2285307117958713 0.84648941779087394 -0.39598301490799948 -2.2164860760435001 -1.31648834195186
leaf_weight=4.4927113056182861 29.844439387321469 4.4927113056182844 3.2090795040130597 5.4554351568222046 3.2090795040130642
leaf_count=14 93 14 10 17 10
internal_value=0 1.36449 -0.408171 0.0607659 -0.532512
internal_weight=0 8.98542 41.718 8.66451 33.0535
internal_count=158 28 130 27 103
shrinkage=1


Tree=13
num_leaves=4
num_cat=0
split_feature=18 41 14
split_gain=6.40955 2.93942 3.11191
threshold=-0.31887008333333328 0.047136654016666675 0.00031882161693305803
decision_type=2 2 2
left_child=1 2 -1
right_child=-2 -3 -4
leaf_value=-1.7534236282406326 -0.64195192224574038 -1.5903929456945582 -3.4589255494215818
leaf_weight=1.104797989130019 1.004361808300019 1.0043618083000172 12.755394965410231
leaf_count=11 10 10 127
internal_value=0 -0.254683 -0.378728
internal_weight=0 14.8646 13.8602
internal_count=158 148 138
shrinkage=1


Tree=14
num_leaves=5
num_cat=0
split_feature=25 40 15 3
split_gain=14.6149 3.43431 8.10223 0.352974
threshold=-0.0039064068041396024 -6.0569611512752729e-08 -0.00073384878032785956 -0.06308742359149401
decision_type=2 2 2 2
left_child=-1 2 3 -2
right_child=1 -3 -4 -5
leaf_value=-0.028643939988283851 -2.2491941439502932 -2.7987954395092256 -0.59287632898883103 -2.7867918005055121
leaf_weight=2.4651055634021786 1.8962350487709043 18.20385646820068 2.6547290682792717 4.7405876219272614
leaf_count=13 10 96 14 25
internal_value=0 -0.302366 0.187659 -0.398115
internal_weight=0 27.4954 9.29155 6.63682
internal_count=158 145 49 35
shrinkage=1


Tree=15
num_leaves=10
num_cat=0
split_feature=33 17 26 36 13 5 33 40 9
split_gain=17.1596 9.12406 6.33868 4.96063 3.47821 2.56139 3.68518 1.21311 0.0214549
threshold=0.0028121616958603998 0.32395050000000009 0.00036129802017118771 0.004205170773809528 -4.4793171443877515 6.9851825609525191 0.0034148831958604 -7.5975914456936116e-08 6.9636305609525193
decision_type=2 2 2 2 2 2 2 2 2
left_child=1 -1 3 -2 -4 6 -5 -3 -7
right_child=2 7 4 5 -6 8 -8 -9 -10
leaf_value=-1.2773055964015292 -0.52355653728509144 -0.25170573911850436 -0.88126599244113335 -1.6733452003619251 0.28705083924203512 -1.4753253983817269 -0.55839540751029992 0.30198663939139303 -1.6851790530699053
leaf_weight=5.0000000000000027 8.4999999999999982 5.5000000000000062 5 5.0000000000000018 4.9999999999999982 5.0000000000000027 7 20.499999999999996 12.499999999999998
leaf_count=10 17 11 10 10 10 10 14 41 25
internal_value=0 0.642512 -0.311134 -0.498029 0.393035 -0.692047 -0.327801 0.880998 -0.937322
internal_weight=0 31 48 38 10 29.5 12 26 17.5
internal_count=158 62 96 76 20 59 24 52 35
shrinkage=1


Tree=16
num_leaves=5
num_cat=0
split_feature=40 13 40 14
split_gain=22.5165 19.4821 11.6249 6.11391
threshold=1.1621152339984623e-07 -4.6920405928571363 2.5104932171711719e-07 0.0024619819638000951
decision_type=2 2 2 2
left_child=1 -1 -2 -4
right_child=2 -3 3 -5
leaf_value=0.16539654605606047 1.1850356334781387 -2.5435787766779998 -2.207542194644176 -0.11618984374892394
leaf_weight=2.8922175765037528 2.8922175765037519 26.753012582659725 3.1332357078790665 2.4101813137531281
leaf_count=12 12 111 13 10
internal_value=0 -0.309431 1.53727 0.666232
internal_weight=0 29.6452 8.43563 5.54342
internal_count=158 123 35 23
shrinkage=1


Tree=17
num_leaves=6
num_cat=0
split_feature=1 21 3 0 17
split_gain=23.3516 10.7786 3.37383 5.86505 2.49681
threshold=-1.0520771198570056 3.2293571000000001 0.21664423023902202 7.0465904180953798 5.7813611666666693
decision_type=2 2 2 2 2
left_child=1 -1 4 -4 -2
right_child=2 -3 3 -5 -6
leaf_value=0.84648941779087394 -2.2286692103552186 -1.3548391448769586 -0.3959830149079997 -2.2104134548536063 -1.3164883419518596
leaf_weight=4.4927113056182844 31.448979139328003 4.4927113056182861 3.2090795040130606 3.8508954048156738 3.2090795040130606
leaf_count=14 98 14 10 12 10
internal_value=0 1.36449 -0.408171 0.215659 -0.536815
internal_weight=0 8.98542 41.718 7.05997 34.6581
internal_count=158 28 130 22 108
shrinkage=1


Tree=18
num_leaves=4
num_cat=0
split_feature=18 31 14
split_gain=6.40955 2.93942 3.11191
threshold=-0.31887008333333328 0.096653670000000039 0.00031882161693305803
decision_type=2 2 2
left_child=1 2 -1
right_child=-2 -3 -4
leaf_value=-1.7534236282406326 -0.64195192224574038 -1.5903929456945582 -3.4589255494215818
leaf_weight=1.104797989130019 1.004361808300019 1.0043618083000172 12.755394965410231
leaf_count=11 10 10 127
internal_value=0 -0.254683 -0.378728
internal_weight=0 14.8646 13.8602
internal_count=158 148 138
shrinkage=1


Tree=19
num_leaves=4
num_cat=0
split_feature=46 39 20
split_gain=6.87397 28.1437 1.82599
threshold=-0.0017561394999999994 -9.5415702766754834e-07 -0.0027573474117789545
decision_type=2 2 2
left_child=2 -2 -1
right_child=1 -3 -4
leaf_value=-1.7867628535122713 0.65555140982093763 -2.7925948205258417 -2.7985614355413699
leaf_weight=1.8962350487709105 3.4132230877876282 7.3953166902065259 17.255738943815231
leaf_count=10 18 39 91
internal_value=0 0.54377 -0.451106
internal_weight=0 10.8085 19.152
internal_count=158 57 101
shrinkage=1


Tree=20
num_leaves=9
num_cat=0
split_feature=22 32 25 15 26 20 44 12
split_gain=19.9465 13.3771 5.00921 4.53016 2.00313 1.55673 2.78016 0.0444936
threshold=-2.8712017833333334 -0.0024844008518897279 -0.0017800175184253147 -0.00091182013303769429 0.00036129802017118771 0.00020256733315733331 -9.8683357967392923e-07 2.0989136857142863
decision_type=2 2 2 2 2 2 2 2
left_child=4 3 7 -2 5 6 -1 -3
right_child=1 2 -4 -5 -6 -7 -8 -9
leaf_value=-1.6751291625419271 -1.4732518926018301 0.30221244821035631 -0.77422826164102632 -0.37083313097316845 -0.82789895360959065 -1.6854843453109032 -0.69314718055994529 0.089031037261836921
leaf_weight=5.5 9.4999999999999982 21.5 5.5000000000000027 5.9999999999999991 6.9999999999999991 12.999999999999998 6.0000000000000053 4.9999999999999991
leaf_count=11 19 43 11 12 14 26 12 10
internal_value=0 0.409043 0.778471 -0.350482 -0.616482 -0.751527 -0.471861 0.958569
internal_weight=0 47.5 32 15.5 31.5 24.5 11.5 26.5
internal_count=158 95 64 31 63 49 23 53
shrinkage=1


Tree=21
num_leaves=4
num_cat=0
split_feature=44 12 40
split_gain=22.248 19.2245 3.33298
threshold=1.4228262491117526e-06 4.4593611142857172 1.1621152339984623e-07
decision_type=2 2 2
left_child=1 2 -1
right_child=-2 -3 -4
leaf_value=-2.5436562731258414 0.58835510949870939 0.075670008562380486 -1.587093452058431
leaf_weight=27.476066976785663 3.1332357078790656 3.3742538392543784 4.0973082333803168
leaf_count=114 13 14 17
internal_value=0 -0.207785 -0.452509
internal_weight=0 34.9476 31.5734
internal_count=158 145 131
shrinkage=1


Tree=22
num_leaves=5
num_cat=0
split_feature=2 14 6 9
split_gain=30.0936 19.0259 5.66019 3.19322
threshold=0.28755181302274285 0.0020495779169144497 -1.0612366105474818 6.9648805609525191
decision_type=2 2 2 2
left_child=2 3 -1 -2
right_child=1 -3 -4 -5
leaf_value=-0.95429157359097827 -0.34075895637566211 -1.8740307380958219 -2.2286155393582363 0.85651755468556079
leaf_weight=3.8508954048156729 4.1718033552169818 5.7763431072235099 30.807163238525391 6.0972510576248169
leaf_count=12 13 18 96 19
internal_value=0 1.175 -0.479192 1.98911
internal_weight=0 16.0454 34.6581 10.2691
internal_count=158 50 108 32
shrinkage=1


Tree=23
num_leaves=4
num_cat=0
split_feature=13 11 24
split_gain=11.2243 2.36711 0.857759
threshold=-0.18962922619047534 0.75409550000000014 0.02542375462443185
decision_type=2 2 2
left_child=1 -1 -3
right_child=-2 2 -4
leaf_value=-2.0070152556705509 -0.021518997366139825 -3.4587817822060285 -2.5388339691433797
leaf_weight=1.3056703507900227 1.1047979891300208 12.454086422920225 1.0043618083000172
leaf_count=13 11 124 10
internal_value=0 -0.320333 -0.448317
internal_weight=0 14.7641 13.4584
internal_count=158 147 134
shrinkage=1


Tree=24
num_leaves=4
num_cat=0
split_feature=25 40 26
split_gain=19.8044 4.82133 18.1339
threshold=-0.0039064068041396024 -6.0569611512752729e-08 -0.00076044999705181758
decision_type=2 2 2
left_child=-1 2 -2
right_child=1 -3 -4
leaf_value=0.78229987539696788 0.36895367963057124 -2.7990063350963714 -2.7910666963532074
leaf_weight=1.896235048770907 2.4651055634021759 19.151973992586136 6.4471991658210772
leaf_count=10 13 101 34
internal_value=0 -0.271996 0.330847
internal_weight=0 28.0643 8.9123
internal_count=158 148 47
shrinkage=1


Tree=25
num_leaves=9
num_cat=0
split_feature=0 39 8 25 4 14 42 1
split_gain=20.9793 7.61773 7.52562 5.05157 3.39285 2.54002 1.54529 0.0340597
threshold=1.0533658585715659 -9.0169457349335539e-07 0.26223136824113896 -0.0017800175184253147 -0.26035781748514214 0.0028426253908226781 -0.010086579000000002 -1.0544547391427199
decision_type=2 2 2 2 2 2 2 2
left_child=3 4 -3 -1 -2 6 -6 -8
right_child=1 2 -4 -5 5 -7 7 -9
leaf_value=0.30173772992598802 -0.50502836867875711 0.17819784867982069 -1.3147688021815669 -0.77422826164102632 -1.0671929820866628 -0.82789895360959065 -1.4753253983817274 -1.6871048844874372
leaf_weight=19.500000000000004 4.9999999999999991 8.4999999999999982 5.4999999999999991 5.4999999999999991 6.4999999999999991 6.9999999999999991 4.9999999999999991 16.500000000000007
leaf_count=39 10 17 11 11 13 14 10 33
internal_value=0 -0.350601 0.281139 0.756487 -0.573034 -0.68331 -0.818182 -0.948956
internal_weight=0 54 14 25 40 35 28 21.5
internal_count=158 108 28 50 80 70 56 43
shrinkage=1


Tree=26
num_leaves=4
num_cat=0
split_feature=13 40 15
split_gain=19.1044 21.257 16.5487
threshold=-4.6920405928571363 1.1621152339984623e-07 -0.0017461617667067681
decision_type=2 2 2
left_child=-1 -2 -3
right_child=1 2 -4
leaf_value=0.50527624186341957 -2.5437057144904553 -2.2314019814421604 0.77608011061968241
leaf_weight=2.8922175765037528 27.958103239536285 3.3742538392543793 3.856290102005004
leaf_count=12 116 14 16
internal_value=0 -0.181963 1.33856
internal_weight=0 35.1886 7.23054
internal_count=158 146 30
shrinkage=1


Tree=27
num_leaves=6
num_cat=0
split_feature=9 14 24 6 27
split_gain=25.3893 15.6085 8.16043 5.19848 0.999709
threshold=6.9648805609525191 0.0025458019487793709 -0.003004530141044339 -1.0612366105474818 -0.0003087711516254359
decision_type=2 2 2 2 2
left_child=2 -2 -1 -4 -5
right_child=1 -3 3 4 -6
leaf_value=-0.3959830149079997 0.85651755468556168 -1.6977106463308984 -0.95429157359097827 -2.2285595882683666 -1.6498845312769268
leaf_weight=3.2090795040130606 6.0972510576248151 3.8508954048156738 3.8508954048156729 30.165347337722775 3.5299874544143703
leaf_count=10 19 12 12 94 11
internal_value=0 1.47292 -0.305015 -0.437242 -0.563916
internal_weight=0 9.94815 40.7553 37.5462 33.6953
internal_count=158 31 127 117 105
shrinkage=1


Tree=28
num_leaves=4
num_cat=0
split_feature=19 14 24
split_gain=12.5243 2.87074 0.85962
threshold=0.53710525000000031 0.000301300772953898 0.02542375462443185
decision_type=2 2 2
left_child=-1 -2 -3
right_child=1 2 -4
leaf_value=0.30648910120307926 -1.7534236282406326 -3.4589255494215818 -2.5388339691433797
leaf_weight=1.004361808300019 1.104797989130019 12.755394965410231 1.0043618083000172
leaf_count=10 11 127 10
internal_value=0 -0.321732 -0.450055
internal_weight=0 14.8646 13.7598
internal_count=158 148 137
shrinkage=1


Tree=29
num_leaves=4
num_cat=0
split_feature=25 46 39
split_gain=19.8044 3.58119 16.058
threshold=-0.0039064068041396024 -0.0017561394999999994 -9.5415702766754834e-07
decision_type=2 2 2
left_child=-1 -2 -3
right_child=1 2 -4
leaf_value=0.78229987539696788 -2.7985614355413699 -0.046676135781012373 -2.7933381418518315
leaf_weight=1.896235048770907 17.255738943815238 2.8443525731563568 7.9641872048377937
leaf_count=10 91 15 42
internal_value=0 -0.271996 0.175396
internal_weight=0 28.0643 10.8085
internal_count=158 148 57
shrinkage=1


Tree=30
num_leaves=9
num_cat=0
split_feature=0 39 3 11 20 42 38 39
split_gain=17.165 8.1165 7.06711 4.90454 3.29322 1.83647 5.25989 1.31773
threshold=1.0533658585715659 -9.0169457349335539e-07 -0.35412539761459444 0.75409550000000014 -0.00034743396891810072 -0.010666779499999999 8.7432481035252319e-07 -2.0089063805696714e-06
decision_type=2 2 2 2 2 2 2 2
left_child=3 2 -2 -1 -3 6 -4 -7
right_child=1 4 5 -5 -6 7 -8 -9
leaf_value=-0.69314718055994529 -0.10898876471836105 -0.85017197394837507 -1.5716002192339786 0.30098771680075842 0.15082445064572858 -1.687282077920649 -0.37083313097316845 -1.079285794421331
leaf_weight=7.0000000000000027 4.9999999999999991 6 8.9999999999999947 17 6.9999999999999982 17 5.9999999999999991 5.0000000000000062
leaf_count=14 10 12 18 34 14 34 12 10
internal_value=0 -0.307902 -0.521998 0.704782 0.37931 -0.673414 -0.395349 -0.85941
internal_weight=0 55 42 24 13 37 15 22
internal_count=158 110 84 48 26 74 30 44
shrinkage=1


Tree=31
num_leaves=4
num_cat=0
split_feature=44 6 5
split_gain=17.8851 13.5998 3.3372
threshold=1.4228262491117526e-06 -1.0612366255474819 -0.0097386057141484166
decision_type=2 2 2
left_child=1 -1 -3
right_child=-2 2 -4
leaf_value=-0.60692933765731438 0.2742093450408698 -1.33561217979083 -2.5437057144904553
leaf_weight=4.5793444961309424 3.1332357078790656 2.4101813137531307 27.958103239536285
leaf_count=19 13 10 116
internal_value=0 -0.236358 -0.480273
internal_weight=0 34.9476 30.3683
internal_count=158 145 126
shrinkage=1


Tree=32
num_leaves=5
num_cat=0
split_feature=2 14 13 13
split_gain=32.4695 12.7673 8.38753 2.2472
threshold=0.28755181302274285 0.0020495779169144497 -3.1460062698412661 -3.5087626714285665
decision_type=2 2 2 2
left_child=3 2 -2 -1
right_child=1 -3 -4 -5
leaf_value=-1.3984869980840662 0.73339180123133829 -1.803321437106524 -1.0513557777544484 -2.2285878578105418
leaf_weight=3.5299874544143668 7.7017908096313485 4.8136192560195914 4.1718033552169809 30.486255288124084
leaf_count=11 24 15 13 95
internal_value=0 1.1657 1.72112 -0.535143
internal_weight=0 16.6872 11.8736 34.0162
internal_count=158 52 37 106
shrinkage=1


Tree=33
num_leaves=3
num_cat=0
split_feature=45 33
split_gain=6.5888 49.6302
threshold=0.0038514706540598753 0.0043046681958604002
decision_type=2 2
left_child=-1 -2
right_child=1 -3
leaf_value=-3.45724657216961 4.1002531949983592 -3.4495237963848457
leaf_weight=9.9431819021701795 1.004361808300019 4.9213728606700897
leaf_count=99 10 49
internal_value=0 0.806798
internal_weight=0 5.92573
internal_count=158 59
shrinkage=1


Tree=34
num_leaves=5
num_cat=0
split_feature=40 47 10 12
split_gain=10.7931 23.3349 15.3711 1.56958
threshold=-1.3584462554841432e-08 0.0043486534999999998 -0.97760001404748176 3.7790537571428593
decision_type=2 2 2 2
left_child=1 2 -1 -3
right_child=-2 3 -4 -5
leaf_value=2.3237375127425168 -2.7981871756432231 -2.7920327809452146 -1.2824267869823156 -1.7867628535122697
leaf_weight=1.8962350487709043 15.928374409675596 7.016069680452345 3.2235995829105404 1.8962350487709043
leaf_count=10 84 37 17 10
internal_value=0 0.646316 2.33786 -0.327466
internal_weight=0 14.0321 5.11983 8.9123
internal_count=158 74 27 47
shrinkage=1


Tree=35
num_leaves=11
num_cat=0
split_feature=3 22 32 32 41 31 34 24 1 22
split_gain=16.1409 6.00451 8.29367 4.54506 2.9665 2.89188 2.68352 2.89948 0.843872 0.472782
threshold=-0.35412539761459444 -2.8712017833333334 -0.00247957638375476 -0.0008825079862905792 0.0025601197083333334 0.011046733499569436 -0.003906406804004778 0.023581292362527085 -0.95321146333319606 -3.3495196999999997
decision_type=2 2 2 2 2 2 2 2 2 2
left_child=3 6 4 -1 -3 -5 9 -8 -4 -2
right_child=1 2 8 5 -6 -7 7 -9 -10 -11
leaf_value=0.30020830116762909 -1.2773055964015292 -0.61206609947886426 -0.30700856669855919 -1.0154612301467223 -1.5565012178270261 -0.040254618576474277 -0.43188591929868397 -1.4753253983817274 0.28883480142203688 -1.6851790530699051
leaf_weight=15.000000000000002 5.0000000000000027 5.5000000000000027 5 5.9999999999999982 7.9999999999999991 6 5.4999999999999982 5 5.4999999999999982 12.500000000000002
leaf_count=30 10 11 10 12 16 12 11 10 11 25
internal_value=0 -0.325648 0.039501 0.626617 -0.476015 0.161826 -0.639929 -0.232227 0.706161 -0.880342
internal_weight=0 52 24 27 13.5 12 28 10.5 10.5 17.5
internal_count=158 104 48 54 27 24 56 21 21 35
shrinkage=1


Tree=36
num_leaves=5
num_cat=0
split_feature=25 34 0 40
split_gain=17.7437 18.9484 6.10077 5.10035
threshold=-0.003906381552530082 -0.0039064068038616702 7.0465904180953798 7.9220803098838003e-08
decision_type=2 2 2 2
left_child=-1 2 -2 -3
right_child=1 3 -4 -5
leaf_value=-2.5431187981812924 -0.66822794833264854 -2.5340101613739709 1.5097066043069491 -0.98237371279048835
leaf_weight=23.137740612030029 3.1332357078790656 6.2664714157581312 2.4101813137531281 3.1332357078790665
leaf_count=96 13 26 10 13
internal_value=0 0.817749 2.27527 -0.0440129
internal_weight=0 14.9431 5.54342 9.39971
internal_count=158 62 23 39
shrinkage=1


Tree=37
num_leaves=6
num_cat=0
split_feature=4 1 17 6 23
split_gain=27.7852 17.6362 10.3163 2.4779 0.262564
threshold=0.20171933113355367 -1.0434334305474813 4.1323406500000006 -1.0612442285474815 6.7017584000000019
decision_type=2 2 2 2 2
left_child=3 4 -3 -1 -2
right_child=1 2 -4 -5 -6
leaf_value=-1.3164883419518596 0.84356907925564784 -0.25417486354304231 -2.2186834858535045 -2.2284710581619498 0.21768720312123957
leaf_weight=3.2090795040130606 4.1718033552169826 4.4927113056182844 6.418159008026123 29.20262348651886 3.2090795040130615
leaf_count=10 13 14 20 91 10
internal_value=0 1.009 0.193802 -0.530672 2.19793
internal_weight=0 18.2918 10.9109 32.4117 7.38088
internal_count=158 57 34 101 23
shrinkage=1


Tree=38
num_leaves=3
num_cat=0
split_feature=45 33
split_gain=6.5888 49.6302
threshold=0.0038514706540598753 0.0043046681958604002
decision_type=2 2
left_child=-1 -2
right_child=1 -3
leaf_value=-3.45724657216961 4.1002531949983592 -3.4495237963848457
leaf_weight=9.9431819021701795 1.004361808300019 4.9213728606700897
leaf_count=99 10 49
internal_value=0 0.806798
internal_weight=0 5.92573
internal_count=158 59
shrinkage=1


Tree=39
num_leaves=5
num_cat=0
split_feature=46 7 14 20
split_gain=10.8561 30.4789 8.41793 1.82375
threshold=-0.0017561394999999994 2.65077075 0.0012989830325146996 -0.0027573474117789545
decision_type=2 2 2 2
left_child=3 -2 -3 -1
right_child=1 2 -4 -5
leaf_value=-1.7867628535122713 -2.7914069885657433 1.9176603466857602 -0.94059966597889844 -2.7985115238092666
leaf_weight=1.8962350487709105 6.6368226706981641 2.2754820585250854 2.085858553647995 17.066115438938141
leaf_count=10 35 12 11 90
internal_value=0 0.796375 2.83601 -0.450026
internal_weight=0 10.9982 4.36134 18.9624
internal_count=158 58 23 100
shrinkage=1


Tree=40
num_leaves=9
num_cat=0
split_feature=0 39 14 34 38 26 34 44
split_gain=18.4988 8.96524 6.49044 4.10302 1.63325 1.62354 5.21692 0.238662
threshold=1.0533658585715659 -9.0169457349335539e-07 0.0031633467867037178 -0.0013974868041396005 3.3947383561760687e-07 -0.00026416898259390371 -0.0039064068041395946 -2.927951388888717e-09
decision_type=2 2 2 2 2 2 2 2
left_child=3 2 5 -1 -3 7 -7 -2
right_child=1 4 -4 -5 -6 6 -8 -9
leaf_value=0.30173772992598802 -1.3952748401344137 -0.61206609947886415 -0.40659747295760612 -0.6244448904836094 0.13891388814234473 -1.5716002192339784 -0.30700856669855942 -1.6844891719019364
leaf_weight=19.500000000000004 6.9999999999999973 5.4999999999999982 8.4999999999999982 6.4999999999999991 6.5 8.9999999999999982 5.0000000000000027 11.5
leaf_count=39 14 11 17 13 13 18 10 23
internal_value=0 -0.262959 -0.485993 0.765835 0.493776 -0.689708 -0.423488 -0.886792
internal_weight=0 53 41 26 12 32.5 14 18.5
internal_count=158 106 82 52 24 65 28 37
shrinkage=1


Tree=41
num_leaves=4
num_cat=0
split_feature=40 12 40
split_gain=13.3314 16.3997 14.2259
threshold=1.1621152339984623e-07 4.4593611142857172 3.145509034879712e-07
decision_type=2 2 2
left_child=1 -1 -2
right_child=2 -3 -4
leaf_value=-2.5434687013467858 0.41110769392670421 -0.2163644204970343 -2.0974211578437201
leaf_weight=25.788940057158474 4.3383263647556287 3.3742538392543784 4.5793444961309433
leaf_count=107 18 14 19
internal_value=0 -0.304942 1.08884
internal_weight=0 29.1632 8.91767
internal_count=158 121 37
shrinkage=1


Tree=42
num_leaves=5
num_cat=0
split_feature=2 16 15 12
split_gain=24.8962 12.5808 5.19048 0.243745
threshold=0.28755181302274285 8.2226252449372911e-05 -0.0022895170590987745 4.2962676063492102
decision_type=2 2 2 2
left_child=3 2 -2 -1
right_child=1 -3 -4 -5
leaf_value=-2.2287207378520648 -0.91457343234339206 -2.0089296400232066 0.53116887263985246 -1.8994750495368575
leaf_weight=32.090795040130615 4.4927113056182852 4.8136192560195914 6.097251057624816 3.2090795040130606
leaf_count=100 14 15 19 10
internal_value=0 0.926234 1.53431 -0.595004
internal_weight=0 15.4036 10.59 35.2999
internal_count=158 48 33 110
shrinkage=1


Tree=43
num_leaves=4
num_cat=0
split_feature=36 17 45
split_gain=11.596 6.13969 15.5955
threshold=0.024904474720089793 0.68463150000000017 0.0038514706540598753
decision_type=2 2 2
left_child=1 2 -1
right_child=-2 -3 -4
leaf_value=-3.4295076503602377 0.30648910120307926 -3.4584177753241425 1.2549301246519025
leaf_weight=2.109159797430038 1.004361808300019 11.751033157110212 1.0043618083000181
leaf_count=21 10 117 10
internal_value=0 -0.187635 1.04506
internal_weight=0 14.8646 3.11352
internal_count=158 148 31
shrinkage=1


Tree=44
num_leaves=6
num_cat=0
split_feature=40 45 9 0 20
split_gain=7.99442 15.2483 19.037 6.45452 0.387974
threshold=-1.3584462554841432e-08 0.0026745260000000004 1.3270918109525185 3.9022010823810938 -0.00038583644502314867
decision_type=2 2 2 2 2
left_child=1 2 -1 -4 -3
right_child=-2 4 3 -5 -6
leaf_value=-2.7742408064100643 -2.7977451007180481 -2.2491941439502932 1.8685750803287049 -0.66244982384742923 -2.7910666963532078
leaf_weight=2.654729068279269 14.601009875535963 1.8962350487709034 2.085858553647995 2.2754820585250854 6.4471991658210746
leaf_count=14 77 10 11 12 34
internal_value=0 0.477568 1.56038 2.83601 -0.430892
internal_weight=0 15.3595 7.01607 4.36134 8.34343
internal_count=158 81 37 23 44
shrinkage=1


Tree=45
num_leaves=9
num_cat=0
split_feature=39 3 3 26 44 36 34 2
split_gain=18.3308 12.9542 4.42974 2.93164 2.07819 1.74522 1.01287 0.532498
threshold=-9.5415702766754834e-07 -0.35412539761459444 0.21664423023902202 0.00036129802017118771 1.9592385082298212e-07 0.004205170773809528 -0.003906406804004778 -0.61922641193147621
decision_type=2 2 2 2 2 2 2 2
left_child=1 4 7 5 -1 -3 -7 -2
right_child=2 3 -4 -5 -6 6 -8 -9
leaf_value=0.29158564386753583 -0.10898876471836194 -0.96974292524079619 -0.77422826164102632 -0.74577875950731376 -0.5361223871715155 -1.6871048844874377 -1.1807504863450691 0.30131265323506851
leaf_weight=6.4999999999999982 5.0000000000000062 7.0000000000000027 5.4999999999999991 8.4999999999999982 6 16.5 6.0000000000000027 18
leaf_count=13 10 14 11 17 12 33 12 36
internal_value=0 -0.285856 0.716287 -0.576873 0.593625 -0.725888 -0.862528 0.908894
internal_weight=0 50.5 28.5 38 12.5 29.5 22.5 23
internal_count=158 101 57 76 25 59 45 46
shrinkage=1


Tree=46
num_leaves=6
num_cat=0
split_feature=25 3 39 11 27
split_gain=14.6803 17.4389 28.8801 2.5924 0.343804
threshold=-0.003906381552530082 -0.056686760951417024 -2.2200501557274051e-06 0.75409550000000014 -7.1504273516321325e-05
decision_type=2 2 2 2 2
left_child=4 3 -3 -2 -1
right_child=1 2 -4 -5 -6
leaf_value=-2.5423339158964686 -1.3356121797908296 1.3503215267407287 -2.5216879591020156 -2.5344702867359694 -2.1079129932230627
leaf_weight=18.799414247274402 2.4101813137531298 4.8203626275062561 3.1332357078790656 6.5074895471334457 2.4101813137531272
leaf_count=78 10 20 13 27 10
internal_value=0 0.717404 1.78982 -0.238145 -0.530741
internal_weight=0 16.8713 7.9536 8.91767 21.2096
internal_count=158 70 33 37 88
shrinkage=1


Tree=47
num_leaves=5
num_cat=0
split_feature=4 14 14 12
split_gain=22.7147 14.7235 11.0013 0.242825
threshold=0.20171933113355367 0.0020495779169144497 0.0015544158730158733 4.4000316428571482
decision_type=2 2 2 2
left_child=3 2 -2 -1
right_child=1 -3 -4 -5
leaf_value=-2.2286426510676827 -1.2070576483417648 -2.0456649855985756 0.85495379745371114 -1.8994750495368575
leaf_weight=31.128071188926697 4.8136192560195941 5.7763431072235099 5.7763431072235107 3.2090795040130606
leaf_count=97 15 18 18 10
internal_value=0 0.835228 1.53431 -0.594148
internal_weight=0 16.3663 10.59 34.3372
internal_count=158 51 33 107
shrinkage=1


Tree=48
num_leaves=4
num_cat=0
split_feature=36 15 12
split_gain=11.596 6.29467 3.43187
threshold=0.024904474720089793 -0.00028682291666666521 0.26044221428571396
decision_type=2 2 2
left_child=1 2 -1
right_child=-2 -3 -4
leaf_value=-1.5903929456945582 0.30648910120307926 -0.88747131280338376 -3.4589255494215818
leaf_weight=1.0043618083000172 1.004361808300019 1.104797989130019 12.755394965410231
leaf_count=10 10 11 127
internal_value=0 -0.187635 -0.377643
internal_weight=0 14.8646 13.7598
internal_count=158 148 137
shrinkage=1


Tree=49
num_leaves=5
num_cat=0
split_feature=46 39 39 1
split_gain=10.8009 31.4732 18.1618 0.462845
threshold=-0.0017561394999999994 -9.5415702766754834e-07 -1.1441072718369596e-06 -1.0610912651506557
decision_type=2 2 2 2
left_child=3 2 -2 -1
right_child=1 -3 -4 -5
leaf_value=-2.2491941439502932 -1.7867628535122697 -2.7923211450314098 2.3569417777248343 -2.7983549250382973
leaf_weight=1.896235048770907 1.8962350487709043 7.2056931853294355 2.4651055634021759 16.497244924306873
leaf_count=10 10 38 13 87
internal_value=0 0.729989 2.83601 -0.500875
internal_weight=0 11.567 4.36134 18.3935
internal_count=158 61 23 97
shrinkage=1


Tree=50
num_leaves=9
num_cat=0
split_feature=6 16 45 3 14 26 17 5
split_gain=24.9591 6.19822 7.65575 4.62237 3.2953 2.6268 0.492483 0.0283987
threshold=-1.0344934207141485 -3.5980910198082249e-06 0.0031713465000000013 -0.033009943906558203 0.0020495779169144497 9.3572836292666958e-05 0.44437883333333328 6.9851825609525191
decision_type=2 2 2 2 2 2 2 2
left_child=4 2 3 -2 7 -6 -3 -1
right_child=1 6 -4 -5 5 -7 -8 -9
leaf_value=-1.4753253983817269 0.29638161525157292 -0.1089887647183615 -1.2638278088321966 -0.88126599244113324 -0.64051560161257692 -1.4322776153425538 0.2997353817176347 -1.6862743283262682
leaf_weight=5.0000000000000027 9.4999999999999982 5.0000000000000027 9.4999999999999982 5.0000000000000027 8.5000000000000018 7.9999999999999991 13.999999999999998 14.499999999999998
leaf_count=10 19 10 19 10 17 16 28 29
internal_value=0 0.463415 0.122661 0.580756 -0.664355 -0.329305 0.889764 -0.943734
internal_weight=0 43 24 14.5 36 16.5 19 19.5
internal_count=158 86 48 29 72 33 38 39
shrinkage=1


Tree=51
num_leaves=4
num_cat=0
split_feature=40 12 40
split_gain=20.1965 20.8978 9.30474
threshold=1.1621152339984623e-07 4.4593611142857172 3.145509034879712e-07
decision_type=2 2 2
left_child=1 -1 -2
right_child=2 -3 -4
leaf_value=-2.5436308973449098 0.58298883448888028 0.075670008562380486 -1.6765365657941076
leaf_weight=27.235048845410351 4.0973082333803168 3.3742538392543784 3.3742538392543793
leaf_count=113 17 14 14
internal_value=0 -0.28537 1.54294
internal_weight=0 30.6093 7.47156
internal_count=158 127 31
shrinkage=1


Tree=52
num_leaves=6
num_cat=0
split_feature=2 1 18 24 22
split_gain=29.1203 11.8184 6.89185 2.06773 1.00092
threshold=0.28755181302274285 -1.0434334305474813 -3.5648142333333328 0.015643002688717565 -3.3060233999999995
decision_type=2 2 2 2 2
left_child=4 3 -3 -2 -1
right_child=1 2 -4 -5 -6
leaf_value=-1.6498845312769268 -0.28116463018795268 -2.2133572846454364 -0.47430771980982533 0.84356907925564961 -2.2285878578105418
leaf_weight=3.5299874544143668 3.5299874544143703 4.492711305618287 4.4927113056182835 4.17180335521698 30.486255288124084
leaf_count=11 11 14 14 13 95
internal_value=0 1.04621 0.25774 1.95204 -0.564497
internal_weight=0 16.6872 8.98542 7.70179 34.0162
internal_count=158 52 28 24 106
shrinkage=1


Tree=53
num_leaves=4
num_cat=0
split_feature=14 17 37
split_gain=5.68634 2.93412 3.43187
threshold=0.00028149161727103656 0.35912708333333337 -0.013616115792857141
decision_type=2 2 2
left_child=-1 -2 -3
right_child=1 2 -4
leaf_value=-0.88747131280338731 -1.5903929456945582 -1.5903929456945558 -3.4589255494215818
leaf_weight=1.1047979891300208 1.0043618083000172 1.0043618083000154 12.755394965410233
leaf_count=11 10 10 127
internal_value=0 -0.25283 -0.377643
internal_weight=0 14.7641 13.7598
internal_count=158 147 137
shrinkage=1


Tree=54
num_leaves=4
num_cat=0
split_feature=25 40 32
split_gain=24.051 9.202 33.3176
threshold=-0.0039064068041396024 -6.0569611512752729e-08 -0.0011155744640058702
decision_type=2 2 2
left_child=-1 2 -2
right_child=1 -3 -4
leaf_value=1.2961124211788158 0.94429976929715531 -2.7985115238092666 -2.7928549018584001
leaf_weight=1.896235048770907 3.4132230877876282 17.066115438938141 7.5849401950836199
leaf_count=10 18 90 40
internal_value=0 -0.0941504 0.61535
internal_weight=0 28.0643 10.9982
internal_count=158 148 58
shrinkage=1


Tree=55
num_leaves=9
num_cat=0
split_feature=22 38 26 34 17 14 1 22
split_gain=25.4832 7.05364 8.29965 4.40072 3.96218 3.374 1.58715 0.0376634
threshold=-2.8712017833333334 8.3787739322533226e-07 -0.00084845048659347205 -0.003906406804004778 0.35912708333333337 0.0020495779169144497 -0.93263466761891023 -3.3495196999999997
decision_type=2 2 2 2 2 2 2 2
left_child=3 4 -3 7 -2 -5 -4 -1
right_child=1 2 6 5 -6 -7 -8 -9
leaf_value=-1.4753253983817274 -0.69314718055994529 -1.368539850717013 -0.50502836867875722 -1.4753253983817278 0.30186528826798487 -0.37083313097316845 0.28883480142203688 -1.6876070143549589
leaf_weight=4.9999999999999991 5.0000000000000027 9.5000000000000018 5 4.9999999999999982 20 6 5.4999999999999982 18.000000000000004
leaf_count=10 10 19 10 10 40 12 11 36
internal_value=0 0.442841 -0 -0.703377 0.796407 -0.176471 0.611374 -0.952278
internal_weight=0 45 20 34 25 11 10.5 23
internal_count=158 90 40 68 50 22 21 46
shrinkage=1


Tree=56
num_leaves=6
num_cat=0
split_feature=25 15 20 13 25
split_gain=16.3566 15.69 11.5813 4.51717 1.43698
threshold=-0.003906381552530082 -0.0010004097304894179 -1.0000000180025095e-35 -0.33782284523809425 -0.0039064068041396024
decision_type=2 2 2 2 2
left_child=4 2 -2 -3 -1
right_child=1 3 -4 -5 -6
leaf_value=-1.7420862918047979 0.90516381292988002 -2.5335135289236099 -1.6106652417061675 -0.9291380677768597 -2.5424888924876941
leaf_weight=2.4101813137531307 4.5793444961309433 6.025453284382821 3.1332357078790691 2.4101813137531254 19.522468641400337
leaf_count=10 19 25 13 10 81
internal_value=0 0.83712 1.86345 -0.100794 -0.48692
internal_weight=0 16.1482 7.71258 8.43563 21.9326
internal_count=158 67 32 35 91
shrinkage=1


Tree=57
num_leaves=4
num_cat=0
split_feature=22 14 8
split_gain=27.7172 35.2597 2.49681
threshold=-3.0595658999999995 0.0020495779169144497 0.64005095047101046
decision_type=2 2 2
left_child=1 -1 -2
right_child=2 -3 -4
leaf_value=0.75491731096955395 -2.2286692103552186 -2.2198178262112016 -1.3164883419518596
leaf_weight=8.985422611236574 31.448979139328003 7.0599749088287345 3.2090795040130606
leaf_count=28 98 22 10
internal_value=0 1.05074 -0.536815
internal_weight=0 16.0454 34.6581
internal_count=158 50 108
shrinkage=1


Tree=58
num_leaves=4
num_cat=0
split_feature=14 23 24
split_gain=5.68634 2.93412 3.43187
threshold=0.00028149161727103656 0.3786744166666669 0.02542375462443185
decision_type=2 2 2
left_child=-1 -2 -3
right_child=1 2 -4
leaf_value=-0.88747131280338731 -1.5903929456945582 -3.4589255494215818 -1.5903929456945582
leaf_weight=1.1047979891300208 1.0043618083000172 12.755394965410231 1.0043618083000172
leaf_count=11 10 127 10
internal_value=0 -0.25283 -0.377643
internal_weight=0 14.7641 13.7598
internal_count=158 147 137
shrinkage=1


Tree=59
num_leaves=5
num_cat=0
split_feature=25 20 41 39
split_gain=24.051 7.13812 5.85162 24.2962
threshold=-0.0039064068041396024 0.0024326291664822533 0.0029216550000000009 -8.1943230406746037e-07
decision_type=2 2 2 2
left_child=-1 2 3 -2
right_child=1 -3 -4 -5
leaf_value=1.2961124211788158 1.2961124211788206 -0.66244982384742856 -2.7987954395092256 -2.789480642619182
leaf_weight=1.896235048770907 1.8962350487709043 2.2754820585250846 18.203856468200684 5.6887051463127198
leaf_count=10 10 12 96 30
internal_value=0 -0.0941504 -0.246693 0.485606
internal_weight=0 28.0643 25.7888 7.58494
internal_count=158 148 136 40
shrinkage=1


Tree=60
num_leaves=9
num_cat=0
split_feature=8 34 34 4 25 15 36 10
split_gain=15.8704 5.87442 4.85449 8.18817 6.06201 4.75807 3.28123 1.30763
threshold=-0.10300617013661284 -0.0013974868041396005 -0.003906406804004778 0.17865679646643084 -0.0039064068040808456 -0.0016843706597222219 0.0018946938741496563 -0.98697551404748174
decision_type=2 2 2 2 2 2 2 2
left_child=1 7 4 -4 5 -2 -7 -1
right_child=2 -3 3 -5 -6 6 -8 -9
leaf_value=-0.30700856669855969 -0.071525558938323575 -0.91452122636147204 0.29158564386753572 -1.1591157669473797 -1.6869166509649294 -0.69314718055994529 -1.6778800049874261 0.3008105233675471
leaf_weight=5.0000000000000062 5.4999999999999991 6.4999999999999991 6.4999999999999991 9.4999999999999982 16.000000000000004 6.9999999999999982 6.5 16.5
leaf_count=10 11 13 13 19 32 14 13 33
internal_value=0 0.604278 -0.332027 0.121495 -0.540656 -0.154856 -0.476015 0.856148
internal_weight=0 28 51 16 35 19 13.5 21.5
internal_count=158 56 102 32 70 38 27 43
shrinkage=1


Tree=61
num_leaves=4
num_cat=0
split_feature=44 13 40
split_gain=14.3778 15.0636 2.94722
threshold=1.4228262491117526e-06 -4.6920405928571363 1.1621152339984623e-07
decision_type=2 2 2
left_child=1 -1 -3
right_child=-2 2 -4
leaf_value=-0.2163644204970343 0.29028426826504528 -2.5436812083835214 -1.6869958737910251
leaf_weight=3.3742538392543784 2.4101813137531272 27.717085108160973 4.5793444961309424
leaf_count=14 10 115 19
internal_value=0 -0.243344 -0.455392
internal_weight=0 35.6707 32.2964
internal_count=158 148 134
shrinkage=1


Tree=62
num_leaves=5
num_cat=0
split_feature=2 14 14 23
split_gain=39.4568 16.8187 5.18949 1.12299
threshold=0.28755181302274285 0.0020495779169144497 0.0015544158730158733 7.669824750000001
decision_type=2 2 2 2
left_child=3 2 -2 -1
right_child=1 -3 -4 -5
leaf_value=-2.2286952339345985 -0.57762456350192348 -1.9751316458998285 0.8614219442940394 -1.6056571895941945
leaf_weight=31.769887089729309 4.1718033552169782 4.1718033552169791 7.3808828592300415 3.2090795040130606
leaf_count=99 13 13 23 10
internal_value=0 1.33842 1.9584 -0.566176
internal_weight=0 15.7245 11.5527 34.979
internal_count=158 49 36 109
shrinkage=1


Tree=63
num_leaves=3
num_cat=0
split_feature=45 33
split_gain=14.1457 75.2176
threshold=0.0038514706540598753 0.0039867196958604011
decision_type=2 2
left_child=-1 -2
right_child=1 -3
leaf_value=-3.457089743802261 4.7600558073396613 -3.4488766936062349
leaf_weight=9.7423095405101758 1.4061065316200263 4.7205004990100861
leaf_count=97 14 47
internal_value=0 1.41099
internal_weight=0 6.12661
internal_count=158 61
shrinkage=1


Tree=64
num_leaves=4
num_cat=0
split_feature=35 46 22
split_gain=13.7778 4.5479 18.5705
threshold=0.0030203652250000005 -0.0017561394999999994 -1.6151599999999995
decision_type=2 2 2
left_child=-1 -2 -3
right_child=1 2 -4
leaf_value=-0.36600439648664262 -2.7990063350963714 0.78229987539697232 -2.7894806426191829
leaf_weight=3.2235995829105404 19.151973992586143 1.8962350487709043 5.6887051463127092
leaf_count=17 101 10 30
internal_value=0 -0.29509 0.35463
internal_weight=0 26.7369 7.58494
internal_count=158 141 40
shrinkage=1


Tree=65
num_leaves=10
num_cat=0
split_feature=0 6 32 8 32 32 10 15 44
split_gain=17.6042 6.56065 5.45928 4.98782 2.86831 3.76937 1.9373 1.32606 0.421222
threshold=1.0533658585715659 -0.98633686404748178 0.00039138816256999111 -0.10300617013661284 3.6468295467910945e-05 -0.00022077917503957061 -0.79242393904748176 -0.0017461617667067681 -4.9130694444445348e-08
decision_type=2 2 2 2 2 2 2 2 2
left_child=1 -1 3 -2 5 6 7 -5 -9
right_child=2 -3 -4 4 -6 -7 -8 8 -10
leaf_value=-0.82789895360959065 -0.2517057391185038 0.3014619838605398 -0.1664296233080369 -0.95440844182120643 -1.6844891719019364 -0.30700856669855942 -0.69314718055994529 -1.2773055964015292 -1.6826759763714638
leaf_weight=7.0000000000000027 5.4999999999999991 18.5 6.4999999999999991 5.5000000000000027 11.499999999999998 5.0000000000000027 5.0000000000000027 5.0000000000000027 9.4999999999999947
leaf_count=14 11 37 13 11 23 10 10 10 19
internal_value=0 0.682975 -0.325864 -0.445271 -0.56438 -0.397671 -0.556886 -0.695761 -0.85567
internal_weight=0 25.5 53.5 47 41.5 30 25 20 14.5
internal_count=158 51 107 94 83 60 50 40 29
shrinkage=1


Tree=66
num_leaves=4
num_cat=0
split_feature=13 40 38
split_gain=11.4211 14.8673 10.6101
threshold=-4.6920405928571363 1.1621152339984623e-07 1.1350856263778658e-05
decision_type=2 2 2
left_child=-1 -2 -3
right_child=1 2 -4
leaf_value=-0.36958958834489342 -2.5437057144904553 0.1007483263672555 -2.5143871052370312
leaf_weight=3.6152719706296912 27.958103239536285 4.0973082333803168 2.4101813137531281
leaf_count=15 116 17 10
internal_value=0 -0.26051 1.09278
internal_weight=0 34.4656 6.50749
internal_count=158 143 27
shrinkage=1


Tree=67
num_leaves=5
num_cat=0
split_feature=2 14 14 12
split_gain=39.4568 16.8187 5.18949 1.12299
threshold=0.28755181302274285 0.0020495779169144497 0.0015544158730158733 4.3465347071428582
decision_type=2 2 2 2
left_child=3 2 -2 -1
right_child=1 -3 -4 -5
leaf_value=-2.2286952339345985 -0.57762456350192348 -1.9751316458998285 0.8614219442940394 -1.6056571895941945
leaf_weight=31.769887089729309 4.1718033552169782 4.1718033552169791 7.3808828592300415 3.2090795040130606
leaf_count=99 13 13 23 10
internal_value=0 1.33842 1.9584 -0.566176
internal_weight=0 15.7245 11.5527 34.979
internal_count=158 49 36 109
shrinkage=1


Tree=68
num_leaves=4
num_cat=0
split_feature=14 17 42
split_gain=17.7682 12.3583 7.76113
threshold=0.00025637480709876577 0.27514233333333343 -0.047759900000000001
decision_type=2 2 2
left_child=-1 -2 -3
right_child=1 2 -4
leaf_value=1.2549301246518989 0.30648910120308459 -0.64195192224573283 -3.4589719800535361
leaf_weight=1.004361808300019 1.0043618083000172 1.0043618083000154 12.855831146240234
leaf_count=10 10 10 128
internal_value=0 -0.0535373 -0.306838
internal_weight=0 14.8646 13.8602
internal_count=158 148 138
shrinkage=1


Tree=69
num_leaves=4
num_cat=0
split_feature=35 46 21
split_gain=13.7778 4.5479 18.5705
threshold=0.0030203652250000005 -0.0017561394999999994 2.7204896000000005
decision_type=2 2 2
left_child=-1 -2 -3
right_child=1 2 -4
leaf_value=-0.36600439648664262 -2.7990063350963714 -2.7894806426191829 0.78229987539697232
leaf_weight=3.2235995829105404 19.151973992586143 5.6887051463127092 1.8962350487709043
leaf_count=17 101 30 10
internal_value=0 -0.29509 0.35463
internal_weight=0 26.7369 7.58494
internal_count=158 141 40
shrinkage=1


Tree=70
num_leaves=10
num_cat=0
split_feature=22 32 27 25 21 16 2 1 25
split_gain=23.8065 13.6036 3.63154 2.75663 1.68559 6.2814 0.373197 0.0453255 0.00147466
threshold=-2.8230336277777766 -0.0024844008518897279 -0.0027628318906910815 -0.0017800175184253147 3.3605155000000004 -9.8673861693010588e-05 0.41953572981556547 -0.96454298218240309 -0.0039063999948944
decision_type=2 2 2 2 2 2 2 2 2
left_child=4 2 -2 7 8 6 -6 -3 -1
right_child=1 3 -4 -5 5 -7 -8 -9 -10
leaf_value=-1.6814512741271965 -0.64051560161257681 0.089031037261836921 -1.6751291625419273 -0.4717731347584187 -1.6799021474473621 -0.2517057391185038 -1.2773055964015294 0.30231767204776439 -1.4753253983817269
leaf_weight=8.4999999999999982 8.4999999999999982 4.9999999999999991 5.4999999999999991 6.5000000000000027 7.5000000000000018 5.4999999999999991 5 22 5.0000000000000027
leaf_count=17 17 10 11 13 15 11 10 44 10
internal_value=0 0.472135 -0.352313 0.818182 -0.648177 -0.440443 -0.832669 0.959335 -0.918819
internal_weight=0 47.5 14 33.5 31.5 18 12.5 27 13.5
internal_count=158 95 28 67 63 36 25 54 27
shrinkage=1


Tree=71
num_leaves=4
num_cat=0
split_feature=44 12 25
split_gain=15.6168 18.4897 3.35576
threshold=1.4228262491117526e-06 4.4593611142857172 -0.0016816075184253152
decision_type=2 2 2
left_child=1 2 -1
right_child=-2 -3 -4
leaf_value=-2.5438875577596018 0.16539654605606047 0.16539654605606047 -1.33561217979083
leaf_weight=29.886248290538784 2.8922175765037528 2.8922175765037528 2.4101813137531307
leaf_count=124 12 12 10
internal_value=0 -0.267097 -0.486307
internal_weight=0 35.1886 32.2964
internal_count=158 146 134
shrinkage=1


Tree=72
num_leaves=6
num_cat=0
split_feature=4 5 12 8 13
split_gain=27.2416 15.2822 8.72564 1.57555 0.242183
threshold=0.24307058585496463 7.8938990609525215 4.4000316428571482 0.49207421032714571 -3.3274515931972752
decision_type=2 2 2 2 2
left_child=2 3 4 -2 -1
right_child=1 -3 -4 -5 -6
leaf_value=-1.8994750495368578 -0.10389334924939875 -1.803321437106524 -0.56049522216198011 0.84648941779087306 -2.2285878578105418
leaf_weight=3.2090795040130571 4.1718033552169782 4.8136192560195914 3.5299874544143668 4.4927113056182861 30.486255288124088
leaf_count=10 13 15 11 14 95
internal_value=0 1.22102 -0.43562 2.01153 -0.59355
internal_weight=0 13.4781 37.2253 8.66451 33.6953
internal_count=158 42 116 27 105
shrinkage=1


Tree=73
num_leaves=4
num_cat=0
split_feature=21 11 41
split_gain=7.11132 0.737282 0.860222
threshold=0.20865833333333331 0.75409550000000014 0.045133026250000007
decision_type=2 2 2
left_child=-1 -2 -3
right_child=1 2 -4
leaf_value=-0.64195192224574038 -2.5388339691433797 -3.4589719800535361 -2.5388339691433797
leaf_weight=1.004361808300019 1.0043618083000172 12.855831146240233 1.0043618083000172
leaf_count=10 10 128 10
internal_value=0 -0.38878 -0.450618
internal_weight=0 14.8646 13.8602
internal_count=158 148 138
shrinkage=1


Tree=74
num_leaves=6
num_cat=0
split_feature=38 38 30 2 12
split_gain=11.8599 33.138 23.5573 2.95315 0.408989
threshold=8.7432481035252319e-07 4.4859191777146796e-07 -0.0039064068035050943 0.22428131719374694 0.26044221428571396
decision_type=2 2 2 2 2
left_child=1 4 3 -3 -1
right_child=-2 2 -4 -5 -6
leaf_value=-2.2491941439502932 -2.7972970560960064 0.51629204964108766 -2.7630066897321415 2.3367708713799717 -2.793338141851831
leaf_weight=1.8962350487709096 13.46326884627342 2.6547290682792664 1.8962350487709034 2.085858553647995 7.9641872048377991
leaf_count=10 71 14 10 11 42
internal_value=0 0.70844 2.42834 3.61093 -0.450551
internal_weight=0 16.4972 6.63682 4.74059 9.86042
internal_count=158 87 35 25 52
shrinkage=1


Tree=75
num_leaves=10
num_cat=0
split_feature=22 32 32 11 21 21 46 1 25
split_gain=23.8065 13.6036 3.63154 3.084 1.68559 3.99304 0.988558 0.0461273 0.00147466
threshold=-2.8230336277777766 -0.0024844008518897279 -0.0027774412772566667 0.75409550000000014 3.3605155000000004 4.2486773500000004 -0.002397666666666666 -0.96454298218240309 -0.0039063999948944
decision_type=2 2 2 2 2 2 2 2 2
left_child=4 2 -2 -3 8 -6 -7 -5 -1
right_child=1 3 -4 7 5 6 -8 -9 -10
leaf_value=-1.6814512741271965 -0.64051560161257681 -0.5361223871715155 -1.6751291625419273 0.089031037261836921 -0.4318859192986842 -1.0792857944213312 -1.679902147447363 0.30241822963961107 -1.4753253983817269
leaf_weight=8.4999999999999982 8.4999999999999982 5.9999999999999991 5.4999999999999991 4.9999999999999991 5.5000000000000027 5.0000000000000027 7.4999999999999956 22.500000000000004 5.0000000000000027
leaf_count=17 17 12 11 10 11 10 15 45 10
internal_value=0 0.472135 -0.352313 0.818182 -0.648177 -0.440443 -0.752988 0.960073 -0.918819
internal_weight=0 47.5 14 33.5 31.5 18 12.5 27.5 13.5
internal_count=158 95 28 67 63 36 25 55 27
shrinkage=1


Tree=76
num_leaves=5
num_cat=0
split_feature=25 25 46 8
split_gain=14.1398 16.9334 12.929 0.269352
threshold=-0.003906381552530082 -0.0039030812391566035 -0.0057680107832499975 -0.67190819020488901
decision_type=2 2 2 2
left_child=-1 -2 -3 -4
right_child=1 2 3 -5
leaf_value=-2.543082979530952 1.1032324922929824 -0.24790939224687114 -2.1079129932230627 -2.5344702867359694
leaf_weight=22.896722480654716 2.4101813137531272 3.856290102005004 2.4101813137531263 6.5074895471334457
leaf_count=95 10 16 10 27
internal_value=0 0.664327 0.196661 -0.461168
internal_weight=0 15.1841 12.774 8.91767
internal_count=158 63 53 37
shrinkage=1


Tree=77
num_leaves=5
num_cat=0
split_feature=4 5 6 8
split_gain=27.2416 15.2822 10.2424 1.57555
threshold=0.24307058585496463 7.8938990609525215 -1.0612366105474818 0.49207421032714571
decision_type=2 2 2 2
left_child=2 3 -1 -2
right_child=1 -3 -4 -5
leaf_value=-0.5776245635019237 -0.10389334924939875 -1.803321437106524 -2.2287942827622111 0.84648941779087306
leaf_weight=4.1718033552169791 4.1718033552169782 4.8136192560195914 33.053518891334534 4.4927113056182861
leaf_count=13 13 15 103 14
internal_value=0 1.22102 -0.43562 2.01153
internal_weight=0 13.4781 37.2253 8.66451
internal_count=158 42 116 27
shrinkage=1


Tree=78
num_leaves=4
num_cat=0
split_feature=18 15 31
split_gain=7.11132 0.737282 0.860222
threshold=-0.26566849999999992 -0.00024451353966423162 0.096653670000000039
decision_type=2 2 2
left_child=1 2 -1
right_child=-2 -3 -4
leaf_value=-3.4589719800535361 -0.64195192224574038 -2.5388339691433797 -2.5388339691433797
leaf_weight=12.855831146240233 1.004361808300019 1.0043618083000172 1.0043618083000172
leaf_count=128 10 10 10
internal_value=0 -0.38878 -0.450618
internal_weight=0 14.8646 13.8602
internal_count=158 148 138
shrinkage=1


Tree=79
num_leaves=5
num_cat=0
split_feature=46 33 40 1
split_gain=15.0617 41.1272 11.6202 1.63085
threshold=-0.0017561394999999994 0.0023761701958603999 -7.5975914456936116e-08 -1.0610912651506557
decision_type=2 2 2 2
left_child=3 2 -2 -1
right_child=1 -3 -4 -5
leaf_value=-1.8769912480814335 -0.2324314620918968 2.356941777724836 -2.7925948205258417 -2.7981285729426268
leaf_weight=2.0858585536479977 2.2754820585250846 2.465105563402175 7.3953166902065268 15.738750904798509
leaf_count=11 12 13 39 83
internal_value=0 0.998048 0.0556445 -0.44307
internal_weight=0 12.1359 9.6708 17.8246
internal_count=158 64 51 94
shrinkage=1


Tree=80
num_leaves=9
num_cat=0
split_feature=0 14 38 6 10 32 24 4
split_gain=24.5387 7.72798 6.94644 3.09024 1.10877 4.09216 0.406023 0.0313663
threshold=1.0533658585715659 0.0031633467867037178 4.4859191777146796e-07 -0.98633686404748178 -1.0209478715474818 -0.0018728657829910336 0.0071050783387175574 0.21040519421750412
decision_type=2 2 2 2 2 2 2 2
left_child=3 2 -2 -1 6 -6 -4 -8
right_child=1 -3 4 -5 5 -7 7 -9
leaf_value=-0.53612238717151561 -0.47767756730027677 -0.20246395074628071 -1.2773055964015296 0.3014619838605398 -1.6789627833968246 -0.50502836867875733 -1.4753253983817269 -1.6867163123927427
leaf_weight=6.0000000000000027 8.9999999999999982 7.9999999999999991 4.9999999999999991 18.5 7 5.0000000000000018 5.0000000000000027 15.499999999999998
leaf_count=12 18 16 10 37 14 10 10 31
internal_value=0 -0.411549 -0.568206 0.792261 -0.757656 -0.493776 -0.878669 -0.946472
internal_weight=0 54.5 46.5 24.5 37.5 12 25.5 20.5
internal_count=158 109 93 49 75 24 51 41
shrinkage=1


Tree=81
num_leaves=6
num_cat=0
split_feature=39 20 5 9 11
split_gain=8.29253 12.7339 5.16483 1.3567 0.355819
threshold=-7.1551727744832817e-06 -3.4790851591037318e-06 7.8938990609525215 -0.22094360571414842 8.0302110340000024
decision_type=2 2 2 2 2
left_child=1 -1 3 -2 -5
right_child=2 -3 -4 4 -6
leaf_value=0.69675838027901293 -1.7420862918047979 -2.5143871052370312 -1.1880827503101936 -2.543350093660381 -2.1079129932230627
leaf_weight=2.4101813137531281 2.4101813137531307 2.4101813137531272 3.6152719706296912 24.824867531657222 2.4101813137531272
leaf_count=10 10 10 15 103 10
internal_value=0 1.05679 -0.338959 -0.477809 -0.54195
internal_weight=0 4.82036 33.2605 29.6452 27.235
internal_count=158 20 138 123 113
shrinkage=1


Tree=82
num_leaves=5
num_cat=0
split_feature=22 14 3 39
split_gain=32.3981 26.0801 6.91284 3.20195
threshold=-3.0595658999999995 0.0020495779169144497 0.49291599119740614 -2.2200501557274051e-06
decision_type=2 2 2 2
left_child=1 3 -2 -1
right_child=2 -3 -4 -5
leaf_value=0.86239425233704869 -2.2286692103552186 -2.2155722546225034 -0.70281812392261966 -0.39598301490800036
leaf_weight=7.7017908096313485 31.448979139328003 5.1345272064208975 3.2090795040130606 3.2090795040130624
leaf_count=24 98 16 10 10
internal_value=0 1.23713 -0.479192 2.10971
internal_weight=0 16.0454 34.6581 10.9109
internal_count=158 50 108 34
shrinkage=1


Tree=83
num_leaves=4
num_cat=0
split_feature=13 14 37
split_gain=11.1532 5.92001 7.02542
threshold=-0.18962922619047534 0.00025637480709876577 -0.020744997741301084
decision_type=2 2 2
left_child=1 -1 -3
right_child=-2 2 -4
leaf_value=-0.88747131280338376 0.30648910120307926 -0.88747131280338065 -3.4588783846958884
leaf_weight=1.104797989130019 1.004361808300019 1.1047979891300173 12.654958784580231
leaf_count=11 10 11 126
internal_value=0 -0.120586 -0.30523
internal_weight=0 14.8646 13.7598
internal_count=158 148 137
shrinkage=1


Tree=84
num_leaves=5
num_cat=0
split_feature=46 39 39 20
split_gain=16.006 44.6056 8.69858 1.63586
threshold=-0.0017561394999999994 -9.5415702766754834e-07 -1.1441072718369596e-06 -0.0027573474117789545
decision_type=2 2 2 2
left_child=3 2 -2 -1
right_child=1 -3 -4 -5
leaf_value=-1.8769912480814339 -0.47240387492763114 -2.7920327809452146 2.3649060140242795 -2.7982444037209948
leaf_weight=2.0858585536480012 2.085858553647995 7.016069680452345 2.6547290682792664 16.117997914552689
leaf_count=11 11 37 14 85
internal_value=0 1.04807 3.40219 -0.445485
internal_weight=0 11.7567 4.74059 18.2039
internal_count=158 62 25 96
shrinkage=1


Tree=85
num_leaves=9
num_cat=0
split_feature=0 14 38 25 10 13 1 36
split_gain=24.5387 7.72798 6.94644 3.47754 1.10877 2.91369 0.406023 0.0313663
threshold=1.0533658585715659 0.0031633467867037178 4.4859191777146796e-07 -0.0017800175184253147 -1.0209478715474818 -0.47565046369047453 -1.0610912651506557 0.0047793881941230092
decision_type=2 2 2 2 2 2 2 2
left_child=3 2 -2 -1 6 -6 -4 -8
right_child=1 -3 4 -5 5 -7 7 -9
leaf_value=0.30160347560803347 -0.47767756730027677 -0.20246395074628071 -1.2773055964015296 -0.61206609947886426 -0.69314718055994529 -1.6766182549401103 -1.4753253983817269 -1.6867163123927427
leaf_weight=19.000000000000004 8.9999999999999982 7.9999999999999991 4.9999999999999991 5.4999999999999991 6 6.0000000000000018 5.0000000000000027 15.499999999999998
leaf_count=38 18 16 10 11 12 12 10 31
internal_value=0 -0.411549 -0.568206 0.792261 -0.757656 -0.493776 -0.878669 -0.946472
internal_weight=0 54.5 46.5 24.5 37.5 12 25.5 20.5
internal_count=158 109 93 49 75 24 51 41
shrinkage=1


Tree=86
num_leaves=4
num_cat=0
split_feature=44 13 40
split_gain=16.7519 8.55474 2.17401
threshold=1.4228262491117526e-06 -4.6920405928571363 1.1621152339984623e-07
decision_type=2 2 2
left_child=1 -1 -3
right_child=-2 2 -4
leaf_value=-0.52266395576289182 0.16539654605606047 -2.5438221795300713 -1.7337448582870607
leaf_weight=2.4101813137531272 2.8922175765037528 29.163193896412849 3.6152719706296912
leaf_count=10 12 121 15
internal_value=0 -0.35223 -0.487705
internal_weight=0 35.1886 32.7785
internal_count=158 146 136
shrinkage=1


Tree=87
num_leaves=5
num_cat=0
split_feature=2 14 14 6
split_gain=33.644 15.7954 5.82473 4.41777
threshold=0.28755181302274285 0.0024619819638000951 0.0015544158730158733 -1.0612366105474818
decision_type=2 2 2 2
left_child=3 2 -2 -1
right_child=1 -3 -4 -5
leaf_value=-1.0096532329372399 -0.83982581413600943 -1.8298090113849377 0.73941494427149479 -2.2286155393582363
leaf_weight=3.2090795040130606 3.5299874544143703 5.1345272064208975 8.022698760032652 30.807163238525391
leaf_count=10 11 16 25 96
internal_value=0 1.22545 1.87222 -0.505788
internal_weight=0 16.6872 11.5527 34.0162
internal_count=158 52 36 106
shrinkage=1


Tree=88
num_leaves=4
num_cat=0
split_feature=13 14 37
split_gain=11.1532 5.92001 7.02542
threshold=-0.18962922619047534 0.00025637480709876577 -0.020744997741301084
decision_type=2 2 2
left_child=1 -1 -3
right_child=-2 2 -4
leaf_value=-0.88747131280338376 0.30648910120307926 -0.88747131280338065 -3.4588783846958884
leaf_weight=1.104797989130019 1.004361808300019 1.1047979891300173 12.654958784580231
leaf_count=11 10 11 126
internal_value=0 -0.120586 -0.30523
internal_weight=0 14.8646 13.7598
internal_count=158 148 137
shrinkage=1


Tree=89
num_leaves=5
num_cat=0
split_feature=46 7 40 1
split_gain=16.006 34.3293 8.34223 1.63586
threshold=-0.0017561394999999994 2.65077075 -6.0569611512752729e-08 -1.0610912651506557
decision_type=2 2 2 2
left_child=3 -2 -3 -1
right_child=1 2 -4 -5
leaf_value=-1.8769912480814335 -2.7907059438543462 1.7293828677495848 -0.82383917922598671 -2.7982444037209948
leaf_weight=2.0858585536479977 6.2575756609439832 3.0339760780334473 2.4651055634021759 16.117997914552692
leaf_count=11 33 16 13 85
internal_value=0 1.04807 2.8607 -0.445485
internal_weight=0 11.7567 5.49908 18.2039
internal_count=158 62 29 96
shrinkage=1


Tree=90
num_leaves=8
num_cat=0
split_feature=0 3 6 35 47 47 24
split_gain=22.2971 5.70744 5.51908 5.38841 3.38914 3.67469 2.13371
threshold=1.0533658585715659 -0.35412539761459444 -0.99362803904748176 0.019780097991085755 0.010197235019166665 0.0053606688291666666 0.0041588115530032709
decision_type=2 2 2 2 2 2 2
left_child=2 -2 -1 4 5 6 -3
right_child=1 3 -4 -5 -6 -7 -8
leaf_value=-0.76184947063628117 -0.10898876471836105 -0.85017197394837485 0.3014619838605398 -0.41655143587909421 -1.6876070143549591 -0.47177313475841853 -1.5979090853218501
leaf_weight=6.5000000000000027 4.9999999999999991 6.0000000000000062 18.5 6.9999999999999991 18 6.4999999999999991 11.499999999999998
leaf_count=13 10 12 37 14 36 13 23
internal_value=0 -0.424607 0.716567 -0.529052 -0.664685 -0.413721 -0.652422
internal_weight=0 54 25 49 42 24 17.5
internal_count=158 108 50 98 84 48 35
shrinkage=1


Tree=91
num_leaves=5
num_cat=0
split_feature=14 22 40 34
split_gain=17.8543 17.5411 8.87537 6.13974
threshold=0.0024619819638000951 -2.9383591999999994 1.1621152339984623e-07 -0.003906406804004778
decision_type=2 2 2 2
left_child=2 3 -1 -2
right_child=1 -3 -4 -5
leaf_value=-2.54338059922308 1.5179894762046151 -2.5216879591020156 -1.0389559521107987 -0.70324601983690971
leaf_weight=25.065885663032535 2.6511994451284409 3.1332357078790647 4.5793444961309424 2.6511994451284409
leaf_count=104 11 13 19 11
internal_value=0 1.30158 -0.343107 2.40391
internal_weight=0 8.43563 29.6452 5.3024
internal_count=158 35 123 22
shrinkage=1


Tree=92
num_leaves=6
num_cat=0
split_feature=2 16 43 29 17
split_gain=41.0079 13.8047 7.4605 1.31292 1.11453
threshold=0.28755181302274285 0.00010704415181062969 0.018534427500000002 0.0294749044458604 5.9345005000000013
decision_type=2 2 2 2 2
left_child=4 2 -2 -4 -1
right_child=1 -3 3 -5 -6
leaf_value=-2.2285012086353095 -1.1191564061100379 -1.9540620505922526 0.8603618662137964 -0.0018340382139230282 -1.6056571895941945
leaf_weight=29.523531436920166 3.5299874544143703 3.8508954048156729 7.0599749088287336 3.5299874544143677 3.2090795040130606
leaf_count=92 11 12 22 11 10
internal_value=0 1.31556 1.77253 2.19221 -0.562105
internal_weight=0 17.9708 14.1199 10.59 32.7326
internal_count=158 56 44 33 102
shrinkage=1


Tree=93
num_leaves=4
num_cat=0
split_feature=36 14 12
split_gain=8.29851 6.99441 3.42727
threshold=0.024904474720089793 0.00025637480709876577 0.28708096428571411
decision_type=2 2 2
left_child=1 -1 -3
right_child=-2 2 -4
leaf_value=-0.64195192224573683 -0.53173036511192473 -1.5903929456945582 -3.4588304683280953
leaf_weight=1.0043618083000172 1.3056703507900245 1.0043618083000172 12.554522603750227
leaf_count=10 13 10 125
internal_value=0 -0.180617 -0.375423
internal_weight=0 14.5632 13.5589
internal_count=158 145 135
shrinkage=1


Tree=94
num_leaves=6
num_cat=0
split_feature=16 41 41 29 20
split_gain=8.26612 18.8002 2.91047 8.0389 1.38189
threshold=0.00015776161393248289 0.022658589716666674 0.0030242750000000003 0.00074904944586039939 -0.0027573474117789545
decision_type=2 2 2 2 2
left_child=2 -2 3 -1 -4
right_child=1 -3 4 -5 -6
leaf_value=-2.7805540675157827 -2.7742408064100652 1.2961124211788206 -2.0166320380825455 -0.24532521616672454 -2.7986580479979128
leaf_weight=3.4132230877876344 2.6547290682792655 1.8962350487709043 2.4651055634021857 1.8962350487709043 17.634985953569405
leaf_count=18 14 10 13 10 93
internal_value=0 1.17465 -0.281314 0.369497 -0.456198
internal_weight=0 4.55096 25.4095 5.30946 20.1001
internal_count=158 24 134 28 106
shrinkage=1


Tree=95
num_leaves=8
num_cat=0
split_feature=0 39 11 35 8 12 23
split_gain=22.2971 5.95962 5.51908 5.5109 2.33985 1.12417 0.69548
threshold=1.0533658585715659 -5.0807189705179603e-07 0.75409550000000014 0.02518979281596247 -0.10300617013661284 3.917881400000002 5.6896580833333337
decision_type=2 2 2 2 2 2 2
left_child=2 3 -1 4 -2 6 -6
right_child=1 -3 -4 -5 5 -7 -8
leaf_value=-0.76184947063628117 -0.77422826164102632 -0.32668755323075277 0.3014619838605398 -0.37083313097316845 -1.3080540128580815 -1.111586896872002 -1.6880320910458786
leaf_weight=6.5000000000000027 5.4999999999999991 7.9999999999999991 18.5 5.9999999999999991 8.0000000000000018 6.9999999999999991 19.5
leaf_count=13 11 16 37 12 16 14 39
internal_value=0 -0.424607 0.716567 -0.563518 -0.697878 -0.794501 -0.887477
internal_weight=0 54 25 46 40 34.5 27.5
internal_count=158 108 50 92 80 69 55
shrinkage=1


Tree=96
num_leaves=6
num_cat=0
split_feature=14 3 9 13 39
split_gain=17.8543 17.5411 5.13684 4.9652 2.97956
threshold=0.0024619819638000951 -0.056686760951417024 -0.22094360571414842 -4.6920405928571363 -8.9762762473031208e-06
decision_type=2 2 2 2 2
left_child=2 -2 -1 -3 -4
right_child=1 3 4 -5 -6
leaf_value=-0.92913806777686192 -2.5216879591020152 1.5097066043069491 -1.4436578518507521 -0.51436284555865752 -2.5433189911634719
leaf_weight=2.4101813137531307 3.1332357078790665 2.4101813137531281 2.6511994451284435 2.8922175765037519 24.583849400281906
leaf_count=10 13 10 11 12 102
internal_value=0 1.30158 -0.343107 2.40391 -0.468649
internal_weight=0 8.43563 29.6452 5.3024 27.235
internal_count=158 35 123 22 113
shrinkage=1


Tree=97
num_leaves=6
num_cat=0
split_feature=1 39 8 17 12
split_gain=28.2776 20.1841 10.7886 15.8947 1.10916
threshold=-1.0434334305474813 -1.396067795742673e-06 0.26223136824113896 4.1323406500000006 4.3465347071428582
decision_type=2 2 2 2 2
left_child=1 -1 4 -4 -2
right_child=2 -3 3 -5 -6
leaf_value=0.73941494427149479 -2.2283765025802866 -2.2063101585514775 0.58381685197714628 -2.211997253026091 -1.6056571895941945
leaf_weight=8.022698760032652 28.239899635314945 3.2090795040130606 3.8508954048156721 4.17180335521698 3.2090795040130606
leaf_count=25 88 10 12 13 10
internal_value=0 1.50007 -0.294602 0.734706 -0.559518
internal_weight=0 11.2318 39.4717 8.0227 31.449
internal_count=158 35 123 25 98
shrinkage=1


Tree=98
num_leaves=4
num_cat=0
split_feature=36 14 27
split_gain=8.29851 6.99441 3.42727
threshold=0.024904474720089793 0.00025637480709876577 -0.0038801142632372866
decision_type=2 2 2
left_child=1 -1 -3
right_child=-2 2 -4
leaf_value=-0.64195192224573683 -0.53173036511192473 -1.5903929456945558 -3.4588304683280953
leaf_weight=1.0043618083000172 1.3056703507900245 1.0043618083000154 12.554522603750229
leaf_count=10 13 10 125
internal_value=0 -0.180617 -0.375423
internal_weight=0 14.5632 13.5589
internal_count=158 145 135
shrinkage=1


Tree=99
num_leaves=5
num_cat=0
split_feature=46 7 14 20
split_gain=10.3463 26.0914 5.75309 1.51268
threshold=-0.0017561394999999994 2.7040774166666668 0.0015944756634415334 -0.0027573474117789545
decision_type=2 2 2 2
left_child=3 -2 -3 -1
right_child=1 2 -4 -5
leaf_value=-1.952504909114025 -2.7894806426191829 1.8099249669606681 -0.75913776194857285 -2.7987954395092256
leaf_weight=2.2754820585250917 5.6887051463127118 1.8962350487709048 1.8962350487709043 18.203856468200684
leaf_count=12 30 10 10 96
internal_value=0 0.802311 2.81818 -0.458103
internal_weight=0 9.48118 3.79247 20.4793
internal_count=158 50 20 108
shrinkage=1


Tree=100
num_leaves=10
num_cat=0
split_feature=3 39 8 33 4 45 17 32 3
split_gain=17.4197 8.34204 6.45245 4.28337 2.03874 3.46422 1.96876 5.73756 1.27303
threshold=-0.36545154284419806 -9.0169457349335539e-07 0.26223136824113896 0.0028121616958603998 0.34138664587923678 0.012420342166666669 4.7245391000000003 -0.0024325134176100371 -0.67135924576044459
decision_type=2 2 2 2 2 2 2 2 2
left_child=3 4 -3 -1 6 -6 7 -2 -5
right_child=1 2 -4 8 5 -7 -8 -9 -10
leaf_value=0.3006222898450388 -1.6799021474473625 0.17819784867982069 -1.111586896872002 -0.88126599244113335 -0.30700856669855908 -1.4753253983817274 -1.6860297428375253 -0.30700856669855936 -0.20554387477482122
leaf_weight=16.000000000000004 7.5 8.4999999999999982 6.9999999999999991 5 4.9999999999999982 5 13.999999999999998 5.0000000000000018 5.9999999999999982
leaf_count=32 15 17 14 10 10 10 28 10 12
internal_value=0 -0.325648 0.286174 0.663586 -0.586867 -0.19403 -0.73258 -0.434263 0.176471
internal_weight=0 52 15.5 27 36.5 10 26.5 12.5 11
internal_count=158 104 31 54 73 20 53 25 22
shrinkage=1


Tree=101
num_leaves=6
num_cat=0
split_feature=25 34 38 11 25
split_gain=13.0839 22.4926 5.90787 4.91609 0.345593
threshold=-0.003906381552530082 -0.0039064068038616702 2.3693456569916917e-06 0.75409550000000014 -0.0039064068041396024
decision_type=2 2 2 2 2
left_child=4 2 -2 -3 -1
right_child=1 3 -4 -5 -6
leaf_value=-2.1079129932230627 -0.92913806777686192 -0.92913806777686037 1.2166466384143872 -2.5369379067834426 -2.5424888924876941
leaf_weight=2.4101813137531307 2.4101813137531307 2.4101813137531272 3.1332357078790665 8.1946164667606336 19.522468641400337
leaf_count=10 10 10 13 34 81
internal_value=0 0.651914 2.27527 -0.198659 -0.53241
internal_weight=0 16.1482 5.54342 10.6048 21.9326
internal_count=158 67 23 44 91
shrinkage=1


Tree=102
num_leaves=6
num_cat=0
split_feature=4 16 10 19 6
split_gain=24.5034 13.5605 7.65072 11.1914 3.2945
threshold=0.20171933113355367 8.2226252449372911e-05 -1.0612311905474814 8.1364773500000016 -1.0612366105474818
decision_type=2 2 2 2 2
left_child=4 2 -2 -4 -1
right_child=1 -3 3 -5 -6
leaf_value=-1.2882213848807107 0.84902438082506038 -2.211997253026091 0.12665299039881717 -2.2063101585514771 -2.2284402388359883
leaf_weight=4.1718033552169791 4.8136192560195932 4.1718033552169791 5.4554351568222046 3.2090795040130615 28.881715536117554
leaf_count=13 15 13 17 10 90
internal_value=0 0.955276 1.44278 0.864024 -0.502304
internal_weight=0 17.6499 13.4781 8.66451 33.0535
internal_count=158 55 42 27 103
shrinkage=1


Tree=103
num_leaves=4
num_cat=0
split_feature=17 38 24
split_gain=2.9484 10.4971 0.850165
threshold=0.68463150000000017 1.1703888190684905e-06 0.02542375462443185
decision_type=2 2 2
left_child=1 -1 -2
right_child=2 -3 -4
leaf_value=-3.4350585755071741 -3.4581896120345244 0.30648910120308193 -2.5388339691433797
leaf_weight=2.5109045207500471 11.349288433790205 1.0043618083000181 1.0043618083000172
leaf_count=25 113 10 10
internal_value=0 0.587316 -0.441219
internal_weight=0 3.51527 12.3537
internal_count=158 35 123
shrinkage=1


Tree=104
num_leaves=4
num_cat=0
split_feature=9 47 9
split_gain=9.94791 28.8993 11.259
threshold=1.3270918109525185 0.0029646336666666663 5.6595830609525191
decision_type=2 2 2
left_child=-1 -2 -3
right_child=1 2 -4
leaf_value=-2.7970434983015826 0.94429976929715309 -0.67147852665186525 -2.7956266364529014
leaf_weight=12.894398331642153 3.4132230877876308 3.2235995829105368 10.429292768239973
leaf_count=68 18 17 55
internal_value=0 0.60788 -0.0427913
internal_weight=0 17.0661 13.6529
internal_count=158 90 72
shrinkage=1


Tree=105
num_leaves=9
num_cat=0
split_feature=4 39 8 26 6 47 38 13
split_gain=15.7762 9.54213 7.87974 4.4534 3.9722 1.65786 3.92341 0.017358
threshold=-0.29290370626241263 -9.0169457349335539e-07 0.26223136824113896 0.00036129802017118771 -0.99362803904748176 0.0073219365 8.7432481035252319e-07 -3.1460062698412661
decision_type=2 2 2 2 2 2 2 2
left_child=4 3 -3 5 -1 6 -2 -7
right_child=1 2 -4 -5 -6 7 -8 -9
leaf_value=-0.57513475819969695 -1.5716002192339782 0.29580309568314844 -1.111586896872002 -0.57513475819969684 0.30042195127285209 -1.6844891719019364 -0.5361223871715155 -1.4753253983817274
leaf_weight=8.0000000000000018 9.0000000000000018 8.9999999999999982 6.9999999999999991 7.9999999999999991 15.499999999999998 11.5 5.9999999999999991 5.0000000000000009
leaf_count=16 18 18 14 16 31 23 12 10
internal_value=0 -0.278128 0.370717 -0.542351 0.698514 -0.711569 -0.461794 -0.933535
internal_weight=0 55.5 16 39.5 23.5 31.5 15 16.5
internal_count=158 111 32 79 47 63 30 33
shrinkage=1


Tree=106
num_leaves=6
num_cat=0
split_feature=25 34 11 29 25
split_gain=13.0839 22.4926 4.91609 4.53976 0.345593
threshold=-0.003906381552530082 -0.0039064068038616702 0.75409550000000014 0.019892171695860401 -0.0039064068041396024
decision_type=2 2 2 2 2
left_child=4 3 -3 -2 -1
right_child=1 2 -4 -5 -6
leaf_value=-2.1079129932230627 -0.70324601983691104 -0.92913806777686037 -2.5369379067834426 1.1850356334781365 -2.5424888924876941
leaf_weight=2.4101813137531307 2.6511994451284435 2.4101813137531272 8.1946164667606336 2.8922175765037537 19.522468641400337
leaf_count=10 11 10 34 12 81
internal_value=0 0.651914 -0.198659 2.27527 -0.53241
internal_weight=0 16.1482 10.6048 5.54342 21.9326
internal_count=158 67 44 23 91
shrinkage=1


Tree=107
num_leaves=6
num_cat=0
split_feature=13 14 14 26 21
split_gain=21.675 18.244 9.76594 6.8768 0.312204
threshold=-3.2478845023809488 0.0020495779169144497 0.0013214969135802474 -0.003835739019487448 3.2293571000000001
decision_type=2 2 2 2 2
left_child=1 2 -1 -2 -4
right_child=3 -3 4 -5 -6
leaf_value=-1.2882213848807109 -0.70281812392261966 -2.2164860760435001 0.84902438082506171 -2.2285307117958708 0.21768720312123957
leaf_weight=4.1718033552169826 3.2090795040130606 5.4554351568222037 4.8136192560195905 29.844439387321472 3.2090795040130615
leaf_count=13 10 17 15 93 10
internal_value=0 0.898779 1.57795 -0.472096 2.2212
internal_weight=0 17.6499 12.1945 33.0535 8.0227
internal_count=158 55 38 103 25
shrinkage=1


Tree=108
num_leaves=3
num_cat=0
split_feature=45 32
split_gain=2.945 18.8979
threshold=0.0038514706540598753 -0.00080142063861100518
decision_type=2 2
left_child=-1 -2
right_child=1 -3
leaf_value=-3.4576123794185247 1.2549301246519025 -3.4477969718501726
leaf_weight=10.445362806320189 1.0043618083000181 4.4191919565200815
leaf_count=104 10 44
internal_value=0 0.381172
internal_weight=0 5.42355
internal_count=158 54
shrinkage=1


Tree=109
num_leaves=4
num_cat=0
split_feature=25 40 32
split_gain=17.7312 9.7439 32.7757
threshold=-0.0039064068041396024 -6.0569611512752729e-08 -0.0011155744640058702
decision_type=2 2 2
left_child=-1 2 -2
right_child=1 -3 -4
leaf_value=0.78229987539696788 0.94429976929715531 -2.7986102653367486 -2.7923211450314094
leaf_weight=1.896235048770907 3.4132230877876282 17.445362448692322 7.205693185329439
leaf_count=10 18 92 38
internal_value=0 -0.0941504 0.657106
internal_weight=0 28.0643 10.6189
internal_count=158 148 56
shrinkage=1


Tree=110
num_leaves=10
num_cat=0
split_feature=2 39 25 39 2 5 26 2 26
split_gain=21.3261 7.30833 8.46774 3.47847 2.74958 1.28597 0.84947 0.509312 0.0889119
threshold=0.12786783168372737 -9.5415702766754834e-07 -0.0039064068037160688 -9.0169457349335539e-07 -0.63828122984609303 -0.045845272380815254 0.0004865792647301375 0.60072004684317382 -0.0024201527492651313
decision_type=2 2 2 2 2 2 2 2 2
left_child=1 2 -1 6 -4 -3 7 -2 -5
right_child=3 5 4 8 -6 -7 -8 -9 -10
leaf_value=-1.4475331454722258 -1.6867163123927422 -0.30700856669855942 -0.69314718055994529 -0.69314718055994529 0.29158564386753583 0.30042195127285209 -1.1838304103736099 -1.2773055964015296 -0.88126599244113346
leaf_weight=8.5000000000000018 15.500000000000005 5.0000000000000027 5 5 6.4999999999999982 15.499999999999998 7.9999999999999991 4.9999999999999991 4.9999999999999982
leaf_count=17 31 10 10 10 13 31 16 10 10
internal_value=0 0.430333 -0 -0.608301 0.558442 0.849148 -0.78634 -0.89781 -0.0945274
internal_weight=0 40.5 20 38.5 11.5 20.5 28.5 20.5 10
internal_count=158 81 40 77 23 41 57 41 20
shrinkage=1


Tree=111
num_leaves=5
num_cat=0
split_feature=44 13 40 39
split_gain=22.1915 15.7792 4.29029 1.74375
threshold=1.4228262491117526e-06 -4.6920405928571363 1.1621152339984623e-07 -2.2200501557274051e-06
decision_type=2 2 2 2
left_child=1 -1 -3 -4
right_child=-2 2 3 -5
leaf_value=-0.24790939224687114 0.44890357362040656 -2.5434687013467858 -2.1079129932230627 -0.92913806777686037
leaf_weight=3.856290102005004 3.6152719706296912 25.788940057158474 2.4101813137531281 2.4101813137531272
leaf_count=16 15 107 10 10
internal_value=0 -0.173593 -0.415836 0.440823
internal_weight=0 34.4656 30.6093 4.82036
internal_count=158 143 127 20
shrinkage=1


Tree=112
num_leaves=6
num_cat=0
split_feature=11 21 16 8 12
split_gain=22.5993 14.4591 12.155 6.43844 1.1195
threshold=7.9624097500000008 3.2293571000000001 -0.0002738620294636727 0.23336781725619446 3.917881400000002
decision_type=2 2 2 2 2
left_child=3 -2 -3 4 -1
right_child=1 2 -4 -5 -6
leaf_value=-2.2286155393582363 0.84902438082506126 0.21768720312124024 -2.2164860760435001 -0.70281812392261966 -1.6056571895941945
leaf_weight=30.807163238525391 4.8136192560195914 3.2090795040130606 5.4554351568222037 3.2090795040130606 3.2090795040130606
leaf_count=96 15 10 17 10 10
internal_value=0 1.07318 0.290268 -0.43562 -0.564497
internal_weight=0 13.4781 8.66451 37.2253 34.0162
internal_count=158 42 27 116 106
shrinkage=1


Tree=113
num_leaves=4
num_cat=0
split_feature=17 14 31
split_gain=11.1532 10.4744 2.60619
threshold=0.27514233333333343 0.00028149161727103656 0.049518826149945211
decision_type=2 2 2
left_child=-1 -2 -3
right_child=1 2 -4
leaf_value=0.30648910120307926 -0.29703668181182641 -3.4587323076308749 -2.0070152556705509
leaf_weight=1.004361808300019 1.2052341699600209 12.353650242090223 1.3056703507900227
leaf_count=10 12 123 13
internal_value=0 -0.120586 -0.376541
internal_weight=0 14.8646 13.6593
internal_count=158 148 136
shrinkage=1


Tree=114
num_leaves=5
num_cat=0
split_feature=46 11 0 21
split_gain=14.2407 42.802 5.57736 1.07275
threshold=-0.0017561394999999994 2.1233112083333339 3.9022010823810938 4.345071700000001
decision_type=2 2 2 2
left_child=3 -2 -3 -1
right_child=1 2 -4 -5
leaf_value=-2.7979440033137837 -2.7923211450314098 2.3367708713799717 -0.028643939988281186 -2.161697840255802
leaf_weight=15.169880390167242 7.2056931853294355 2.085858553647995 2.4651055634021759 3.0339760780334464
leaf_count=80 38 11 13 16
internal_value=0 0.963375 3.34811 -0.445485
internal_weight=0 11.7567 4.55096 18.2039
internal_count=158 62 24 96
shrinkage=1


Tree=115
num_leaves=8
num_cat=0
split_feature=0 40 6 39 34 17 0
split_gain=23.7492 7.37238 6.65734 5.5606 1.27778 1.40459 0.0172922
threshold=1.0533658585715659 3.2406585616306699e-07 -0.99362803904748176 -9.0169457349335539e-07 -0.0039064068035102881 5.5714987999999996 3.9022010823810938
decision_type=2 2 2 2 2 2 2
left_child=2 3 -1 4 5 -2 -5
right_child=1 -3 -4 6 -6 -7 -8
leaf_value=-0.82789895360959065 -1.6887125907595018 -0.071525558938323575 0.30173772992598813 -0.61206609947886415 -1.1296112689577351 -1.0792857944213314 -0.69314718055994529
leaf_weight=7.0000000000000027 22.5 5.4999999999999991 19.5 5.4999999999999982 9.0000000000000018 4.9999999999999991 5
leaf_count=14 45 11 39 11 18 10 10
internal_value=0 -0.465271 0.694915 -0.594049 -0.778386 -0.887477 0.042654
internal_weight=0 52.5 26.5 47 36.5 27.5 10.5
internal_count=158 105 53 94 73 55 21
shrinkage=1


Tree=116
num_leaves=4
num_cat=0
split_feature=44 12 46
split_gain=22.1915 17.5422 3.54333
threshold=1.4228262491117526e-06 4.4593611142857172 -0.0064578709999999996
decision_type=2 2 2
left_child=1 2 -1
right_child=-2 -3 -4
leaf_value=-1.5278962708300636 0.44890357362040656 -0.2725242411995572 -2.5435247469594504
leaf_weight=3.856290102005004 3.6152719706296912 4.3383263647556296 26.270976319909099
leaf_count=16 15 18 109
internal_value=0 -0.173593 -0.446327
internal_weight=0 34.4656 30.1273
internal_count=158 143 125
shrinkage=1


Tree=117
num_leaves=6
num_cat=0
split_feature=2 21 16 13 28
split_gain=35.1945 9.48398 10.8926 1.12629 0.676538
threshold=0.28755181302274285 3.2293571000000001 -0.00011905309478636254 -3.5087626714285665 -0.00021935947801438884
decision_type=2 2 2 2 2
left_child=3 4 -3 -1 -2
right_child=1 2 -4 -5 -6
leaf_value=-1.6056571895941945 0.071114043454437725 0.21768720312123957 -2.211997253026091 -2.2287702477447082 0.83615773770816348
leaf_weight=3.2090795040130606 3.8508954048156738 3.2090795040130615 4.17180335521698 32.732610940933228 3.5299874544143659
leaf_count=10 12 10 13 102 11
internal_value=0 1.26353 0.448476 -0.567766 2.06336
internal_weight=0 14.7618 7.38088 35.9417 7.38088
internal_count=158 46 23 112 23
shrinkage=1


Tree=118
num_leaves=4
num_cat=0
split_feature=17 15 36
split_gain=11.1532 11.5677 3.43187
threshold=0.27514233333333343 -0.00028682291666666521 0.01233821257142856
decision_type=2 2 2
left_child=-1 2 -2
right_child=1 -3 -4
leaf_value=0.30648910120307926 -3.4589255494215818 -0.021518997366135384 -1.5903929456945582
leaf_weight=1.004361808300019 12.755394965410231 1.104797989130019 1.0043618083000172
leaf_count=10 127 11 10
internal_value=0 -0.120586 -0.377643
internal_weight=0 14.8646 13.7598
internal_count=158 148 137
shrinkage=1


Tree=119
num_leaves=5
num_cat=0
split_feature=46 9 0 20
split_gain=14.2407 42.802 5.57736 1.25062
threshold=-0.0017561394999999994 1.3270918109525185 3.9022010823810938 -0.0021588746547844513
decision_type=2 2 2 2
left_child=3 -2 -3 -1
right_child=1 2 -4 -5
leaf_value=-2.0717675004953819 -2.7923211450314098 2.3367708713799717 -0.028643939988281186 -2.7980685454893246
leaf_weight=2.6547290682792708 7.2056931853294355 2.085858553647995 2.4651055634021759 15.549127399921417
leaf_count=14 38 11 13 82
internal_value=0 0.963375 3.34811 -0.445485
internal_weight=0 11.7567 4.55096 18.2039
internal_count=158 62 24 96
shrinkage=1


Tree=120
num_leaves=8
num_cat=0
split_feature=10 32 38 6 2 31 44
split_gain=23.9315 11.3539 5.26859 3.68537 4.25718 2.36525 0.978886
threshold=-1.0134874640474816 -0.0024844008518897279 8.5975582010582337e-07 -0.99362803904748176 -0.4669371296668029 0.016758704999998274 1.7241126543210086e-07
decision_type=2 2 2 2 2 2 2
left_child=5 2 -2 4 -3 -1 -7
right_child=1 3 -4 -5 -6 6 -8
leaf_value=-0.77422826164102632 -0.36864386930166709 -1.0792857944213314 -1.5474518163215345 0.30269481528205033 0.1389138881423454 -1.686029742837525 -1.2401085065267961
leaf_weight=5.5000000000000027 7.4999999999999982 5 7.5 24.000000000000004 6.4999999999999947 14.000000000000002 8.9999999999999982
leaf_count=11 15 10 15 48 13 28 18
internal_value=0 0.463897 -0.262458 0.772152 0.298701 -0.681261 -0.822126
internal_weight=0 50.5 15 35.5 11.5 28.5 23
internal_count=158 101 30 71 23 57 46
shrinkage=1


Tree=121
num_leaves=5
num_cat=0
split_feature=40 12 40 12
split_gain=22.3042 13.6413 11.3408 4.52671
threshold=1.1621152339984623e-07 4.4593611142857172 3.145509034879712e-07 0.43218366071428532
decision_type=2 2 2 2
left_child=1 -1 3 -2
right_child=2 -3 -4 -5
leaf_value=-2.5435247469594504 1.5097066043069518 -0.35408218387480916 -1.7838936465467021 -0.52266395576289226
leaf_weight=26.270976319909099 2.4101813137531263 3.1332357078790656 3.8562901020050049 2.4101813137531281
leaf_count=109 10 13 16 10
internal_value=0 -0.341156 1.47875 2.49406
internal_weight=0 29.4042 8.67665 4.82036
internal_count=158 122 36 20
shrinkage=1


Tree=122
num_leaves=5
num_cat=0
split_feature=2 14 14 6
split_gain=30.9833 17.4325 7.44851 1.12185
threshold=0.28755181302274285 0.0020495779169144497 0.0013214969135802474 -1.0612359940474816
decision_type=2 2 2 2
left_child=3 2 -2 -1
right_child=1 -3 -4 -5
leaf_value=-1.6056571895941945 -1.0096532329372403 -1.8740307380958219 0.86036186621379596 -2.2286692103552186
leaf_weight=3.2090795040130606 3.2090795040130633 5.7763431072235099 7.0599749088287354 31.448979139328003
leaf_count=10 10 18 22 98
internal_value=0 1.11287 1.8922 -0.565627
internal_weight=0 16.0454 10.2691 34.6581
internal_count=158 50 32 108
shrinkage=1


Tree=123
num_leaves=3
num_cat=0
split_feature=13 15
split_gain=6.7562 7.07615
threshold=-0.18962922619047534 -0.00024451353966423162
decision_type=2 2
left_child=1 -1
right_child=-2 -3
leaf_value=-3.4593594643020817 -0.64195192224574038 -0.88747131280338376
leaf_weight=13.759756773710249 1.004361808300019 1.104797989130019
leaf_count=137 10 11
internal_value=0 -0.321732
internal_weight=0 14.8646
internal_count=158 148
shrinkage=1


Tree=124
num_leaves=5
num_cat=0
split_feature=40 16 36 14
split_gain=7.50062 12.6839 4.46771 0.381481
threshold=-1.3584462554841432e-08 0.00015776161393248289 0.0017287674682539664 0.0020495779169144497
decision_type=2 2 2 2
left_child=1 2 -1 -4
right_child=-2 -3 3 -5
leaf_value=-1.2824267869823154 -2.7982444037209948 0.14656925676444965 -2.7903228285937356 -2.2491941439502932
leaf_weight=3.2235995829105395 16.117997914552689 2.6547290682792655 6.0679521560668945 1.8962350487709043
leaf_count=17 85 14 32 10
internal_value=0 0.446829 -0.0184713 -0.424815
internal_weight=0 13.8425 11.1878 7.96419
internal_count=158 73 59 42
shrinkage=1


Tree=125
num_leaves=8
num_cat=0
split_feature=22 32 15 8 14 34 28
split_gain=24.9638 11.8644 4.4011 3.69069 1.91928 3.46737 0.0127383
threshold=-2.8712017833333334 -0.0024844008518897279 -0.0013248516783762666 -0.68990508951044471 0.0020495779169144497 -0.003906406804004778 -0.00014457383098424851
decision_type=2 2 2 2 2 2 2
left_child=4 2 -2 -3 6 -6 -1
right_child=1 3 -4 -5 5 -7 -8
leaf_value=-1.6836685075741631 -1.3685398507170135 -0.43660267794214414 -0.2517057391185038 0.30293892511520126 -1.5474518163215345 -0.5361223871715155 -1.4753253983817269
leaf_weight=10.499999999999998 9.4999999999999982 9.4999999999999947 5.4999999999999991 25.500000000000004 7.5 5.9999999999999982 5.0000000000000027
leaf_count=21 19 19 11 51 15 12 10
internal_value=0 0.478521 -0.262458 0.797432 -0.686747 -0.402214 -0.92926
internal_weight=0 50 15 35 29 13.5 15.5
internal_count=158 100 30 70 58 27 31
shrinkage=1


Tree=126
num_leaves=5
num_cat=0
split_feature=44 12 40 20
split_gain=27.6683 14.5061 4.30331 4.91425
threshold=1.4228262491117526e-06 4.4593611142857172 1.1621152339984623e-07 0.00036758518598457266
decision_type=2 2 2 2
left_child=1 2 -1 -4
right_child=-2 -3 3 -5
leaf_value=-2.5435247469594504 0.72173462760883988 -0.2163644204970343 -0.52266395576289182 -2.5143871052370312
leaf_weight=26.270976319909099 3.6152719706296912 3.3742538392543784 2.4101813137531272 2.4101813137531281
leaf_count=109 15 14 10 10
internal_value=0 -0.202565 -0.4184 0.440823
internal_weight=0 34.4656 31.0913 4.82036
internal_count=158 143 129 20
shrinkage=1


Tree=127
num_leaves=5
num_cat=0
split_feature=2 14 14 6
split_gain=30.9833 17.4325 7.44851 1.12185
threshold=0.28755181302274285 0.0020495779169144497 0.0013214969135802474 -1.0612359940474816
decision_type=2 2 2 2
left_child=3 2 -2 -1
right_child=1 -3 -4 -5
leaf_value=-1.6056571895941945 -1.0096532329372403 -1.8740307380958219 0.86036186621379596 -2.2286692103552186
leaf_weight=3.2090795040130606 3.2090795040130633 5.7763431072235099 7.0599749088287354 31.448979139328003
leaf_count=10 10 18 22 98
internal_value=0 1.11287 1.8922 -0.565627
internal_weight=0 16.0454 10.2691 34.6581
internal_count=158 50 32 108
shrinkage=1


Tree=128
num_leaves=3
num_cat=0
split_feature=13 14
split_gain=6.7562 7.80691
threshold=-0.18962922619047534 0.00025637480709876577
decision_type=2 2
left_child=1 -1
right_child=-2 -3
leaf_value=-0.64195192224573683 -0.64195192224574038 -3.459399409480731
leaf_weight=1.0043618083000172 1.004361808300019 13.860192954540251
leaf_count=10 10 138
internal_value=0 -0.321732
internal_weight=0 14.8646
internal_count=158 148
shrinkage=1


Tree=129
num_leaves=5
num_cat=0
split_feature=46 23 11 20
split_gain=7.99764 37.5598 3.21858 0.462845
threshold=-0.0017561394999999994 5.8295150666666666 2.1233112083333339 -0.0021588746547844513
decision_type=2 2 2 2
left_child=3 2 -2 -1
right_child=1 -3 -4 -5
leaf_value=-2.2491941439502932 -2.7928549018584006 2.3237375127425186 -1.4087954570301657 -2.7983549250382977
leaf_weight=1.8962350487709105 7.5849401950836164 1.8962350487709034 2.085858553647995 16.49724492430687
leaf_count=10 40 10 11 87
internal_value=0 0.557828 -0.242685 -0.500875
internal_weight=0 11.567 9.6708 18.3935
internal_count=158 61 51 97
shrinkage=1


Tree=130
num_leaves=10
num_cat=0
split_feature=22 32 20 10 11 35 18 33 20
split_gain=16.3447 10.9748 6.88953 5.35357 5.04356 1.25664 2.5364 0.75115 0.544145
threshold=-2.8712017833333334 -0.0024844008518897279 -0.00022329571759259267 -1.0245378490474815 0.75409550000000014 0.013749969999865179 -4.1843550499999997 0.0011833806958603994 0.0010952441550925944
decision_type=2 2 2 2 2 2 2 2 2
left_child=3 2 7 5 -3 6 -1 -2 -6
right_child=1 4 -4 -5 8 -7 -8 -9 -10
leaf_value=-0.69314718055994529 -1.1345886220013865 -0.76184947063628117 -0.071525558938323575 -0.47177313475841853 0.30173772992598802 -1.6860297428375253 -1.6751291625419262 -1.6766182549401105 -0.10898876471836105
leaf_weight=5 5.5000000000000018 6.5000000000000027 5.4999999999999991 6.4999999999999991 19.500000000000004 13.999999999999998 5.5000000000000053 6 4.9999999999999991
leaf_count=10 11 13 11 13 39 28 11 12 10
internal_value=0 0.352758 -0.290323 -0.5781 0.706924 -0.792261 -0.516588 -0.731602 0.91446
internal_weight=0 48 17 31 31 24.5 10.5 11.5 24.5
internal_count=158 96 34 62 62 49 21 23 49
shrinkage=1


Tree=131
num_leaves=4
num_cat=0
split_feature=44 13 34
split_gain=35.2388 17.2745 1.49785
threshold=1.4228262491117526e-06 -4.6920405928571363 -0.0013923268041396008
decision_type=2 2 2
left_child=1 -1 -3
right_child=-2 2 -4
leaf_value=-0.039936419416969571 1.2166466384143881 -2.5438443289248696 -1.7420862918047979
leaf_weight=3.1332357078790656 3.1332357078790656 29.404212027788162 2.4101813137531307
leaf_count=13 13 122 10
internal_value=0 -0.293505 -0.51625
internal_weight=0 34.9476 31.8144
internal_count=158 145 132
shrinkage=1


Tree=132
num_leaves=5
num_cat=0
split_feature=22 14 10 7
split_gain=24.8619 28.3858 6.22343 2.17012
threshold=-3.0595658999999995 0.0020495779169144497 -0.53151927238081498 8.2655591670000028
decision_type=2 2 2 2
left_child=1 3 -2 -1
right_child=2 -3 -4 -5
leaf_value=-0.18523736080691711 -2.2286155393582363 -2.2186834858535049 -0.83982581413600865 0.85651755468556079
leaf_weight=3.8508954048156756 30.807163238525391 6.4181590080261222 3.5299874544143668 6.0972510576248169
leaf_count=12 96 20 11 19
internal_value=0 1.01797 -0.477826 2.07304
internal_weight=0 16.3663 34.3372 9.94815
internal_count=158 51 107 31
shrinkage=1


Tree=133
num_leaves=4
num_cat=0
split_feature=17 38 24
split_gain=12.9338 41.3677 2.57867
threshold=0.68463150000000017 1.855504513888891e-06 0.023581292362527085
decision_type=2 2 2
left_child=1 -1 -2
right_child=2 -3 -4
leaf_value=-3.4325193443425381 -3.4581300360155236 4.1002531949983645 -2.0070152556705509
leaf_weight=2.3100321590900434 11.248852252960203 1.0043618083000181 1.3056703507900227
leaf_count=23 112 10 13
internal_value=0 1.84283 -0.363265
internal_weight=0 3.31439 12.5545
internal_count=158 33 125
shrinkage=1


Tree=134
num_leaves=6
num_cat=0
split_feature=47 39 39 2 20
split_gain=7.45866 17.0991 25.8156 2.18022 1.62827
threshold=0.0043486534999999998 -9.5415702766754834e-07 -1.1441072718369596e-06 0.40413655761412515 -0.0019913450879973189
decision_type=2 2 2 2 2
left_child=1 2 3 -1 -2
right_child=4 -3 -4 -5 -6
leaf_value=-1.2729503077304218 -1.8769912480814337 -2.7910666963532074 2.3367708713799717 -2.7630066897321415 -2.798068545489325
leaf_weight=1.8962350487709048 2.0858585536479994 6.4471991658210772 2.085858553647995 1.8962350487709043 15.549127399921414
leaf_count=10 11 34 11 10 82
internal_value=0 0.570162 1.7985 0.215691 -0.441823
internal_weight=0 12.3255 5.87833 3.79247 17.635
internal_count=158 65 31 20 93
shrinkage=1


Tree=135
num_leaves=9
num_cat=0
split_feature=22 32 10 46 11 45 45 21
split_gain=16.3447 10.9748 5.35357 5.16972 5.04356 1.14511 2.64781 0.544145
threshold=-2.8712017833333334 -0.0024844008518897279 -1.0245378490474815 -0.00036040666666666709 0.75409550000000014 0.0056141120000000313 0.0018387970000000005 2.477357458333334
decision_type=2 2 2 2 2 2 2 2
left_child=2 3 5 -2 -3 6 -1 -6
right_child=1 4 -4 -5 7 -7 -8 -9
leaf_value=-1.6766182549401096 -1.4732518926018296 -0.76184947063628117 -0.47177313475841853 -0.36864386930166709 0.30173772992598802 -1.685767106759207 -0.69314718055994529 -0.10898876471836105
leaf_weight=6.0000000000000053 9.5000000000000018 6.5000000000000027 6.4999999999999991 7.4999999999999991 19.500000000000004 13.499999999999998 5 4.9999999999999991
leaf_count=12 19 13 13 15 39 27 10 10
internal_value=0 0.352758 -0.5781 -0.290323 0.706924 -0.792261 -0.538462 0.91446
internal_weight=0 48 31 17 31 24.5 11 24.5
internal_count=158 96 62 34 62 49 22 49
shrinkage=1


Tree=136
num_leaves=4
num_cat=0
split_feature=44 13 0
split_gain=35.2388 17.2745 1.49785
threshold=1.4228262491117526e-06 -4.6920405928571363 -0.080137796190338992
decision_type=2 2 2
left_child=1 -1 -3
right_child=-2 2 -4
leaf_value=-0.039936419416969571 1.2166466384143881 -1.7420862918047979 -2.5438443289248696
leaf_weight=3.1332357078790656 3.1332357078790656 2.4101813137531307 29.404212027788162
leaf_count=13 13 10 122
internal_value=0 -0.293505 -0.51625
internal_weight=0 34.9476 31.8144
internal_count=158 145 132
shrinkage=1


Tree=137
num_leaves=6
num_cat=0
split_feature=2 1 17 13 7
split_gain=29.8751 12.4054 7.57703 2.8267 0.0744806
threshold=0.28755181302274285 -1.0434334305474813 4.1323406500000006 -3.5087626714285665 8.9151802350000029
decision_type=2 2 2 2 2
left_child=3 4 -3 -1 -2
right_child=1 2 -4 -5 -6
leaf_value=-1.4126658512584469 0.27749655376010596 -0.38462483667503378 -2.211997253026091 -2.2285595882683666 0.8313574211504795
leaf_weight=4.8136192560195878 3.5299874544143668 4.8136192560195905 4.17180335521698 30.165347337722782 3.2090795040130615
leaf_count=15 11 15 13 94 10
internal_value=0 1.14824 0.368415 -0.509081 2.17027
internal_weight=0 15.7245 8.98542 34.979 6.73907
internal_count=158 49 28 109 21
