tree
version=v3
num_class=5
num_tree_per_iteration=5
label_index=0
max_feature_idx=47
objective=multiclass num_class:5
average_output
feature_names=average_day_max_mean_magn average_day_min_mean_magn average_day_mean_max_magn average_day_mean_min_magn average_mean_magn average_max_magn average_min_magn average_max_min_magn average_lastday_mean_magn average_lastday_max_magn average_lastday_min_magn average_lastday_max_min_magn diff_1_day_max_mean_magn diff_1_day_min_mean_magn diff_1_day_mean_max_magn diff_1_day_mean_min_magn diff_1_mean_magn diff_1_max_magn diff_1_min_magn diff_1_max_min_magn diff_1_lastday_mean_magn diff_1_lastday_max_magn diff_1_lastday_min_magn diff_1_lastday_max_min_magn average_day_max_mean_sound average_day_min_mean_sound average_day_mean_max_sound average_day_mean_min_sound average_mean_sound average_max_sound average_min_sound average_max_min_sound average_lastday_mean_sound average_lastday_max_sound average_lastday_min_sound average_lastday_max_min_sound diff_1_day_max_mean_sound diff_1_day_min_mean_sound diff_1_day_mean_max_sound diff_1_day_mean_min_sound diff_1_mean_sound diff_1_max_sound diff_1_min_sound diff_1_max_min_sound diff_1_lastday_mean_sound diff_1_lastday_max_sound diff_1_lastday_min_sound diff_1_lastday_max_min_sound
feature_infos=[-0.60373879618798776:8.3627757038120034] [-1.4328534745213324:-0.89123635571180937] [-1.2579240103346232:2.0465244475564885] [-1.2782963795235371:0.92513380362235909] [-1.2640319254298134:1.6758251899858048] [-0.56777915333085671:8.4265878466691451] [-1.4360179733308569:-0.97637315333085661] [0.86000845999999997:9.8553918333333357] [-1.2630304809168376:1.8423027133226035] [-0.6339509533308566:8.3864311800024769] [-1.4331362166641899:-0.77732081999752345] [0.79284549000000004:9.8131664999999995] [0.22844934285714386:8.6826053928571394] [-9.1055840119047673:-0.2487924428571428] [-3.349766865079407e-05:0.014362296296296297] [-0.024167208781362009:-0.00014585347222222192] [-0.0010778108465608466:0.0014192030423280425] [0.25048339999999997:9.3940509999999993] [-9.3024913333333341:-0.29346039999999995] [0.5936642166666668:18.691002000000005] [-0.01013684449074074:0.0086880693389592249] [0.050992399999999938:9.316794999999999] [-9.3024913333333341:-0.098220999999998782] [0.14921339999999872:18.297665666666667] [-0.02149926810580401:1.4556532743227673] [-0.021691402724851643:-0.017650991272470683] [-0.021557533047354933:0.042449497731092828] [-0.021575664487748451:0.040854792293733087] [-0.021563313072983228:0.041023469655530637] [-0.021371731105804009:10.075543622894195] [-0.021830127105804009:-0.017697329605804009] [0.00021569533333333157:10.096710103099998] [-0.021570589734276231:0.041182554589411981] [-0.021558818772470675:0.57882907289419616] [-0.021830127105804009:-0.017646149605804011] [2.8607666666666247e-05:0.59775495200000017] [5.7216059523810803e-05:1.4471107488571429] [-1.4530575731428568:-5.0867357142857517e-05] [7.8287037037029878e-08:0.00036671163055555539] [-0.00030305705363984687:-2.4793981481465545e-08] [-4.3151911545343074e-05:5.5360306834306849e-05] [0.00018802566666666767:10.036600565000001] [-10.089823942000001:-0.00012876499999999944] [0.00032523441666666714:20.040550294999999] [-0.00030305705363984687:2.1715678645833341e-05] [1.2244666666664376e-05:0.40219040000000006] [-0.32116952900000001:-1.2003000000000015e-05] [2.4247666666664388e-05:0.70744388200000008]
tree_sizes=732 534 633 328 227 712 536 634 328 209 707 532 538 330 210 811 533 436 330 210 692 532 537 330 210 713 533 535 329 210 726 532 531 329 210 722 532 535 329 210 717 633 535 330 210 797 636 535 330 210 787 537 539 329 210 706 533 536 330 210 706 529 635 330 210 691 530 635 423 210 708 533 634 330 210 727 532 533 330 210 786 535 536 432 210 761 535 537 329 210 728 534 531 329 210 878 534 536 329 210 790 536 531 329 211 678 536 532 329 211 891 533 534 330 211 806 534 539 330 211 681 537 537 331 211 791 537 637 330 211 721 534 632 331 211 792 535 632 329 211 686 534 538 330 211 689 534 538 330 211 693 535 535 331 211 698 537 536 329 211 706 534 638 330 211 808 537 630 327 211 798 534 535 330 211 715 536 537 330 211 691 537 535 331 211 804 638 536 331 211 590 536 536 330 211 706 632 535 331 211 722 533 634 330 211 712 536 540 330 211 819 633 540 331 211 705 537 540 331 211 720 532 632 331 211 711 633 534 328 211 767 535 541 326 211 723 534 538 329 211 700 535 539 331 211 703 531 537 331 211 712 539 539 331 211 712 626 537 331 211 802 535 538 331 211 811 535 536 330 211 724 531 640 331 211 713 532 635 327 211 793 535 539 330 211 707 535 537 330 211 595 536 534 331 211 588 536 533 330 211 896 533 537 331 211 718 535 537 330 211 668 531 533 330 211 584 537 536 332 211 725 535 536 330 211 819 536 537 330 211 804 636 541 329 211 809 536 541 329 211 704 538 538 330 211 798 535 538 330 211 789 534 633 329 211 791 530 540 329 211 703 538 536 330 211 711 537 536 331 211 833 535 536 332 211 718 534 533 330 211 716 535 536 324 211 710 534 538 330 211 815 535 634 331 211 692 534 634 331 211 694 535 543 331 211 697 533 539 330 211 705 634 536 331 211 817 630 538 330 211 720 538 538 330 211 720 538 537 331 211 692 534 538 330 211 711 537 537 330 211 789 534 536 328 211 698 537 535 331 211 800 538 535 332 211 771 533 537 332 211 707 538 540 328 211 805 528 542 328 211 714 533 534 330 211 696 632 535 330 211 797 536 537 331 211 728 536 631 331 211 727 534 634 330 211 725 639 537 429 211 702 530 636 330 211 724 533 635 326 211 898 538 537 329 211 712 536 538 330 211 702 638 536 331 211 702 638 536 331 211 829 532 632 329 211 707 530 533 329 211 794 539 540 329 211 690 534 532 328 211 698 536 536 330 211 725 537 537 330 211 708 536 538 331 211 711 538 539 331 211 589 635 539 331 211 592 534 638 327 211 710 537 536 331 211 792 537 534 330 211 805 534 534 330 211 728 534 535 330 211 813 534 635 428 211 773 535 534 330 211 789 534 536 329 211 798 535 537 329 211 811 537 537 330 211 825 529 537 330 211 723 631 532 331 211 718 634 534 331 211 689 537 535 330 211 695 535 633 330 211 680 538 544 327 211 694 538 632 330 211 781 541 539 327 211 700 536 537 329 211 706 532 538 327 211 715 535 536 330 211 707 537 532 330 211 809 537 535 330 211 808 534 535 331 211 809 535 630 330 211 730 539 538 332 211 828 539 532 333 211 804 631 536 331 211 815 535 536 331 211 803 536 535 330 211 807 531 535 331 211 688 530 538 330 211 709 531 633 330 211 788 536 633 331 211 701 525 537 428 211 689 529 539 331 211 805 531 540 330 211 782 631 532 331 211 689 633 536 331 211 788 535 636 330 211 811 534 540 330 211 893 537 537 330 211

Tree=0
num_leaves=6
num_cat=0
split_feature=15 6 39 44 8
split_gain=23.7455 25.0149 9.31415 0.753811 0.0328323
threshold=-0.002409894289351852 -1.4281698116641899 -2.2706563140097293e-06 -3.3839326073234275e-07 -1.0000000180025095e-35
decision_type=2 2 2 2 2
left_child=-1 -2 3 -3 -5
right_child=1 2 -4 4 -6
leaf_value=0.30020830116762942 0.29737414645427263 -1.2825511540698797 -0.47767756730027677 -1.6896445535897178 -1.4949489823617452
leaf_weight=14.999999999999998 10.499999999999998 7.499999999999992 8.9999999999999982 28.499999999999993 5.5000000000000133
leaf_count=30 21 15 18 57 11
internal_value=0 -0.408681 -0.701286 -0.901324 -0.967695
internal_weight=0 61 50.5 41.5 34
internal_count=152 122 101 83 68
shrinkage=1


Tree=1
num_leaves=4
num_cat=0
split_feature=47 37 8
split_gain=31.7906 19.3511 7.40685
threshold=0.0047870195833333339 -0.076699576479591608 -1.0692667420817934
decision_type=2 2 2
left_child=2 -2 -1
right_child=1 -3 -4
leaf_value=0.70823152881614271 0.042814650175609037 -2.1367062311546698 -0.89647327155109235
leaf_weight=6.2657947540283203 4.5252962112426749 36.550469398498535 5.5695953369140607
leaf_count=18 13 105 16
internal_value=0 -0.399514 1.45726
internal_weight=0 41.0758 11.8354
internal_count=152 118 34
shrinkage=1


Tree=2
num_leaves=5
num_cat=0
split_feature=32 14 15 2
split_gain=28.6334 21.5272 22.2039 1.58539
threshold=0.039977596707332592 0.0011844420202020204 -0.00098569280902777688 0.45874804991868717
decision_type=2 2 2 2
left_child=1 2 3 -1
right_child=-2 -3 -4 -5
leaf_value=-0.1637297794825372 0.74889030676473367 -2.1654840331678384 -2.1555839982457039 0.73894595087360559
leaf_weight=5.4287309646606428 5.4287309646606436 30.197315990924835 6.4466180205345145 4.0715482234954834
leaf_count=16 16 89 19 12
internal_value=0 -0.13852 0.798457 1.76822
internal_weight=0 46.1442 15.9469 9.50028
internal_count=152 136 47 28
shrinkage=1


Tree=3
num_leaves=2
num_cat=0
split_feature=20
split_gain=69.9273
threshold=0.0024194615277777806
decision_type=2
left_child=-1
right_child=-2
leaf_value=-3.355615569133068 3.1904828350434529
leaf_weight=15.114390194416048 1.7781635522842396
leaf_count=136 16
internal_value=0
internal_weight=0
internal_count=152
shrinkage=1


Tree=4
num_leaves=1
num_cat=0
split_feature=
split_gain=
threshold=
decision_type=
left_child=
right_child=
leaf_value=-34.538776391283193
leaf_weight=
leaf_count=
internal_value=
internal_weight=
internal_count=
shrinkage=1


Tree=5
num_leaves=6
num_cat=0
split_feature=20 23 39 21 14
split_gain=22.7613 17.8027 8.69453 2.85903 0.856624
threshold=-0.00031169369897959256 1.2058827500000002 -2.2706563140097293e-06 4.3593401666666667 0.002552476826388891
decision_type=2 2 2 2 2
left_child=-1 -2 3 4 -3
right_child=1 2 -4 -5 -6
leaf_value=0.29997996720637765 0.29443045919160749 -1.6896445535897175 -0.43660267794214425 -0.9353832054046658 -1.2825511540698791
leaf_weight=14.499999999999998 7.9999999999999991 28.5 9.4999999999999982 7.9999999999999991 7.4999999999999991
leaf_count=29 16 57 19 16 15
internal_value=0 -0.397238 -0.605976 -0.793417 -0.914008
internal_weight=0 61.5 53.5 44 36
internal_count=152 123 107 88 72
shrinkage=1


Tree=6
num_leaves=4
num_cat=0
split_feature=45 37 33
split_gain=31.7906 19.3511 7.40685
threshold=0.0025678537500000011 -0.076699576479591608 -0.01439532543913734
decision_type=2 2 2
left_child=2 -2 -1
right_child=1 -3 -4
leaf_value=-0.89647327155109247 0.042814650175609037 -2.1367062311546698 0.70823152881614315
leaf_weight=5.5695953369140625 4.5252962112426749 36.550469398498535 6.2657947540283185
leaf_count=16 13 105 18
internal_value=0 -0.399514 1.45726
internal_weight=0 41.0758 11.8354
internal_count=152 118 34
shrinkage=1


Tree=7
num_leaves=5
num_cat=0
split_feature=32 44 15 0
split_gain=28.6334 17.7998 32.5285 0.0107521
threshold=0.039977596707332592 -1.7699666806958092e-07 -0.0011798103472222229 8.3066395609548636
decision_type=2 2 2 2
left_child=1 2 -1 -4
right_child=-2 -3 3 -5
leaf_value=-2.1596153618595717 0.74889030676473367 -2.1652886215201987 0.29365367026972478 0.73894595087360559
leaf_weight=9.5002791881561297 5.4287309646606436 28.161541879177094 4.4108439087867719 4.0715482234954834
leaf_count=28 16 83 13 12
internal_value=0 -0.13852 0.636269 2.0553
internal_weight=0 46.1442 17.9827 8.48239
internal_count=152 136 53 25
shrinkage=1


Tree=8
num_leaves=2
num_cat=0
split_feature=20
split_gain=69.9273
threshold=0.0024194615277777806
decision_type=2
left_child=-1
right_child=-2
leaf_value=-3.355615569133068 3.1904828350434529
leaf_weight=15.114390194416048 1.7781635522842396
leaf_count=136 16
internal_value=0
internal_weight=0
internal_count=152
shrinkage=1


Tree=9
num_leaves=1
num_cat=0
split_feature=
split_gain=
threshold=
decision_type=
left_child=
right_child=
leaf_value=0
leaf_weight=
leaf_count=
internal_value=
internal_weight=
internal_count=
shrinkage=1


Tree=10
num_leaves=6
num_cat=0
split_feature=20 28 42 26 25
split_gain=22.1457 14.7881 8.54373 4.72053 0.881991
threshold=0.00048016317824074105 0.03851117721531732 -0.0033887783333333321 -0.016337202264914575 -0.018868045953091557
decision_type=2 2 2 2 2
left_child=1 2 -1 4 -2
right_child=3 -3 -4 -5 -6
leaf_value=0.30346872468540154 -1.2198647378118535 -1.4322776153425538 -0.8852001606923956 -0.69314718055994529 -1.6867163123927424
leaf_weight=29.5 6.5000000000000027 7.9999999999999991 7.4999999999999991 8.9999999999999982 15.500000000000002
leaf_count=59 13 16 15 18 31
internal_value=0 0.487236 0.754386 -0.610306 -0.85941
internal_weight=0 45 37 31 22
internal_count=152 90 74 62 44
shrinkage=1


Tree=11
num_leaves=4
num_cat=0
split_feature=37 37 36
split_gain=21.9632 21.2449 18.47
threshold=-0.002572512083333354 -0.076699576479591608 0.0027836025595238049
decision_type=2 2 2
left_child=1 -1 -2
right_child=2 -3 -4
leaf_value=0.22247809600872581 -2.1156639881880128 -2.136827522208983 0.70956646497679698
leaf_weight=4.177196502685546 3.4809970855712873 38.639067649841309 6.6138944625854492
leaf_count=12 10 111 19
internal_value=0 -0.409468 1.22644
internal_weight=0 42.8163 10.0949
internal_count=152 123 29
shrinkage=1


Tree=12
num_leaves=4
num_cat=0
split_feature=32 30 44
split_gain=24.251 18.4757 10.4876
threshold=0.039977596707332592 -0.018321988772470679 -1.0763824074074029e-06
decision_type=2 2 2
left_child=1 2 -1
right_child=-2 -3 -4
leaf_value=-0.78564046181514535 0.55232269461026706 0.11963922619171408 -2.16587405656295
leaf_weight=6.4466180205345145 5.0894352793693534 4.7501395940780631 35.286751270294189
leaf_count=19 15 14 104
internal_value=0 -0.206633 -0.420834
internal_weight=0 46.4835 41.7334
internal_count=152 137 123
shrinkage=1


Tree=13
num_leaves=2
num_cat=0
split_feature=20
split_gain=65.9942
threshold=0.0024194615277777806
decision_type=2
left_child=-1
right_child=-2
leaf_value=-3.3557593717509362 3.8498048938210112
leaf_weight=15.558931082487108 1.3336226642131794
leaf_count=140 12
internal_value=0
internal_weight=0
internal_count=152
shrinkage=1


Tree=14
num_leaves=1
num_cat=0
split_feature=
split_gain=
threshold=
decision_type=
left_child=
right_child=
leaf_value=0
leaf_weight=
leaf_count=
internal_value=
internal_weight=
internal_count=
shrinkage=1


Tree=15
num_leaves=7
num_cat=0
split_feature=18 27 15 15 0 14
split_gain=19.274 23.6255 13.3196 3.31687 0.981307 0.0461273
threshold=-5.2234225000000007 -0.019643463924554013 -0.002409894289351852 -0.00098569280902777688 8.2844808466691457 0.0023733605650252516
decision_type=2 2 2 2 2 2
left_child=-1 -2 -3 4 5 -4
right_child=1 2 3 -5 -6 -7
leaf_value=0.3008105233675471 0.29888469195001477 0.28705083924203501 -1.6887125907595015 -0.86273782383479913 -1.1807504863450693 -1.4753253983817274
leaf_weight=16.5 12.499999999999998 4.9999999999999991 22.500000000000004 8.4999999999999982 5.9999999999999991 4.9999999999999991
leaf_count=33 25 10 45 17 12 10
internal_value=0 -0.225861 -0.551541 -0.736029 -0.877794 -0.960073
internal_weight=0 59.5 47 42 33.5 27.5
internal_count=152 119 94 84 67 55
shrinkage=1


Tree=16
num_leaves=4
num_cat=0
split_feature=41 41 20
split_gain=21.9632 21.2449 4.85297
threshold=0.0044838241666666683 0.38676363635714289 0.0020457035686240032
decision_type=2 2 2
left_child=2 -2 -1
right_child=1 -3 -4
leaf_value=-0.79105751806098334 -2.136827522208983 0.22247809600872581 0.68807660152891148
leaf_weight=6.6138944625854474 38.639067649841309 4.177196502685546 3.4809970855712891
leaf_count=19 111 12 10
internal_value=0 -0.409468 1.22644
internal_weight=0 42.8163 10.0949
internal_count=152 123 29
shrinkage=1


Tree=17
num_leaves=3
num_cat=0
split_feature=39 39
split_gain=17.0539 57.2423
threshold=-2.6619886574073825e-06 -3.4848024993235822e-06
decision_type=2 2
left_child=1 -1
right_child=-2 -3
leaf_value=-2.1634721256117508 -2.1645424407006346 0.68136055900612269
leaf_weight=17.304079949855808 22.393515229225159 11.875348985195158
leaf_count=51 66 35
internal_value=0 0.524401
internal_weight=0 29.1794
internal_count=152 86
shrinkage=1


Tree=18
num_leaves=2
num_cat=0
split_feature=20
split_gain=65.9942
threshold=0.0024194615277777806
decision_type=2
left_child=-1
right_child=-2
leaf_value=-3.3557593717509362 3.8498048938210112
leaf_weight=15.558931082487108 1.3336226642131794
leaf_count=140 12
internal_value=0
internal_weight=0
internal_count=152
shrinkage=1


Tree=19
num_leaves=1
num_cat=0
split_feature=
split_gain=
threshold=
decision_type=
left_child=
right_child=
leaf_value=0
leaf_weight=
leaf_count=
internal_value=
internal_weight=
internal_count=
shrinkage=1


Tree=20
num_leaves=6
num_cat=0
split_feature=18 26 14 45 14
split_gain=22.183 19.4831 17.6799 4.25054 0.392207
threshold=-5.2234225000000007 -0.018278777823830628 0.0030989754641203749 0.011057257499999999 0.001097684363425927
decision_type=2 2 2 2 2
left_child=-1 -2 3 4 -3
right_child=1 2 -4 -5 -6
leaf_value=0.30131265323506851 0.29690257068383563 -1.3725364935370445 0.29158564386753572 -0.81115960292019373 -1.6894503228889657
leaf_weight=18 9.9999999999999982 6.4999999999999991 6.4999999999999991 7.9999999999999991 27
leaf_count=36 20 13 13 16 54
internal_value=0 -0.274763 -0.540062 -0.780987 -0.937407
internal_weight=0 58 48 41.5 33.5
internal_count=152 116 96 83 67
shrinkage=1


Tree=21
num_leaves=4
num_cat=0
split_feature=41 41 0
split_gain=37.0031 18.8198 3.58838
threshold=0.0044838241666666683 0.38676363635714289 0.45575818000247625
decision_type=2 2 2
left_child=2 -2 -1
right_child=1 -3 -4
leaf_value=0.70316890087368455 -2.1367273985860438 0.17659460520509729 -0.43013338401610235
leaf_weight=5.2214956283569318 36.898569107055664 3.8290967941284171 6.9619941711425781
leaf_count=15 106 11 20
internal_value=0 -0.421944 1.56093
internal_weight=0 40.7277 12.1835
internal_count=152 117 35
shrinkage=1


Tree=22
num_leaves=4
num_cat=0
split_feature=27 42 30
split_gain=20.7221 23.0182 15.3501
threshold=0.03855133764399344 -0.36201758488888885 -0.018321988772470679
decision_type=2 2 2
left_child=1 -1 -3
right_child=-2 2 -4
leaf_value=0.49631868294593873 0.35774879091446121 -2.1660771248094797 -0.057833359204789714
leaf_weight=4.0715482234954825 5.0894352793693534 38.679708123207092 3.7322525382041922
leaf_count=12 15 114 11
internal_value=0 -0.228123 -0.447858
internal_weight=0 46.4835 42.412
internal_count=152 137 125
shrinkage=1


Tree=23
num_leaves=2
num_cat=0
split_feature=20
split_gain=28.6167
threshold=0.0024194615277777806
decision_type=2
left_child=-1
right_child=-2
leaf_value=-3.3558282445716339 1.7855510273211652
leaf_weight=15.781201526522638 1.1113522201776493
leaf_count=142 10
internal_value=0
internal_weight=0
internal_count=152
shrinkage=1


Tree=24
num_leaves=1
num_cat=0
split_feature=
split_gain=
threshold=
decision_type=
left_child=
right_child=
leaf_value=0
leaf_weight=
leaf_count=
internal_value=
internal_weight=
internal_count=
shrinkage=1


Tree=25
num_leaves=6
num_cat=0
split_feature=15 39 19 39 26
split_gain=19.8069 21.8591 16.113 5.37532 0.773828
threshold=-0.002409894289351852 -1.6921081123737341e-06 11.094562500000004 -5.0288331602004894e-06 -1.0000000180025095e-35
decision_type=2 2 2 2 2
left_child=-1 2 3 -2 -5
right_child=1 -3 -4 4 -6
leaf_value=0.3008105233675471 -0.6244448904836094 0.2981948107820459 0.29032389382022006 -1.6895174164946096 -1.3080540128580815
leaf_weight=16.5 6.4999999999999991 11.499999999999998 5.9999999999999991 27.499999999999996 8.0000000000000018
leaf_count=33 13 23 12 55 16
internal_value=0 -0.242653 -0.540062 -0.75981 -0.912799
internal_weight=0 59.5 48 42 35.5
internal_count=152 119 96 84 71
shrinkage=1


Tree=26
num_leaves=4
num_cat=0
split_feature=41 41 21
split_gain=37.0031 18.8198 3.58838
threshold=0.0044838241666666683 0.38676363635714289 0.44876362500000011
decision_type=2 2 2
left_child=2 -2 -1
right_child=1 -3 -4
leaf_value=0.70316890087368455 -2.1367273985860438 0.17659460520509729 -0.43013338401610235
leaf_weight=5.2214956283569318 36.898569107055664 3.8290967941284171 6.9619941711425781
leaf_count=15 106 11 20
internal_value=0 -0.421944 1.56093
internal_weight=0 40.7277 12.1835
internal_count=152 117 35
shrinkage=1


Tree=27
num_leaves=4
num_cat=0
split_feature=27 42 31
split_gain=20.7221 23.0182 13.9634
threshold=0.03855133764399344 -0.36201758488888885 0.0058094618333333356
decision_type=2 2 2
left_child=1 -1 -3
right_child=-2 2 -4
leaf_value=0.49631868294593873 0.35774879091446121 -0.2315631208370621 -2.1660584332360822
leaf_weight=4.0715482234954825 5.0894352793693534 4.0715482234954825 38.340412437915802
leaf_count=12 15 12 113
internal_value=0 -0.228123 -0.447858
internal_weight=0 46.4835 42.412
internal_count=152 137 125
shrinkage=1


Tree=28
num_leaves=2
num_cat=0
split_feature=25
split_gain=28.6167
threshold=-0.01830084555818497
decision_type=2
left_child=-1
right_child=-2
leaf_value=-3.3558282445716339 1.7855510273211652
leaf_weight=15.781201526522638 1.1113522201776493
leaf_count=142 10
internal_value=0
internal_weight=0
internal_count=152
shrinkage=1


Tree=29
num_leaves=1
num_cat=0
split_feature=
split_gain=
threshold=
decision_type=
left_child=
right_child=
leaf_value=0
leaf_weight=
leaf_count=
internal_value=
internal_weight=
internal_count=
shrinkage=1


Tree=30
num_leaves=6
num_cat=0
split_feature=20 19 19 39 14
split_gain=20.6231 16.1313 17.9233 5.50896 1.04335
threshold=-0.00031169369897959256 11.094562500000004 2.3577117916666674 -2.2706563140097293e-06 0.002552476826388891
decision_type=2 2 2 2 2
left_child=-1 2 -2 4 -4
right_child=1 -3 3 -5 -6
leaf_value=0.30062228984503903 0.29266842227693424 0.29515691300730607 -1.6896445535897178 -0.74026759940811282 -1.2198647378118537
leaf_weight=15.999999999999998 6.9999999999999991 8.4999999999999982 28.499999999999993 9.5000000000000053 6.4999999999999991
leaf_count=32 14 17 57 19 13
internal_value=0 -0.282265 -0.493695 -0.728395 -0.911555
internal_weight=0 60 51.5 44.5 35
internal_count=152 120 103 89 70
shrinkage=1


Tree=31
num_leaves=4
num_cat=0
split_feature=8 25 36
split_gain=27.1325 22.6371 15.6376
threshold=-0.93365916218828326 -0.019792341855804006 0.070682275904762421
decision_type=2 2 2
left_child=1 -1 -2
right_child=2 -3 -4
leaf_value=-2.1194995822702229 -2.1366626649548088 0.71458240294818576 -0.17575043040684202
leaf_weight=4.177196502685546 35.854269981384277 8.354393005371092 4.5252962112426749
leaf_count=12 103 24 13
internal_value=0 1.26147 -0.420027
internal_weight=0 12.5316 40.3796
internal_count=152 36 116
shrinkage=1


Tree=32
num_leaves=4
num_cat=0
split_feature=30 29 18
split_gain=15.9594 17.9641 30.4945
threshold=-0.018321988772470679 0.28298295789419609 -5.0376429999999983
decision_type=2 2 2
left_child=1 -1 -3
right_child=-2 2 -4
leaf_value=-2.1654218857023224 0.16317488721865558 -2.1589593366341648 0.51478740099602027
leaf_weight=29.518724620342255 5.0894352793693534 8.8216878175735491 8.143096446990965
leaf_count=87 15 26 24
internal_value=0 -0.163653 0.653739
internal_weight=0 46.4835 16.9648
internal_count=152 137 50
shrinkage=1


Tree=33
num_leaves=2
num_cat=0
split_feature=25
split_gain=56.0376
threshold=-0.01830084555818497
decision_type=2
left_child=-1
right_child=-2
leaf_value=-3.3556885091037518 2.8518092612927846
leaf_weight=15.336660638451578 1.5558931082487095
leaf_count=138 14
internal_value=0
internal_weight=0
internal_count=152
shrinkage=1


Tree=34
num_leaves=1
num_cat=0
split_feature=
split_gain=
threshold=
decision_type=
left_child=
right_child=
leaf_value=0
leaf_weight=
leaf_count=
internal_value=
internal_weight=
internal_count=
shrinkage=1


Tree=35
num_leaves=6
num_cat=0
split_feature=18 27 15 32 29
split_gain=20.6231 20.7735 17.9182 3.6261 0.449767
threshold=-5.2234225000000007 -0.019643463924554013 -0.002409894289351852 -0.016054742081438842 -0.012613117105804006
decision_type=2 2 2 2 2
left_child=-1 -2 -3 4 -4
right_child=1 2 3 -5 -6
leaf_value=0.30062228984503903 0.29737414645427263 0.29158564386753572 -1.3460397425434172 -0.9086167938196138 -1.6895821181713533
leaf_weight=15.999999999999998 10.499999999999998 6.4999999999999991 5.999999999999992 8.9999999999999982 28.000000000000007
leaf_count=32 21 13 12 18 56
internal_value=0 -0.282265 -0.553986 -0.788618 -0.938326
internal_weight=0 60 49.5 43 34
internal_count=152 120 99 86 68
shrinkage=1


Tree=36
num_leaves=4
num_cat=0
split_feature=8 25 36
split_gain=27.1325 22.6371 15.6376
threshold=-0.93365916218828326 -0.019792341855804006 0.070682275904762421
decision_type=2 2 2
left_child=1 -1 -2
right_child=2 -3 -4
leaf_value=-2.1194995822702229 -2.1366626649548088 0.71458240294818576 -0.17575043040684202
leaf_weight=4.177196502685546 35.854269981384277 8.354393005371092 4.5252962112426749
leaf_count=12 103 24 13
internal_value=0 1.26147 -0.420027
internal_weight=0 12.5316 40.3796
internal_count=152 36 116
shrinkage=1


Tree=37
num_leaves=4
num_cat=0
split_feature=32 14 20
split_gain=18.0121 21.8564 31.3648
threshold=0.039977596707332592 0.0011844420202020204 0.00048016317824074105
decision_type=2 2 2
left_child=1 2 -1
right_child=-2 -3 -4
leaf_value=-2.1577627394233607 0.49631868294593873 -2.1656003217575903 0.63684137553041054
leaf_weight=7.8038007616996756 4.0715482234954825 31.554498732089996 8.143096446990965
leaf_count=23 12 93 24
internal_value=0 -0.152781 0.798457
internal_weight=0 47.5014 15.9469
internal_count=152 140 47
shrinkage=1


Tree=38
num_leaves=2
num_cat=0
split_feature=25
split_gain=56.0376
threshold=-0.01830084555818497
decision_type=2
left_child=-1
right_child=-2
leaf_value=-3.3556885091037518 2.8518092612927846
leaf_weight=15.336660638451578 1.5558931082487095
leaf_count=138 14
internal_value=0
internal_weight=0
internal_count=152
shrinkage=1


Tree=39
num_leaves=1
num_cat=0
split_feature=
split_gain=
threshold=
decision_type=
left_child=
right_child=
leaf_value=0
leaf_weight=
leaf_count=
internal_value=
internal_weight=
internal_count=
shrinkage=1


Tree=40
num_leaves=6
num_cat=0
split_feature=27 18 14 1 1
split_gain=19.676 23.7425 14.0442 3.6527 0.594096
threshold=-0.019643463924554013 -5.2234225000000007 0.0031375349662800659 -1.4203789090451433 -1.3521184890451419
decision_type=2 2 2 2 2
left_child=-1 -2 3 -3 -5
right_child=1 2 -4 4 -6
leaf_value=0.29997996720637765 0.2981948107820459 -0.96011550635180065 0.28705083924203501 -1.6897048397682071 -1.2773055964015279
leaf_weight=14.499999999999998 11.499999999999998 10.999999999999991 4.9999999999999991 28.999999999999993 5.0000000000000133
leaf_count=29 23 22 10 58 10
internal_value=0 -0.299756 -0.598402 -0.775805 -0.938326
internal_weight=0 61.5 50 45 34
internal_count=152 123 100 90 68
shrinkage=1


Tree=41
num_leaves=5
num_cat=0
split_feature=42 36 24 0
split_gain=25.9251 23.5733 19.2807 0.0781263
threshold=-0.0041797216666666663 0.070682275904762421 -0.014152791272470674 0.45575818000247625
decision_type=2 2 2 2
left_child=1 -1 -2 -4
right_child=2 -3 3 -5
leaf_value=-2.1365459811624699 -2.1177538831752405 0.13407045769967696 0.70316890087368455 0.26137973075805965
leaf_weight=34.113771438598633 3.8290967941284171 5.2214956283569327 5.2214956283569318 4.5252962112426758
leaf_count=98 11 15 15 13
internal_value=0 -0.3379 1.26216 2.00745
internal_weight=0 39.3353 13.5759 9.74679
internal_count=152 113 39 28
shrinkage=1


Tree=42
num_leaves=4
num_cat=0
split_feature=27 42 30
split_gain=24.251 17.9458 19.9861
threshold=0.03855133764399344 -0.36201758488888885 -0.018321988772470679
decision_type=2 2 2
left_child=1 -1 -3
right_child=-2 2 -4
leaf_value=0.25369141501827208 0.55232269461026706 -2.1660394083231798 0.069480844332219238
leaf_weight=4.0715482234954825 5.0894352793693534 38.001116752624512 4.4108439087867728
leaf_count=12 15 112 13
internal_value=0 -0.206633 -0.400757
internal_weight=0 46.4835 42.412
internal_count=152 137 125
shrinkage=1


Tree=43
num_leaves=2
num_cat=0
split_feature=20
split_gain=46.1903
threshold=0.0024194615277777806
decision_type=2
left_child=-1
right_child=-2
leaf_value=-3.3557940516143363 2.9078208194108925
leaf_weight=15.670066304504873 1.2224874421954144
leaf_count=141 11
internal_value=0
internal_weight=0
internal_count=152
shrinkage=1


Tree=44
num_leaves=1
num_cat=0
split_feature=
split_gain=
threshold=
decision_type=
left_child=
right_child=
leaf_value=0
leaf_weight=
leaf_count=
internal_value=
internal_weight=
internal_count=
shrinkage=1


Tree=45
num_leaves=7
num_cat=0
split_feature=39 14 6 16 2 0
split_gain=23.1682 21.5407 14.3483 1.99868 3.1367 0.0253242
threshold=-1.6921081123737341e-06 0.0027743593749999999 -1.4281698116641899 1.0000000180025095e-35 -0.80410101530944433 0.45575818000247625
decision_type=2 2 2 2 2 2
left_child=1 2 -1 4 -4 -5
right_child=-2 -3 3 5 -6 -7
leaf_value=0.28705083924203501 0.3008105233675471 0.29690257068383563 -1.6799021474473621 -1.4949489823617466 -0.79811955625055298 -1.6887125907595018
leaf_weight=4.9999999999999991 16.5 9.9999999999999982 7.5000000000000027 5.5000000000000027 8.9999999999999982 22.5
leaf_count=10 33 20 15 11 18 45
internal_value=0 -0.343409 -0.614531 -0.795735 -0.510574 -0.960784
internal_weight=0 59.5 49.5 44.5 16.5 28
internal_count=152 119 99 89 33 56
shrinkage=1


Tree=46
num_leaves=5
num_cat=0
split_feature=41 36 31 42
split_gain=28.5284 23.6377 6.06059 15.3617
threshold=0.0044838241666666683 0.070682275904762421 0.0090523420833333347 -0.0040427020833333303
decision_type=2 2 2 2
left_child=2 -2 3 -1
right_child=1 -3 -4 -5
leaf_value=0.69217853526452955 -2.136594052876585 0.13407045769967696 0.70316890087368411 -2.1177538831752405
leaf_weight=3.829096794128418 34.809970855712891 5.2214956283569327 5.2214956283569336 3.8290967941284162
leaf_count=11 100 15 15 11
internal_value=0 -0.343228 1.36483 0.780078
internal_weight=0 40.0315 12.8797 7.65819
internal_count=152 115 37 22
shrinkage=1


Tree=47
num_leaves=4
num_cat=0
split_feature=27 42 30
split_gain=24.251 17.9458 19.9861
threshold=0.03855133764399344 -0.36201758488888885 -0.018321988772470679
decision_type=2 2 2
left_child=1 -1 -3
right_child=-2 2 -4
leaf_value=0.25369141501827208 0.55232269461026706 -2.1660394083231798 0.069480844332219238
leaf_weight=4.0715482234954825 5.0894352793693534 38.001116752624512 4.4108439087867728
leaf_count=12 15 112 13
internal_value=0 -0.206633 -0.400757
internal_weight=0 46.4835 42.412
internal_count=152 137 125
shrinkage=1


Tree=48
num_leaves=2
num_cat=0
split_feature=20
split_gain=46.1903
threshold=0.0024194615277777806
decision_type=2
left_child=-1
right_child=-2
leaf_value=-3.3557940516143363 2.9078208194108925
leaf_weight=15.670066304504873 1.2224874421954144
leaf_count=141 11
internal_value=0
internal_weight=0
internal_count=152
shrinkage=1


Tree=49
num_leaves=1
num_cat=0
split_feature=
split_gain=
threshold=
decision_type=
left_child=
right_child=
leaf_value=0
leaf_weight=
leaf_count=
internal_value=
internal_weight=
internal_count=
shrinkage=1


Tree=50
num_leaves=7
num_cat=0
split_feature=39 14 1 34 27 0
split_gain=21.1662 18.8916 9.74327 12.6202 1.54988 2.034
threshold=-1.6921081123737341e-06 0.0027743593749999999 -1.4203789090451433 -0.021625272605804009 -0.017443579699843347 8.3066395609548636
decision_type=2 2 2 2 2 2
left_child=1 2 3 -1 -4 -6
right_child=-2 -3 4 -5 5 -7
leaf_value=-1.5371188117656189 0.30062228984503903 0.29638161525157292 -1.6886120331676553 0.29443045919160771 -0.88520016069239549 -1.6766182549401105
leaf_weight=7 15.999999999999998 9.4999999999999982 21.999999999999993 7.9999999999999982 7.5000000000000053 6
leaf_count=14 32 19 44 16 15 12
internal_value=0 -0.298918 -0.543027 0.129568 -0.828411 -0.549815
internal_weight=0 60 50.5 15 35.5 13.5
internal_count=152 120 101 30 71 27
shrinkage=1


Tree=51
num_leaves=4
num_cat=0
split_feature=37 36 37
split_gain=27.1909 24.2188 17.0539
threshold=-0.002572512083333354 0.0027836025595238049 -0.076699576479591608
decision_type=2 2 2
left_child=2 -2 -1
right_child=1 -3 -4
leaf_value=-0.014085305873239529 -2.1209796472649698 0.71534620092813772 -2.1366402420764086
leaf_weight=4.177196502685546 4.5252962112426749 8.7024927139282209 35.506170272827148
leaf_count=12 13 25 102
internal_value=0 1.23684 -0.416091
internal_weight=0 13.2278 39.6834
internal_count=152 38 114
shrinkage=1


Tree=52
num_leaves=4
num_cat=0
split_feature=32 42 34
split_gain=21.3117 19.5505 20.5705
threshold=0.039977596707332592 -0.36201758488888885 -0.018318822105804006
decision_type=2 2 2
left_child=1 -1 -3
right_child=-2 2 -4
leaf_value=0.16317488721865558 0.53629376946063867 -2.1659597903402519 -0.031399016477150044
leaf_weight=5.0894352793693534 4.7501395940780631 36.643934011459351 5.0894352793693534
leaf_count=15 14 108 15
internal_value=0 -0.145754 -0.372968
internal_weight=0 46.8228 41.7334
internal_count=152 138 123
shrinkage=1


Tree=53
num_leaves=2
num_cat=0
split_feature=25
split_gain=46.1903
threshold=-0.01830084555818497
decision_type=2
left_child=-1
right_child=-2
leaf_value=-3.3557940516143363 2.9078208194108925
leaf_weight=15.670066304504873 1.2224874421954144
leaf_count=141 11
internal_value=0
internal_weight=0
internal_count=152
shrinkage=1


Tree=54
num_leaves=1
num_cat=0
split_feature=
split_gain=
threshold=
decision_type=
left_child=
right_child=
leaf_value=0
leaf_weight=
leaf_count=
internal_value=
internal_weight=
internal_count=
shrinkage=1


Tree=55
num_leaves=6
num_cat=0
split_feature=20 26 18 26 9
split_gain=21.1662 22.572 18.7996 2.59822 0.0533493
threshold=-0.00031169369897959256 -0.018278777823830628 -5.2234225000000007 -0.016158859614917708 8.2852868466691465
decision_type=2 2 2 2 2
left_child=-1 -2 -3 4 -4
right_child=1 2 3 -5 -6
leaf_value=0.30062228984503903 0.29780304568439853 0.29158564386753572 -1.6895821181713533 -1.0544037250625631 -1.4753253983817274
leaf_weight=15.999999999999998 10.999999999999998 6.4999999999999991 28 9.4999999999999982 4.9999999999999991
leaf_count=32 22 13 56 19 10
internal_value=0 -0.298918 -0.590214 -0.833137 -0.966717
internal_weight=0 60 49 42.5 33
internal_count=152 120 98 85 66
shrinkage=1


Tree=56
num_leaves=4
num_cat=0
split_feature=2 25 36
split_gain=23.8196 27.6458 15.5458
threshold=-0.83433398750331056 -0.019792341855804006 0.070682275904762421
decision_type=2 2 2
left_child=1 -1 -2
right_child=2 -3 -4
leaf_value=-2.1243196700928295 -2.1365459811624699 0.71534620092813772 -0.17575043040684202
leaf_weight=5.5695953369140616 34.113771438598633 8.7024927139282209 4.5252962112426749
leaf_count=16 98 25 13
internal_value=0 1.09964 -0.409921
internal_weight=0 14.2721 38.6391
internal_count=152 41 111
shrinkage=1


Tree=57
num_leaves=4
num_cat=0
split_feature=32 14 40
split_gain=21.3117 20.3506 32.7083
threshold=0.039977596707332592 0.0011844420202020204 -1.596098214285714e-07
decision_type=2 2 2
left_child=1 2 -1
right_child=-2 -3 -4
leaf_value=0.63684137553040965 0.53629376946063867 -2.1654840331678384 -2.1585921931672467
leaf_weight=8.1430964469909686 4.7501395940780631 30.197315990924835 8.4823921322822553
leaf_count=24 14 89 25
internal_value=0 -0.145754 0.739994
internal_weight=0 46.8228 16.6255
internal_count=152 138 49
shrinkage=1


Tree=58
num_leaves=2
num_cat=0
split_feature=20
split_gain=38.7551
threshold=0.0024194615277777806
decision_type=2
left_child=-1
right_child=-2
leaf_value=-3.3557241945065726 1.9756972275701554
leaf_weight=15.447795860469343 1.4447578862309445
leaf_count=139 13
internal_value=0
internal_weight=0
internal_count=152
shrinkage=1


Tree=59
num_leaves=1
num_cat=0
split_feature=
split_gain=
threshold=
decision_type=
left_child=
right_child=
leaf_value=0
leaf_weight=
leaf_count=
internal_value=
internal_weight=
internal_count=
shrinkage=1


Tree=60
num_leaves=6
num_cat=0
split_feature=20 10 6 32 0
split_gain=22.3173 21.427 15.0266 5.48886 0.0283987
threshold=0.00048016317824074105 -1.4275252933308564 -1.4281698116641899 -0.016662330728381525 1.7238237395262848
decision_type=2 2 2 2 2
left_child=1 2 -1 4 -2
right_child=3 -3 -4 -5 -6
leaf_value=0.2888348014220361 -1.6862743283262678 0.30346872468540154 -1.6851790530699053 -0.69314718055994529 -1.4753253983817274
leaf_weight=5.5000000000000027 14.500000000000005 29.5 12.499999999999998 8.9999999999999982 4.9999999999999991
leaf_count=11 29 59 25 18 10
internal_value=0 0.472135 -0.385042 -0.646235 -0.943734
internal_weight=0 47.5 18 28.5 19.5
internal_count=152 95 36 57 39
shrinkage=1


Tree=61
num_leaves=4
num_cat=0
split_feature=41 41 3
split_gain=24.067 18.9026 6.99656
threshold=0.0044838241666666683 0.38676363635714289 -1.0040714272718285
decision_type=2 2 2
left_child=2 -2 -1
right_child=1 -3 -4
leaf_value=0.69850989192296198 -2.136827522208983 0.17659460520509729 -0.96894795981622295
leaf_weight=4.5252962112426758 38.639067649841309 3.8290967941284171 5.9176950454711896
leaf_count=13 111 11 17
internal_value=0 -0.431062 1.25967
internal_weight=0 42.4682 10.443
internal_count=152 122 30
shrinkage=1


Tree=62
num_leaves=5
num_cat=0
split_feature=32 30 37 3
split_gain=18.2344 20.4697 9.87123 11.548
threshold=0.039977596707332592 -0.018321988772470679 -0.060424029499999775 0.29338440382462172
decision_type=2 2 2 2
left_child=1 2 3 -1
right_child=-2 -3 -4 -5
leaf_value=0.4405857755197069 0.32796649782617626 0.16317488721865558 -2.1658515841466395 -2.1444015612689409
leaf_weight=3.3929568529129019 4.7501395940780631 5.0894352793693534 34.947455585002899 3.3929568529129028
leaf_count=10 14 15 103 10
internal_value=0 -0.188422 -0.420834 0.675739
internal_weight=0 46.8228 41.7334 6.78591
internal_count=152 138 123 20
shrinkage=1


Tree=63
num_leaves=2
num_cat=0
split_feature=16
split_gain=42.6004
threshold=0.00035682851847449213
decision_type=2
left_child=-1
right_child=-2
leaf_value=-3.3555404591356481 1.504924281400482
leaf_weight=14.892119750380518 2.0004339963197699
leaf_count=134 18
internal_value=0
internal_weight=0
internal_count=152
shrinkage=1


Tree=64
num_leaves=1
num_cat=0
split_feature=
split_gain=
threshold=
decision_type=
left_child=
right_child=
leaf_value=0
leaf_weight=
leaf_count=
internal_value=
internal_weight=
internal_count=
shrinkage=1


Tree=65
num_leaves=6
num_cat=0
split_feature=25 28 27 2 37
split_gain=18.8564 18.4535 17.5371 4.85269 13.3849
threshold=-0.021133889398661183 -0.015747826439678984 0.03855133764399344 -0.78557696936094923 -0.04864285332142846
decision_type=2 2 2 2 2
left_child=2 3 -1 -2 -5
right_child=1 -3 -4 4 -6
leaf_value=0.3030140478469644 -1.6883965867357174 0.29443045919160749 -1.5252082492622354 -1.6820974568030391 0.28883480142203677
leaf_weight=26 21 7.9999999999999991 6.4999999999999991 8.9999999999999982 5.4999999999999991
leaf_count=52 42 16 13 18 11
internal_value=0 -0.377727 0.628264 -0.687764 -0.237113
internal_weight=0 43.5 32.5 35.5 14.5
internal_count=152 87 65 71 29
shrinkage=1


Tree=66
num_leaves=4
num_cat=0
split_feature=42 5 37
split_gain=22.8611 20.0292 18.8866
threshold=-0.0041797216666666663 0.95839034666914369 -0.076699576479591608
decision_type=2 2 2
left_child=2 -2 -1
right_child=1 -3 -4
leaf_value=0.17659460520509729 0.7107688594161885 -2.1177538831752405 -2.136808224706598
leaf_weight=3.8290967941284171 6.9619941711425763 3.829096794128418 38.29096794128418
leaf_count=11 20 11 110
internal_value=0 1.19852 -0.429298
internal_weight=0 10.7911 42.1201
internal_count=152 31 121
shrinkage=1


Tree=67
num_leaves=5
num_cat=0
split_feature=32 30 37 3
split_gain=18.2344 20.4697 9.87123 11.548
threshold=0.039977596707332592 -0.018321988772470679 -0.060424029499999775 0.29338440382462172
decision_type=2 2 2 2
left_child=1 2 3 -1
right_child=-2 -3 -4 -5
leaf_value=0.4405857755197069 0.32796649782617626 0.16317488721865558 -2.1658515841466395 -2.1444015612689409
leaf_weight=3.3929568529129019 4.7501395940780631 5.0894352793693534 34.947455585002899 3.3929568529129028
leaf_count=10 14 15 103 10
internal_value=0 -0.188422 -0.420834 0.675739
internal_weight=0 46.8228 41.7334 6.78591
internal_count=152 138 123 20
shrinkage=1


Tree=68
num_leaves=3
num_cat=0
split_feature=1 0
split_gain=35.8113 43.8881
threshold=-1.3521184890451419 0.69015851333580969
decision_type=2 2
left_child=-1 -2
right_child=1 -3
leaf_value=-3.355423508666723 5.2298119928682159 -3.3004921088398977
leaf_weight=14.558714084327223 1.1113522201776498 1.2224874421954153
leaf_count=131 10 11
internal_value=0 3.6537
internal_weight=0 2.33384
internal_count=152 21
shrinkage=1


Tree=69
num_leaves=1
num_cat=0
split_feature=
split_gain=
threshold=
decision_type=
left_child=
right_child=
leaf_value=0
leaf_weight=
leaf_count=
internal_value=
internal_weight=
internal_count=
shrinkage=1


Tree=70
num_leaves=6
num_cat=0
split_feature=25 15 27 32 1
split_gain=19.8444 23.5479 17.8191 3.11297 0.490563
threshold=-0.021133889398661183 -0.0017602571238425923 0.03855133764399344 -0.016625296901518715 -1.3521184890451419
decision_type=2 2 2 2 2
left_child=2 -2 -1 4 -3
right_child=1 3 -4 -5 -6
leaf_value=0.30286080347199063 0.29638161525157292 -1.688808785766019 -1.6751291625419273 -0.88520016069239549 -1.3147688021815669
leaf_weight=25.000000000000004 9.4999999999999982 23 5.4999999999999991 7.5000000000000027 5.4999999999999991
leaf_count=50 19 46 11 15 11
internal_value=0 -0.405049 0.636661 -0.775312 -0.926445
internal_weight=0 45.5 30.5 36 28.5
internal_count=152 91 61 72 57
shrinkage=1


Tree=71
num_leaves=4
num_cat=0
split_feature=42 43 8
split_gain=27.3063 25.5947 18.8908
threshold=-0.0041797216666666663 0.73918396104761919 -0.88995318667744283
decision_type=2 2 2
left_child=1 -1 -2
right_child=2 -3 -4
leaf_value=-2.1366402420764086 0.60616861329728011 0.29478042756162393 -2.1156639881880128
leaf_weight=35.506170272827148 9.0505924224853498 4.8733959197998038 3.4809970855712882
leaf_count=102 26 14 10
internal_value=0 -0.345824 1.34095
internal_weight=0 40.3796 12.5316
internal_count=152 116 36
shrinkage=1


Tree=72
num_leaves=5
num_cat=0
split_feature=28 14 40 1
split_gain=15.7602 14.6551 21.3599 0.0191544
threshold=0.03851117721531732 0.0011844420202020204 -1.596098214285714e-07 -1.3591852569022849
decision_type=2 2 2 2
left_child=1 2 3 -1
right_child=-2 -3 -4 -5
leaf_value=0.01106414709060477 0.11963922619171408 -2.1656278499346939 -2.1572918351837296 0.44058577551970646
leaf_weight=4.0715482234954834 4.7501395940780631 31.893794417381287 7.4645050764083845 3.3929568529129028
leaf_count=12 14 94 22 10
internal_value=0 -0.252425 0.562283 1.75477
internal_weight=0 46.8228 14.929 7.46451
internal_count=152 138 44 22
shrinkage=1


Tree=73
num_leaves=2
num_cat=0
split_feature=20
split_gain=49.0848
threshold=0.0024194615277777806
decision_type=2
left_child=-1
right_child=-2
leaf_value=-3.3557241945065726 2.6447019132211786
leaf_weight=15.447795860469343 1.4447578862309445
leaf_count=139 13
internal_value=0
internal_weight=0
internal_count=152
shrinkage=1


Tree=74
num_leaves=1
num_cat=0
split_feature=
split_gain=
threshold=
decision_type=
left_child=
right_child=
leaf_value=0
leaf_weight=
leaf_count=
internal_value=
internal_weight=
internal_count=
shrinkage=1


Tree=75
num_leaves=6
num_cat=0
split_feature=25 26 26 20 5
split_gain=19.8444 25.1458 16.0173 1.84871 0.0408283
threshold=-0.021133889398661183 -0.016094328284459853 0.040141763634340279 0.00048016317824074105 8.2922178466691463
decision_type=2 2 2 2 2
left_child=2 3 -1 -2 -5
right_child=1 -3 -4 4 -6
leaf_value=0.30277949968445372 -1.1411109814649225 0.29690257068383563 -1.5113289987417635 -1.6880320910458786 -1.4753253983817274
leaf_weight=24.500000000000004 10.999999999999998 9.9999999999999982 5.9999999999999991 19.500000000000004 4.9999999999999991
leaf_count=49 22 20 12 39 10
internal_value=0 -0.405049 0.636661 -0.800281 -0.955193
internal_weight=0 45.5 30.5 35.5 24.5
internal_count=152 91 61 71 49
shrinkage=1


Tree=76
num_leaves=4
num_cat=0
split_feature=41 41 8
split_gain=27.3063 25.5947 18.8908
threshold=0.0044838241666666683 0.38676363635714289 -0.88995318667744283
decision_type=2 2 2
left_child=2 -2 -1
right_child=1 -3 -4
leaf_value=0.60616861329728011 -2.1366402420764086 0.29478042756162393 -2.1156639881880128
leaf_weight=9.0505924224853498 35.506170272827148 4.8733959197998038 3.4809970855712882
leaf_count=26 102 14 10
internal_value=0 -0.345824 1.34095
internal_weight=0 40.3796 12.5316
internal_count=152 116 36
shrinkage=1


Tree=77
num_leaves=4
num_cat=0
split_feature=27 14 20
split_gain=19.7973 14.7546 28.1017
threshold=0.03855133764399344 0.0011844420202020204 0.00048016317824074105
decision_type=2 2 2
left_child=1 2 -1
right_child=-2 -3 -4
leaf_value=-2.1585921931672467 0.49631868294593873 -2.165681188414843 0.59969569885219598
leaf_weight=8.4823921322822553 4.0715482234954825 32.572385787963867 6.4466180205345145
leaf_count=25 12 96 19
internal_value=0 -0.257931 0.562283
internal_weight=0 47.5014 14.929
internal_count=152 140 44
shrinkage=1


Tree=78
num_leaves=2
num_cat=0
split_feature=20
split_gain=49.0848
threshold=0.0024194615277777806
decision_type=2
left_child=-1
right_child=-2
leaf_value=-3.3557241945065726 2.6447019132211786
leaf_weight=15.447795860469343 1.4447578862309445
leaf_count=139 13
internal_value=0
internal_weight=0
internal_count=152
shrinkage=1


Tree=79
num_leaves=1
num_cat=0
split_feature=
split_gain=
threshold=
decision_type=
left_child=
right_child=
leaf_value=0
leaf_weight=
leaf_count=
internal_value=
internal_weight=
internal_count=
shrinkage=1


Tree=80
num_leaves=7
num_cat=0
split_feature=15 6 6 6 35 9
split_gain=21.4521 18.7492 8.3536 19.334 0.983725 0.0408283
threshold=-0.002409894289351852 -1.4281698116641899 -1.4270686083308564 -1.3927073199975231 0.0039436633333333323 8.284519846669145
decision_type=2 2 2 2 2 2
left_child=-1 -2 5 -4 -5 -3
right_child=1 2 3 4 -6 -7
leaf_value=0.3008105233675471 0.29638161525157292 -1.6880320910458786 0.29638161525157292 -1.1345886220013859 -1.6836685075741631 -1.4753253983817274
leaf_weight=16.5 9.4999999999999982 19.5 9.4999999999999982 5.5000000000000098 10.499999999999998 4.9999999999999991
leaf_count=33 19 39 19 11 21 10
internal_value=0 -0.293031 -0.538462 -0.135029 -0.806854 -0.955193
internal_weight=0 59.5 50 25.5 16 24.5
internal_count=152 119 100 51 32 49
shrinkage=1


Tree=81
num_leaves=4
num_cat=0
split_feature=2 25 37
split_gain=25.5226 19.1233 15.7218
threshold=-0.83433398750331056 -0.019792341855804006 -0.076699576479591608
decision_type=2 2 2
left_child=1 -1 -2
right_child=2 -3 -4
leaf_value=-2.1156639881880128 -0.17575043040684202 0.71185751803623654 -2.1367685590423102
leaf_weight=3.4809970855712891 4.5252962112426749 7.3100938796997053 37.594768524169922
leaf_count=10 13 21 108
internal_value=0 1.29077 -0.429298
internal_weight=0 10.7911 42.1201
internal_count=152 31 121
shrinkage=1


Tree=82
num_leaves=4
num_cat=0
split_feature=27 14 20
split_gain=19.7805 27.1669 32.3193
threshold=0.03855133764399344 0.0011844420202020204 0.00048016317824074105
decision_type=2 2 2
left_child=1 2 -1
right_child=-2 -3 -4
leaf_value=-2.1562097887346203 0.38384227226582524 -2.1655434532932434 0.75969839186833332
leaf_weight=6.7859137058258048 5.4287309646606436 30.875907361507416 8.4823921322822553
leaf_count=20 16 91 25
internal_value=0 -0.0952245 0.992662
internal_weight=0 46.1442 15.2683
internal_count=152 136 45
shrinkage=1


Tree=83
num_leaves=3
num_cat=0
split_feature=15 30
split_gain=24.1849 26.7281
threshold=-0.00066535416666666642 -0.021171351755804004
decision_type=2 2
left_child=-1 -2
right_child=1 -3
leaf_value=-3.3554630808089638 -3.2947338994269137 3.5076815100946921
leaf_weight=14.669849306344988 1.1113522201776507 1.1113522201776493
leaf_count=132 10 10
internal_value=0 2.97834
internal_weight=0 2.2227
internal_count=152 20
shrinkage=1


Tree=84
num_leaves=1
num_cat=0
split_feature=
split_gain=
threshold=
decision_type=
left_child=
right_child=
leaf_value=0
leaf_weight=
leaf_count=
internal_value=
internal_weight=
internal_count=
shrinkage=1


Tree=85
num_leaves=7
num_cat=0
split_feature=18 27 26 32 18 9
split_gain=21.4521 21.1642 8.74719 14.6427 0.972121 0.490563
threshold=-5.2234225000000007 -0.019643463924554013 -0.015473959146762995 0.039977596707332592 -1.100754875 8.2852868466691465
decision_type=2 2 2 2 2 2
left_child=-1 -2 4 -4 5 -3
right_child=1 2 3 -5 -6 -7
leaf_value=0.3008105233675471 0.29737414645427263 -1.688808785766019 0.29443045919160771 -1.6789627833968246 -1.1345886220013865 -1.3147688021815669
leaf_weight=16.5 10.499999999999998 23 7.9999999999999982 7 5.5000000000000027 5.4999999999999991
leaf_count=33 21 46 16 14 11 11
internal_value=0 -0.293031 -0.569827 0.0631229 -0.85022 -0.926445
internal_weight=0 59.5 49 15 34 28.5
internal_count=152 119 98 30 68 57
shrinkage=1


Tree=86
num_leaves=4
num_cat=0
split_feature=43 36 24
split_gain=26.8538 15.7378 5.60015
threshold=0.0087825358333333322 0.070682275904762421 -0.014071031629613531
decision_type=2 2 2
left_child=2 -2 -1
right_child=1 -3 -4
leaf_value=-0.80137907811578735 -2.1367885735875864 -0.17575043040684202 0.69850989192296287
leaf_weight=5.9176950454711914 37.942868232727051 4.5252962112426749 4.525296211242674
leaf_count=17 109 13 13
internal_value=0 -0.431062 1.35497
internal_weight=0 42.4682 10.443
internal_count=152 122 30
shrinkage=1


Tree=87
num_leaves=4
num_cat=0
split_feature=32 14 20
split_gain=22.0368 27.2662 32.3193
threshold=0.039977596707332592 0.0011844420202020204 0.00048016317824074105
decision_type=2 2 2
left_child=1 2 -1
right_child=-2 -3 -4
leaf_value=-2.1562097887346203 0.55232269461026706 -2.1655721960988901 0.75969839186833332
leaf_weight=6.7859137058258048 5.0894352793693534 31.215203046798706 8.4823921322822553
leaf_count=20 15 92 25
internal_value=0 -0.0991835 0.992662
internal_weight=0 46.4835 15.2683
internal_count=152 137 45
shrinkage=1


Tree=88
num_leaves=2
num_cat=0
split_feature=25
split_gain=46.1903
threshold=-0.01830084555818497
decision_type=2
left_child=-1
right_child=-2
leaf_value=-3.3557940516143363 2.9078208194108925
leaf_weight=15.670066304504873 1.2224874421954144
leaf_count=141 11
internal_value=0
internal_weight=0
internal_count=152
shrinkage=1


Tree=89
num_leaves=1
num_cat=0
split_feature=
split_gain=
threshold=
decision_type=
left_child=
right_child=
leaf_value=0
leaf_weight=
leaf_count=
internal_value=
internal_weight=
internal_count=
shrinkage=1


Tree=90
num_leaves=6
num_cat=0
split_feature=20 39 19 19 39
split_gain=19.5607 18.5667 19.6611 4.83375 0.513506
threshold=-0.00031169369897959256 -1.6921081123737341e-06 11.001636000000003 2.3884566666666673 -2.387063099747477e-06
decision_type=2 2 2 2 2
left_child=-1 2 3 -2 -5
right_child=1 -3 -4 4 -6
leaf_value=0.30062228984503903 -0.79811955625055298 0.29690257068383563 0.29360778632747198 -1.6895821181713537 -1.314768802181566
leaf_weight=15.999999999999998 8.9999999999999982 9.9999999999999982 7.4999999999999991 27.999999999999993 5.5000000000000062
leaf_count=32 18 20 15 56 11
internal_value=0 -0.248959 -0.498501 -0.762632 -0.937407
internal_weight=0 60 50 42.5 33.5
internal_count=152 120 100 85 67
shrinkage=1


Tree=91
num_leaves=4
num_cat=0
split_feature=41 36 37
split_gain=23.3244 20.397 17.1071
threshold=0.0044838241666666683 0.0027836025595238049 -0.076699576479591608
decision_type=2 2 2
left_child=1 -1 -2
right_child=2 -3 -4
leaf_value=-2.1194995822702229 -0.014085305873239529 0.5896260384931582 -2.1367062311546698
leaf_weight=4.177196502685546 4.177196502685546 8.0062932968139631 36.550469398498535
leaf_count=12 12 23 105
internal_value=0 1.15222 -0.421944
internal_weight=0 12.1835 40.7277
internal_count=152 35 117
shrinkage=1


Tree=92
num_leaves=4
num_cat=0
split_feature=31 13 30
split_gain=16.606 33.5839 15.7489
threshold=0.30438665590000008 -3.8486722261904762 -0.018321988772470679
decision_type=2 2 2
left_child=2 -2 -1
right_child=1 -3 -4
leaf_value=-2.1654840331678384 -2.1581946411252515 0.64772188789535723 -0.1546919816052863
leaf_weight=30.197315990924835 8.1430964469909686 8.8216878175735456 4.4108439087867728
leaf_count=89 24 26 13
internal_value=0 0.830056 -0.376148
internal_weight=0 16.9648 34.6082
internal_count=152 50 102
shrinkage=1


Tree=93
num_leaves=2
num_cat=0
split_feature=25
split_gain=56.0376
threshold=-0.01830084555818497
decision_type=2
left_child=-1
right_child=-2
leaf_value=-3.3556885091037518 2.8518092612927846
leaf_weight=15.336660638451578 1.5558931082487095
leaf_count=138 14
internal_value=0
internal_weight=0
internal_count=152
shrinkage=1


Tree=94
num_leaves=1
num_cat=0
split_feature=
split_gain=
threshold=
decision_type=
left_child=
right_child=
leaf_value=0
leaf_weight=
leaf_count=
internal_value=
internal_weight=
internal_count=
shrinkage=1


Tree=95
num_leaves=8
num_cat=0
split_feature=20 6 22 25 6 30 20
split_gain=19.5607 16.3653 11.8157 5.94156 12.187 1.23371 1.38284
threshold=-0.00031169369897959256 -1.4281698116641899 -4.3689171 -0.021133889398661183 -1.4279001933308566 -0.021139388255804005 0.0024194615277777806
decision_type=2 2 2 2 2 2 2
left_child=-1 -2 -3 4 -4 -5 -7
right_child=1 2 3 5 -6 6 -8
leaf_value=0.30062228984503903 0.29580309568314844 0.28705083924203501 -1.6778800049874261 -1.6885068093302471 0.29032389382022139 -0.96974292524079586 -1.6733452003619254
leaf_weight=15.999999999999998 8.9999999999999982 4.9999999999999991 6.5 21.499999999999993 5.9999999999999911 7.0000000000000124 5
leaf_count=32 18 10 13 43 12 14 10
internal_value=0 -0.248959 -0.469148 -0.628664 -0.0358566 -0.847988 -0.576763
internal_weight=0 60 51 46 12.5 33.5 12
internal_count=152 120 102 92 25 67 24
shrinkage=1


Tree=96
num_leaves=4
num_cat=0
split_feature=41 24 37
split_gain=23.3244 20.397 17.1071
threshold=0.0044838241666666683 -0.014152791272470674 -0.076699576479591608
decision_type=2 2 2
left_child=1 -1 -2
right_child=2 -3 -4
leaf_value=-2.1194995822702229 -0.014085305873239529 0.5896260384931582 -2.1367062311546698
leaf_weight=4.177196502685546 4.177196502685546 8.0062932968139631 36.550469398498535
leaf_count=12 12 23 105
internal_value=0 1.15222 -0.421944
internal_weight=0 12.1835 40.7277
internal_count=152 35 117
shrinkage=1


Tree=97
num_leaves=4
num_cat=0
split_feature=27 42 30
split_gain=22.1379 22.4283 16.1706
threshold=0.03855133764399344 -0.36201758488888885 -0.018321988772470679
decision_type=2 2 2
left_child=1 -1 -3
right_child=-2 2 -4
leaf_value=0.32796649782617626 0.53629376946063867 -2.1660200410735415 -0.1546919816052863
leaf_weight=4.7501395940780631 4.7501395940780631 37.661821067333221 4.4108439087867728
leaf_count=14 14 111 13
internal_value=0 -0.188422 -0.422585
internal_weight=0 46.8228 42.0727
internal_count=152 138 124
shrinkage=1


Tree=98
num_leaves=2
num_cat=0
split_feature=25
split_gain=56.0376
threshold=-0.01830084555818497
decision_type=2
left_child=-1
right_child=-2
leaf_value=-3.3556885091037518 2.8518092612927846
leaf_weight=15.336660638451578 1.5558931082487095
leaf_count=138 14
internal_value=0
internal_weight=0
internal_count=152
shrinkage=1


Tree=99
num_leaves=1
num_cat=0
split_feature=
split_gain=
threshold=
decision_type=
left_child=
right_child=
leaf_value=0
leaf_weight=
leaf_count=
internal_value=
internal_weight=
internal_count=
shrinkage=1


Tree=100
num_leaves=7
num_cat=0
split_feature=0 37 32 37 42 24
split_gain=21.4844 19.1761 15.1989 2.49672 0.642572 0.0299193
threshold=0.58017044190723854 -0.060424029499999775 0.039977596707332592 -0.0027708604166666834 -0.36201758488888885 -0.014071031629613531
decision_type=2 2 2 2 2 2
left_child=3 4 -3 -1 -2 -5
right_child=1 2 -4 5 -6 -7
leaf_value=-0.97969688816228429 -1.1807504863450693 0.3035250324184241 -1.494948982361747 -1.4753253983817269 -1.6766182549401107 -1.6865026622875199
leaf_weight=8.5000000000000018 6 30 5.4999999999999991 5.0000000000000027 5.9999999999999982 14.999999999999998
leaf_count=17 12 60 11 10 12 30
internal_value=0 0.345952 0.715893 -0.751313 -0.742739 -0.945137
internal_weight=0 47.5 35.5 28.5 12 20
internal_count=152 95 71 57 24 40
shrinkage=1


Tree=101
num_leaves=4
num_cat=0
split_feature=8 37 36
split_gain=31.4375 23.6999 5.96167
threshold=-0.93365916218828326 -0.076699576479591608 0.0028548156547619006
decision_type=2 2 2
left_child=2 -2 -1
right_child=1 -3 -4
leaf_value=0.70674085718813484 0.13407045769967696 -2.1366402420764086 -0.71676725857307644
leaf_weight=5.9176950454711896 5.2214956283569327 35.506170272827148 6.2657947540283203
leaf_count=17 15 102 18
internal_value=0 -0.348375 1.47919
internal_weight=0 40.7277 12.1835
internal_count=152 117 35
shrinkage=1


Tree=102
num_leaves=4
num_cat=0
split_feature=7 27 17
split_gain=18.7488 18.2942 11.1878
threshold=2.0221123625000001 0.03855133764399344 6.3051211666666678
decision_type=2 2 2
left_child=-1 2 -2
right_child=1 -3 -4
leaf_value=0.20131825501637102 -2.1659177311379532 0.25369141501827208 -0.70945575761365465
leaf_weight=5.4287309646606436 35.96534264087677 4.0715482234954825 6.1073223352432242
leaf_count=16 106 12 18
internal_value=0 -0.225111 -0.422585
internal_weight=0 46.1442 42.0727
internal_count=152 136 124
shrinkage=1


Tree=103
num_leaves=2
num_cat=0
split_feature=25
split_gain=58.7267
threshold=-0.01830084555818497
decision_type=2
left_child=-1
right_child=-2
leaf_value=-3.355615569133068 2.6434858070407619
leaf_weight=15.114390194416048 1.7781635522842396
leaf_count=136 16
internal_value=0
internal_weight=0
internal_count=152
shrinkage=1


Tree=104
num_leaves=1
num_cat=0
split_feature=
split_gain=
threshold=
decision_type=
left_child=
right_child=
leaf_value=0
leaf_weight=
leaf_count=
internal_value=
internal_weight=
internal_count=
shrinkage=1


Tree=105
num_leaves=6
num_cat=0
split_feature=15 25 15 4 47
split_gain=23.7547 23.7286 13.1047 2.14739 2.52586
threshold=-0.002409894289351852 -0.021133889398661183 -0.0022979854545454475 -0.66072661151573675 0.028440109166666679
decision_type=2 2 2 2 2
left_child=-1 2 -2 -3 -5
right_child=1 3 -4 4 -6
leaf_value=0.3008105233675471 -1.4949489823617466 -1.6891551645918814 0.30020830116762942 -0.81115960292019373 -1.6766182549401105
leaf_weight=16.5 5.5000000000000027 25 14.999999999999998 7.9999999999999982 6
leaf_count=33 11 50 30 16 12
internal_value=0 -0.360202 0.508516 -0.818182 -0.494662
internal_weight=0 59.5 20.5 39 14
internal_count=152 119 41 78 28
shrinkage=1


Tree=106
num_leaves=4
num_cat=0
split_feature=8 37 36
split_gain=31.4375 23.6999 5.96167
threshold=-0.93365916218828326 -0.076699576479591608 0.0028548156547619006
decision_type=2 2 2
left_child=2 -2 -1
right_child=1 -3 -4
leaf_value=0.70674085718813484 0.13407045769967696 -2.1366402420764086 -0.71676725857307644
leaf_weight=5.9176950454711896 5.2214956283569327 35.506170272827148 6.2657947540283203
leaf_count=17 15 102 18
internal_value=0 -0.348375 1.47919
internal_weight=0 40.7277 12.1835
internal_count=152 117 35
shrinkage=1


Tree=107
num_leaves=4
num_cat=0
split_feature=5 27 17
split_gain=18.7488 18.2942 11.1878
threshold=0.66199118000247659 0.03855133764399344 6.3051211666666678
decision_type=2 2 2
left_child=-1 2 -2
right_child=1 -3 -4
leaf_value=0.20131825501637102 -2.1659177311379532 0.25369141501827208 -0.70945575761365465
leaf_weight=5.4287309646606436 35.96534264087677 4.0715482234954825 6.1073223352432242
leaf_count=16 106 12 18
internal_value=0 -0.225111 -0.422585
internal_weight=0 46.1442 42.0727
internal_count=152 136 124
shrinkage=1


Tree=108
num_leaves=2
num_cat=0
split_feature=25
split_gain=58.7267
threshold=-0.01830084555818497
decision_type=2
left_child=-1
right_child=-2
leaf_value=-3.355615569133068 2.6434858070407619
leaf_weight=15.114390194416048 1.7781635522842396
leaf_count=136 16
internal_value=0
internal_weight=0
internal_count=152
shrinkage=1


Tree=109
num_leaves=1
num_cat=0
split_feature=
split_gain=
threshold=
decision_type=
left_child=
right_child=
leaf_value=0
leaf_weight=
leaf_count=
internal_value=
internal_weight=
internal_count=
shrinkage=1


Tree=110
num_leaves=8
num_cat=0
split_feature=18 28 38 28 30 37 28
split_gain=18.2883 24.5761 5.44346 7.85178 1.98004 4.67406 10.1846
threshold=-5.2234225000000007 -0.019441855001693643 5.3891933026776226e-06 -0.01678844880557338 -0.021625010855804008 -0.033547413714285726 -0.017531935551777875
decision_type=2 2 2 2 2 2 2
left_child=-1 -2 4 -4 -3 -6 -7
right_child=1 2 3 -5 5 6 -8
leaf_value=0.30042195127285209 0.2991899841910125 -1.6871048844874381 -1.4753253983817274 0.28705083924203512 -1.6836685075741635 -1.6751291625419271 0.28705083924203234
leaf_weight=15.499999999999998 12.999999999999998 16.499999999999993 5 4.9999999999999982 10.499999999999995 5.5 5.0000000000000124
leaf_count=31 26 33 10 10 21 11 10
internal_value=0 -0.22213 -0.556257 0.0945274 -0.731025 -0.52019 -0.042654
internal_weight=0 60.5 47.5 10 37.5 21 10.5
internal_count=152 121 95 20 75 42 21
shrinkage=1


Tree=111
num_leaves=4
num_cat=0
split_feature=8 26 37
split_gain=19.0235 23.2649 21.1445
threshold=-0.93365916218828326 -0.018278777823830628 -0.076699576479591608
decision_type=2 2 2
left_child=1 -1 -2
right_child=2 -3 -4
leaf_value=-2.1222504216799183 0.22247809600872581 0.7107688594161885 -2.1367273985860438
leaf_weight=4.8733959197998047 4.177196502685546 6.9619941711425763 36.898569107055664
leaf_count=14 12 20 106
internal_value=0 1.03657 -0.399514
internal_weight=0 11.8354 41.0758
internal_count=152 34 118
shrinkage=1


Tree=112
num_leaves=4
num_cat=0
split_feature=32 42 5
split_gain=21.7228 19.5686 16.7382
threshold=0.039977596707332592 -0.36201758488888885 0.66199118000247659
decision_type=2 2 2
left_child=1 -1 -3
right_child=-2 2 -4
leaf_value=0.29365367026972433 0.53629376946063867 -0.38463924463851029 -2.1659389570071239
leaf_weight=4.4108439087867728 4.7501395940780631 6.1073223352432242 36.30463832616806
leaf_count=13 14 18 107
internal_value=0 -0.167088 -0.377207
internal_weight=0 46.8228 42.412
internal_count=152 138 125
shrinkage=1


Tree=113
num_leaves=2
num_cat=0
split_feature=25
split_gain=45.3541
threshold=-0.01830084555818497
decision_type=2
left_child=-1
right_child=-2
leaf_value=-3.3556885091037518 2.2291027905658116
leaf_weight=15.336660638451578 1.5558931082487095
leaf_count=138 14
internal_value=0
internal_weight=0
internal_count=152
shrinkage=1


Tree=114
num_leaves=1
num_cat=0
split_feature=
split_gain=
threshold=
decision_type=
left_child=
right_child=
leaf_value=0
leaf_weight=
leaf_count=
internal_value=
internal_weight=
internal_count=
shrinkage=1


Tree=115
num_leaves=7
num_cat=0
split_feature=15 39 18 18 38 10
split_gain=18.2883 19.9279 16.5378 2.42424 1.72291 0.0229187
threshold=-0.002409894289351852 -1.6494907407407156e-06 -5.2234225000000007 -1.100754875 4.0285828703703141e-06 -1.4271360699975231
decision_type=2 2 2 2 2 2
left_child=-1 2 -2 4 5 -4
right_child=1 -3 3 -5 -6 -7
leaf_value=0.30042195127285209 0.29158564386753572 0.29780304568439853 -1.4949489823617477 -0.88520016069239538 -1.1296112689577353 -1.6883965867357174
leaf_weight=15.499999999999998 6.4999999999999991 10.999999999999998 5.4999999999999956 7.5000000000000062 8.9999999999999982 21
leaf_count=31 13 22 11 15 18 42
internal_value=0 -0.22213 -0.493441 -0.718931 -0.828411 -0.958569
internal_weight=0 60.5 49.5 43 35.5 26.5
internal_count=152 121 99 86 71 53
shrinkage=1


Tree=116
num_leaves=4
num_cat=0
split_feature=4 25 37
split_gain=18.0887 24.2208 21.1234
threshold=-0.90567276103278771 -0.019792341855804006 -0.076699576479591608
decision_type=2 2 2
left_child=1 -1 -2
right_child=2 -3 -4
leaf_value=-2.1233533666078777 0.22247809600872581 0.7107688594161885 -2.1367062311546698
leaf_weight=5.2214956283569336 4.177196502685546 6.9619941711425763 36.550469398498535
leaf_count=15 12 20 105
internal_value=0 0.988734 -0.397421
internal_weight=0 12.1835 40.7277
internal_count=152 35 117
shrinkage=1


Tree=117
num_leaves=4
num_cat=0
split_feature=32 15 15
split_gain=21.7228 16.4369 34.6453
threshold=0.039977596707332592 -0.0011798103472222229 -0.00098569280902777688
decision_type=2 2 2
left_child=1 -1 -3
right_child=-2 2 -4
leaf_value=-2.1653568187117607 0.53629376946063867 0.63069603826467513 -2.1601843446193829
leaf_weight=28.840133249759674 4.7501395940780631 7.8038007616996792 10.178870558738707
leaf_count=85 14 23 30
internal_value=0 -0.167088 0.580814
internal_weight=0 46.8228 17.9827
internal_count=152 138 53
shrinkage=1


Tree=118
num_leaves=2
num_cat=0
split_feature=25
split_gain=45.3541
threshold=-0.01830084555818497
decision_type=2
left_child=-1
right_child=-2
leaf_value=-3.3556885091037518 2.2291027905658116
leaf_weight=15.336660638451578 1.5558931082487095
leaf_count=138 14
internal_value=0
internal_weight=0
internal_count=152
shrinkage=1


Tree=119
num_leaves=1
num_cat=0
split_feature=
split_gain=
threshold=
decision_type=
left_child=
right_child=
leaf_value=0
leaf_weight=
leaf_count=
internal_value=
internal_weight=
internal_count=
shrinkage=1


Tree=120
num_leaves=6
num_cat=0
split_feature=39 18 26 25 20
split_gain=22.7879 25.1014 5.94156 12.187 1.79872
threshold=-1.6921081123737341e-06 -5.2234225000000007 -0.016158859614917708 -0.021624167343899273 0.00048016317824074105
decision_type=2 2 2 2 2
left_child=1 -1 4 -4 -3
right_child=-2 2 3 -5 -6
leaf_value=0.29855406425333264 0.30131265323506851 -1.1591157669473797 -1.6778800049874261 0.29032389382022017 -1.6889891764019409
leaf_weight=11.999999999999998 18 9.4999999999999982 6.5 5.9999999999999982 24
leaf_count=24 36 19 13 12 48
internal_value=0 -0.29199 -0.628664 -0.0358566 -0.847988
internal_weight=0 58 46 12.5 33.5
internal_count=152 116 92 25 67
shrinkage=1


Tree=121
num_leaves=4
num_cat=0
split_feature=37 37 24
split_gain=28.2777 18.9184 5.60415
threshold=-0.002572512083333354 -0.076699576479591608 -0.014071031629613531
decision_type=2 2 2
left_child=1 -1 -2
right_child=2 -3 -4
leaf_value=0.17659460520509729 -0.81442694759033518 -2.1368464755544827 0.7010040997539273
leaf_weight=3.8290967941284171 5.2214956283569336 38.987167358398438 4.8733959197998029
leaf_count=11 15 112 14
internal_value=0 -0.432796 1.42359
internal_weight=0 42.8163 10.0949
internal_count=152 123 29
shrinkage=1


Tree=122
num_leaves=4
num_cat=0
split_feature=27 42 30
split_gain=21.7228 21.7713 26.4358
threshold=0.03855133764399344 -0.36201758488888885 -0.018321988772470679
decision_type=2 2 2
left_child=1 -1 -3
right_child=-2 2 -4
leaf_value=0.49631868294593873 0.53629376946063867 -2.1660771248094797 0.49631868294593873
leaf_weight=4.0715482234954825 4.7501395940780631 38.679708123207092 4.0715482234954825
leaf_count=12 14 114 12
internal_value=0 -0.167088 -0.379275
internal_weight=0 46.8228 42.7513
internal_count=152 138 126
shrinkage=1


Tree=123
num_leaves=2
num_cat=0
split_feature=20
split_gain=56.0376
threshold=0.0024194615277777806
decision_type=2
left_child=-1
right_child=-2
leaf_value=-3.3556885091037518 2.8518092612927846
leaf_weight=15.336660638451578 1.5558931082487095
leaf_count=138 14
internal_value=0
internal_weight=0
internal_count=152
shrinkage=1


Tree=124
num_leaves=1
num_cat=0
split_feature=
split_gain=
threshold=
decision_type=
left_child=
right_child=
leaf_value=0
leaf_weight=
leaf_count=
internal_value=
internal_weight=
internal_count=
shrinkage=1


Tree=125
num_leaves=7
num_cat=0
split_feature=39 18 32 25 17 8
split_gain=22.7879 25.1014 5.94156 12.187 1.13218 0.490563
threshold=-1.6921081123737341e-06 -5.2234225000000007 -0.016368813877503271 -0.021624167343899273 1.0442699583333332 0.28904924086409622
decision_type=2 2 2 2 2 2
left_child=1 -1 4 -4 -3 -6
right_child=-2 2 3 -5 5 -7
leaf_value=0.29855406425333264 0.30131265323506851 -1.0792857944213314 -1.6778800049874261 0.29032389382022017 -1.6888087857660188 -1.3147688021815669
leaf_weight=11.999999999999998 18 4.9999999999999991 6.5 5.9999999999999982 23.000000000000004 5.4999999999999991
leaf_count=24 36 10 13 12 46 11
internal_value=0 -0.29199 -0.628664 -0.0358566 -0.847988 -0.926445
internal_weight=0 58 46 12.5 33.5 28.5
internal_count=152 116 92 25 67 57
shrinkage=1


Tree=126
num_leaves=4
num_cat=0
split_feature=37 37 24
split_gain=28.2777 18.9184 5.60415
threshold=-0.002572512083333354 -0.076699576479591608 -0.014071031629613531
decision_type=2 2 2
left_child=1 -1 -2
right_child=2 -3 -4
leaf_value=0.17659460520509729 -0.81442694759033518 -2.1368464755544827 0.7010040997539273
leaf_weight=3.8290967941284171 5.2214956283569336 38.987167358398438 4.8733959197998029
leaf_count=11 15 112 14
internal_value=0 -0.432796 1.42359
internal_weight=0 42.8163 10.0949
internal_count=152 123 29
shrinkage=1


Tree=127
num_leaves=5
num_cat=0
split_feature=26 30 37 3
split_gain=19.4808 21.7184 13.2007 15.7547
threshold=0.040141763634340279 -0.018321988772470679 -0.060424029499999775 0.29338440382462172
decision_type=2 2 2 2
left_child=1 2 3 -1
right_child=-2 -3 -4 -5
leaf_value=0.73534476018141892 0.35774879091446121 0.49631868294593873 -2.1658515841466395 -2.1465357398611635
leaf_weight=3.7322525382041922 5.0894352793693534 4.0715482234954825 34.947455585002899 3.7322525382041931
leaf_count=11 15 12 103 11
internal_value=0 -0.163653 -0.377207 0.823237
internal_weight=0 46.4835 42.412 7.46451
internal_count=152 137 125 22
shrinkage=1


Tree=128
num_leaves=2
num_cat=0
split_feature=25
split_gain=72.2768
threshold=-0.01830084555818497
decision_type=2
left_child=-1
right_child=-2
leaf_value=-3.3557940516143363 4.4795456107801925
leaf_weight=15.670066304504873 1.2224874421954144
leaf_count=141 11
internal_value=0
internal_weight=0
internal_count=152
shrinkage=1


Tree=129
num_leaves=1
num_cat=0
split_feature=
split_gain=
threshold=
decision_type=
left_child=
right_child=
leaf_value=0
leaf_weight=
leaf_count=
internal_value=
internal_weight=
internal_count=
shrinkage=1


Tree=130
num_leaves=6
num_cat=0
split_feature=1 15 19 28 15
split_gain=20.731 18.0927 17.2231 9.2005 1.47912
threshold=-1.4203789090451433 -0.0017602571238425923 2.3577117916666674 0.03851117721531732 -0.00098569280902777688
decision_type=2 2 2 2 2
left_child=3 -2 -3 -1 -4
right_child=1 2 4 -5 -6
leaf_value=0.30231767204776427 0.29443045919160749 0.28883480142203677 -1.6898193935383148 -1.1345886220013868 -1.0792857944213312
leaf_weight=22.000000000000004 7.9999999999999991 5.4999999999999991 29.999999999999996 5.4999999999999991 5.0000000000000027
leaf_count=44 16 11 60 11 10
internal_value=0 -0.380021 -0.652281 0.705989 -0.911555
internal_weight=0 48.5 40.5 27.5 35
internal_count=152 97 81 55 70
shrinkage=1


Tree=131
num_leaves=4
num_cat=0
split_feature=41 41 8
split_gain=29.7435 21.6287 3.93693
threshold=0.0044838241666666683 0.38676363635714289 -1.1212569460825932
decision_type=2 2 2
left_child=2 -2 -1
right_child=1 -3 -4
leaf_value=0.69850989192296198 -2.1367481708949083 0.091668591465472682 -0.55843405997427409
leaf_weight=4.5252962112426758 37.246668815612793 4.8733959197998038 6.2657947540283185
leaf_count=13 107 14 18
internal_value=0 -0.381871 1.47525
internal_weight=0 42.1201 10.7911
internal_count=152 121 31
shrinkage=1


Tree=132
num_leaves=5
num_cat=0
split_feature=30 33 41 33
split_gain=24.0669 14.1591 16.9784 4.44086
threshold=-0.018321988772470679 0.022195892894196 0.017836725416666675 0.042629956227529332
decision_type=2 2 2 2
left_child=1 -1 -3 -4
right_child=-2 2 3 -5
leaf_value=-2.1654218857023224 0.40689231426243166 -2.1567763954419314 0.73534476018141937 -0.71130183123090041
leaf_weight=29.518724620342255 5.7680266499519339 7.1252093911170986 3.7322525382041913 5.4287309646606445
leaf_count=87 17 21 11 16
internal_value=0 -0.222054 0.523763 1.4226
internal_weight=0 45.8049 16.2862 9.16098
internal_count=152 135 48 27
shrinkage=1


Tree=133
num_leaves=2
num_cat=0
split_feature=20
split_gain=38.9939
threshold=0.0024194615277777806
decision_type=2
left_child=-1
right_child=-2
leaf_value=-3.3558282445716339 2.6466162687079282
leaf_weight=15.781201526522638 1.1113522201776493
leaf_count=142 10
internal_value=0
internal_weight=0
internal_count=152
shrinkage=1


Tree=134
num_leaves=1
num_cat=0
split_feature=
split_gain=
threshold=
decision_type=
left_child=
right_child=
leaf_value=0
leaf_weight=
leaf_count=
internal_value=
internal_weight=
internal_count=
shrinkage=1


Tree=135
num_leaves=7
num_cat=0
split_feature=1 27 26 27 2 0
split_gain=20.731 16.7444 15.019 10.3422 0.65454 2.62457
threshold=-1.4203789090451433 -0.019643463924554013 -0.016094328284459853 0.03855133764399344 -0.80410101530944433 8.28344920381201
decision_type=2 2 2 2 2 2
left_child=3 -2 4 -1 -3 -6
right_child=1 2 -4 -5 5 -7
leaf_value=0.30241822963961107 0.29360778632747198 -1.6878978367279243 0.28705083924203501 -1.2773055964015296 -0.85017197394837496 -1.6840974068042891
leaf_weight=22.500000000000004 7.4999999999999991 19 4.9999999999999991 4.9999999999999991 6.0000000000000027 10.999999999999998
leaf_count=45 15 38 10 10 12 22
internal_value=0 -0.380021 -0.632156 0.705989 -0.85853 -0.70088
internal_weight=0 48.5 41 27.5 36 17
internal_count=152 97 82 55 72 34
shrinkage=1


Tree=136
num_leaves=4
num_cat=0
split_feature=37 37 24
split_gain=28.2521 21.6044 4.6285
threshold=-0.002572512083333354 -0.076699576479591608 -0.014071031629613531
decision_type=2 2 2
left_child=1 -1 -2
right_child=2 -3 -4
leaf_value=0.091668591465472682 -0.64099511975720547 -2.1367273985860438 0.69850989192296287
leaf_weight=4.8733959197998038 6.6138944625854492 36.898569107055664 4.525296211242674
leaf_count=14 19 106 13
internal_value=0 -0.379684 1.4093
internal_weight=0 41.772 11.1392
internal_count=152 120 32
shrinkage=1


Tree=137
num_leaves=5
num_cat=0
split_feature=30 33 41 33
split_gain=24.0669 14.1591 16.9784 4.44086
threshold=-0.018321988772470679 0.022195892894196 0.017836725416666675 0.042629956227529332
decision_type=2 2 2 2
left_child=1 -1 -3 -4
right_child=-2 2 3 -5
leaf_value=-2.1654218857023224 0.40689231426243166 -2.1567763954419314 0.73534476018141937 -0.71130183123090041
leaf_weight=29.518724620342255 5.7680266499519339 7.1252093911170986 3.7322525382041913 5.4287309646606445
leaf_count=87 17 21 11 16
internal_value=0 -0.222054 0.523763 1.4226
internal_weight=0 45.8049 16.2862 9.16098
internal_count=152 135 48 27
shrinkage=1


Tree=138
num_leaves=2
num_cat=0
split_feature=1
split_gain=25.4306
threshold=-1.3521184890451419
decision_type=2
left_child=-1
right_child=-2
leaf_value=-3.3556523044513398 0.70250006683695387
leaf_weight=15.225525416433813 1.6670283302664746
leaf_count=137 15
internal_value=0
internal_weight=0
internal_count=152
shrinkage=1


Tree=139
num_leaves=1
num_cat=0
split_feature=
split_gain=
threshold=
decision_type=
left_child=
right_child=
leaf_value=0
leaf_weight=
leaf_count=
internal_value=
internal_weight=
internal_count=
shrinkage=1


Tree=140
num_leaves=6
num_cat=0
split_feature=5 29 19 37 16
split_gain=21.8543 17.0974 15.6542 5.8217 0.922155
threshold=1.0863278466691435 0.28298295789419609 11.001636000000003 -0.0027708604166666834 1.0000000180025095e-35
decision_type=2 2 2 2 2
left_child=3 -2 4 -1 -3
right_child=1 2 -4 -5 -6
leaf_value=-0.69314718055994529 0.30328775705146283 -1.1345886220013865 0.29360778632747198 -1.687282077920649 -1.6820974568030391
leaf_weight=9.0000000000000018 28 5.5000000000000027 7.4999999999999991 17 8.9999999999999982
leaf_count=18 56 11 15 34 18
internal_value=0 0.478521 -0.179138 -0.650672 -0.786942
internal_weight=0 50 22 26 14.5
internal_count=152 100 44 52 29
shrinkage=1


Tree=141
num_leaves=4
num_cat=0
split_feature=37 2 37
split_gain=27.83 21.0384 14.881
threshold=-0.002572512083333354 -0.80410101530944433 -0.076699576479591608
decision_type=2 2 2
left_child=2 -2 -1
right_child=1 -3 -4
leaf_value=-0.081197359824619397 0.71375259995962215 -2.1177538831752405 -2.1367481708949083
leaf_weight=3.8290967941284171 8.0062932968139631 3.8290967941284171 37.246668815612793
leaf_count=11 23 11 107
internal_value=0 1.28898 -0.448145
internal_weight=0 11.8354 41.0758
internal_count=152 34 118
shrinkage=1


Tree=142
num_leaves=4
num_cat=0
split_feature=27 31 42
split_gain=15.4925 15.9495 16.9977
threshold=0.03855133764399344 0.0058094618333333356 -0.36201758488888885
decision_type=2 2 2
left_child=1 -1 -3
right_child=-2 2 -4
leaf_value=-0.16372977948253742 0.25369141501827208 0.15013776010156654 -2.1660771248094797
leaf_weight=5.4287309646606436 4.0715482234954825 3.3929568529129019 38.679708123207092
leaf_count=16 12 10 114
internal_value=0 -0.236901 -0.446325
internal_weight=0 47.5014 42.0727
internal_count=152 140 124
shrinkage=1


Tree=143
num_leaves=2
num_cat=0
split_feature=25
split_gain=45.3541
threshold=-0.01830084555818497
decision_type=2
left_child=-1
right_child=-2
leaf_value=-3.3556885091037518 2.2291027905658116
leaf_weight=15.336660638451578 1.5558931082487095
leaf_count=138 14
internal_value=0
internal_weight=0
internal_count=152
shrinkage=1


Tree=144
num_leaves=1
num_cat=0
split_feature=
split_gain=
threshold=
decision_type=
left_child=
right_child=
leaf_value=0
leaf_weight=
leaf_count=
internal_value=
internal_weight=
internal_count=
shrinkage=1


Tree=145
num_leaves=6
num_cat=0
split_feature=5 31 25 37 20
split_gain=21.8543 17.0974 15.6542 5.8217 0.657937
threshold=1.0863278466691435 0.30438665590000008 -0.021110267170089743 -0.0027708604166666834 0.00051381342939814899
decision_type=2 2 2 2 2
left_child=3 -2 4 -1 -3
right_child=1 2 -4 -5 -6
leaf_value=-0.69314718055994529 0.30328775705146283 -1.2198647378118535 0.29360778632747198 -1.687282077920649 -1.6807248203114979
leaf_weight=9.0000000000000018 28 6.5000000000000027 7.4999999999999991 17 7.9999999999999991
leaf_count=18 56 13 15 34 16
internal_value=0 0.478521 -0.179138 -0.650672 -0.786942
internal_weight=0 50 22 26 14.5
internal_count=152 100 44 52 29
shrinkage=1


Tree=146
num_leaves=4
num_cat=0
split_feature=37 2 37
split_gain=27.83 21.0384 14.881
threshold=-0.002572512083333354 -0.80410101530944433 -0.076699576479591608
decision_type=2 2 2
left_child=2 -2 -1
right_child=1 -3 -4
leaf_value=-0.081197359824619397 0.71375259995962215 -2.1177538831752405 -2.1367481708949083
leaf_weight=3.8290967941284171 8.0062932968139631 3.8290967941284171 37.246668815612793
leaf_count=11 23 11 107
internal_value=0 1.28898 -0.448145
internal_weight=0 11.8354 41.0758
internal_count=152 34 118
shrinkage=1


Tree=147
num_leaves=4
num_cat=0
split_feature=27 30 42
split_gain=15.4925 17.3904 17.0101
threshold=0.03855133764399344 -0.018321988772470679 -0.36201758488888885
decision_type=2 2 2
left_child=1 2 -1
right_child=-2 -3 -4
leaf_value=0.15013776010156654 0.25369141501827208 -0.031399016477150044 -2.1660954917280573
leaf_weight=3.3929568529129019 4.0715482234954825 5.0894352793693534 39.019003808498383
leaf_count=10 12 15 115
internal_value=0 -0.236901 -0.447858
internal_weight=0 47.5014 42.412
internal_count=152 140 125
shrinkage=1


Tree=148
num_leaves=2
num_cat=0
split_feature=25
split_gain=45.3541
threshold=-0.01830084555818497
decision_type=2
left_child=-1
right_child=-2
leaf_value=-3.3556885091037518 2.2291027905658116
leaf_weight=15.336660638451578 1.5558931082487095
leaf_count=138 14
internal_value=0
internal_weight=0
internal_count=152
shrinkage=1


Tree=149
num_leaves=1
num_cat=0
split_feature=
split_gain=
threshold=
decision_type=
left_child=
right_child=
leaf_value=0
leaf_weight=
leaf_count=
internal_value=
internal_weight=
internal_count=
shrinkage=1


Tree=150
num_leaves=6
num_cat=0
split_feature=18 28 39 45 18
split_gain=20.8947 24.3288 15.74 4.56204 0.456928
threshold=-5.2234225000000007 -0.019441855001693643 -7.5064737136994975e-06 0.01042971 -1.100754875
decision_type=2 2 2 2 2
left_child=-1 -2 -3 4 -4
right_child=1 2 3 -5 -6
leaf_value=0.3008105233675471 0.29855406425333264 0.28883480142203677 -1.6898193935383148 -0.69314718055994529 -1.3460397425434161
leaf_weight=16.5 11.999999999999998 5.4999999999999991 29.999999999999996 5.9999999999999991 6.0000000000000027
leaf_count=33 24 11 60 12 12
internal_value=0 -0.276238 -0.598318 -0.807372 -0.941748
internal_weight=0 59.5 47.5 42 36
internal_count=152 119 95 84 72
shrinkage=1


Tree=151
num_leaves=4
num_cat=0
split_feature=37 37 41
split_gain=36.5145 22.3766 7.57053
threshold=-0.002572512083333354 -0.0024338270833333549 0.37245185958333343
decision_type=2 2 2
left_child=2 -2 -1
right_child=1 -3 -4
leaf_value=-2.1366173758111762 0.71731192353569884 -2.1177538831752405 -0.72377551151913511
leaf_weight=35.15807056427002 9.7467918395996076 3.8290967941284171 4.177196502685546
leaf_count=101 28 11 12
internal_value=0 1.40894 -0.490241
internal_weight=0 13.5759 39.3353
internal_count=152 39 113
shrinkage=1


Tree=152
num_leaves=4
num_cat=0
split_feature=32 14 30
split_gain=20.8372 15.5246 22.3703
threshold=0.039977596707332592 0.0011844420202020204 -0.021160886555804007
decision_type=2 2 2
left_child=1 2 -1
right_child=-2 -3 -4
leaf_value=-2.1567763954419314 0.2350127328742817 -2.1656003217575903 0.33792428241414418
leaf_weight=7.1252093911170959 5.7680266499519339 31.554498732089996 7.1252093911170942
leaf_count=21 17 93 21
internal_value=0 -0.243862 0.619248
internal_weight=0 45.8049 14.2504
internal_count=152 135 42
shrinkage=1


Tree=153
num_leaves=2
num_cat=0
split_feature=20
split_gain=60.6458
threshold=0.0024194615277777806
decision_type=2
left_child=-1
right_child=-2
leaf_value=-3.3557241945065726 3.3137065988722019
leaf_weight=15.447795860469343 1.4447578862309445
leaf_count=139 13
internal_value=0
internal_weight=0
internal_count=152
shrinkage=1


Tree=154
num_leaves=1
num_cat=0
split_feature=
split_gain=
threshold=
decision_type=
left_child=
right_child=
leaf_value=0
leaf_weight=
leaf_count=
internal_value=
internal_weight=
internal_count=
shrinkage=1


Tree=155
num_leaves=6
num_cat=0
split_feature=18 39 39 1 11
split_gain=20.8947 21.8269 16.6277 1.90154 0.748958
threshold=-5.2234225000000007 -1.6921081123737341e-06 -7.5064737136994975e-06 -1.4203789090451433 1.7871014583333333
decision_type=2 2 2 2 2
left_child=-1 2 -2 -4 -5
right_child=1 -3 3 4 -6
leaf_value=0.3008105233675471 0.29032389382022006 0.29780304568439853 -1.086182006430592 -1.308054012858082 -1.6890738608043443
leaf_weight=16.5 5.9999999999999991 10.999999999999998 9.9999999999999982 7.9999999999999991 24.5
leaf_count=33 12 22 20 16 49
internal_value=0 -0.276238 -0.565396 -0.786134 -0.904762
internal_weight=0 59.5 48.5 42.5 32.5
internal_count=152 119 97 85 65
shrinkage=1


Tree=156
num_leaves=4
num_cat=0
split_feature=37 36 36
split_gain=36.5145 22.3766 9.23973
threshold=-0.002572512083333354 0.0027836025595238049 0.070682275904762421
decision_type=2 2 2
left_child=2 -2 -1
right_child=1 -3 -4
leaf_value=-2.1366626649548088 -2.1177538831752405 0.71731192353569884 -0.44474787933530391
leaf_weight=35.854269981384277 3.8290967941284171 9.7467918395996076 3.4809970855712882
leaf_count=103 11 28 10
internal_value=0 1.40894 -0.490241
internal_weight=0 13.5759 39.3353
internal_count=152 39 113
shrinkage=1


Tree=157
num_leaves=4
num_cat=0
split_feature=27 14 20
split_gain=19.0388 15.4715 27.0774
threshold=0.03855133764399344 0.0011844420202020204 0.00048016317824074105
decision_type=2 2 2
left_child=1 2 -1
right_child=-2 -3 -4
leaf_value=-2.1577627394233607 0.10258552482420624 -2.1655721960988901 0.59969569885219554
leaf_weight=7.8038007616996747 6.1073223352432242 31.215203046798706 6.4466180205345154
leaf_count=23 18 92 19
internal_value=0 -0.240923 0.619248
internal_weight=0 45.4656 14.2504
internal_count=152 134 42
shrinkage=1


Tree=158
num_leaves=2
num_cat=0
split_feature=25
split_gain=52.026
threshold=-0.01830084555818497
decision_type=2
left_child=-1
right_child=-2
leaf_value=-3.3556523044513398 2.4497048371515935
leaf_weight=15.225525416433813 1.6670283302664746
leaf_count=137 15
internal_value=0
internal_weight=0
internal_count=152
shrinkage=1


Tree=159
num_leaves=1
num_cat=0
split_feature=
split_gain=
threshold=
decision_type=
left_child=
right_child=
leaf_value=0
leaf_weight=
leaf_count=
internal_value=
internal_weight=
internal_count=
shrinkage=1


Tree=160
num_leaves=6
num_cat=0
split_feature=20 10 1 26 14
split_gain=16.7755 20.3661 19.8671 2.59225 1.18249
threshold=0.00048016317824074105 -1.4275252933308564 -1.4203789090451433 0.040141763634340279 0.002552476826388891
decision_type=2 2 2 2 2
left_child=1 3 -2 -1 -4
right_child=2 -3 4 -5 -6
leaf_value=-0.79811955625055298 0.29360778632747153 0.3035250324184241 -1.6877563449804303 -1.6751291625419273 -1.1345886220013868
leaf_weight=8.9999999999999982 7.5000000000000027 30 18.500000000000004 5.4999999999999991 5.4999999999999991
leaf_count=18 15 60 37 11 11
internal_value=0 0.526375 -0.426307 -0.443299 -0.871102
internal_weight=0 44.5 31.5 14.5 24
internal_count=152 89 63 29 48
shrinkage=1


Tree=161
num_leaves=4
num_cat=0
split_feature=42 43 2
split_gain=19.9934 17.2056 3.94549
threshold=-0.0041797216666666663 0.73918396104761919 -0.84929299849636608
decision_type=2 2 2
left_child=1 -1 -2
right_child=2 -3 -4
leaf_value=-2.136827522208983 0.43438657023481353 -0.014085305873239529 -0.87510045717187845
leaf_weight=38.639067649841309 3.829096794128418 4.177196502685546 6.2657947540283185
leaf_count=111 11 12 18
internal_value=0 -0.432796 1.12787
internal_weight=0 42.8163 10.0949
internal_count=152 123 29
shrinkage=1


Tree=162
num_leaves=5
num_cat=0
split_feature=32 31 37 8
split_gain=16.9069 15.4884 9.31316 12.1059
threshold=0.039977596707332592 0.0058094618333333356 -0.060424029499999775 0.30814992800517765
decision_type=2 2 2 2
left_child=1 -1 3 -3
right_child=-2 2 -4 -5
leaf_value=-0.16372977948253742 0.29365367026972433 0.4405857755197069 -2.1658286717304027 -2.1465357398611635
leaf_weight=5.4287309646606436 4.4108439087867728 3.3929568529129019 34.608159899711609 3.7322525382041931
leaf_count=16 13 10 102 11
internal_value=0 -0.212836 -0.420834 0.613607
internal_weight=0 47.1621 41.7334 7.12521
internal_count=152 139 123 21
shrinkage=1


Tree=163
num_leaves=2
num_cat=0
split_feature=25
split_gain=46.1903
threshold=-0.01830084555818497
decision_type=2
left_child=-1
right_child=-2
leaf_value=-3.3557940516143363 2.9078208194108925
leaf_weight=15.670066304504873 1.2224874421954144
leaf_count=141 11
internal_value=0
internal_weight=0
internal_count=152
shrinkage=1


Tree=164
num_leaves=1
num_cat=0
split_feature=
split_gain=
threshold=
decision_type=
left_child=
right_child=
leaf_value=0
leaf_weight=
leaf_count=
internal_value=
internal_weight=
internal_count=
shrinkage=1


Tree=165
num_leaves=7
num_cat=0
split_feature=39 19 20 17 26 25
split_gain=16.9967 20.0457 14.0229 5.38405 1.3024 0.039817
threshold=-1.6921081123737341e-06 11.001636000000003 -0.00031169369897959256 1.0442699583333332 -0.016158859614917708 -0.021125775770089745
decision_type=2 2 2 2 2 2
left_child=1 2 -1 -4 5 -5
right_child=-2 -3 3 4 -6 -7
leaf_value=0.29032389382022006 0.30115481374204889 0.29888469195001477 -0.64051560161257681 -1.4753253983817274 -1.150100822944051 -1.687897836727924
leaf_weight=5.9999999999999991 17.5 12.499999999999998 8.4999999999999982 4.9999999999999991 7.5000000000000027 19.000000000000004
leaf_count=12 35 25 17 10 15 38
internal_value=0 -0.127242 -0.433225 -0.64794 -0.838352 -0.954262
internal_weight=0 58.5 46 40 31.5 24
internal_count=152 117 92 80 63 48
shrinkage=1


Tree=166
num_leaves=4
num_cat=0
split_feature=37 37 37
split_gain=19.9934 19.241 17.2056
threshold=-0.002572512083333354 -0.0024338270833333549 -0.076699576479591608
decision_type=2 2 2
left_child=2 -2 -1
right_child=1 -3 -4
leaf_value=-0.014085305873239529 0.70823152881614271 -2.1177538831752405 -2.136827522208983
leaf_weight=4.177196502685546 6.2657947540283203 3.8290967941284162 38.639067649841309
leaf_count=12 18 11 111
internal_value=0 1.12787 -0.432796
internal_weight=0 10.0949 42.8163
internal_count=152 29 123
shrinkage=1


Tree=167
num_leaves=5
num_cat=0
split_feature=32 30 5 5
split_gain=16.9069 18.5687 8.83704 12.6134
threshold=0.039977596707332592 -0.018321988772470679 8.336691346669145 8.3415623466691446
decision_type=2 2 2 2
left_child=1 2 -1 -4
right_child=-2 -3 3 -5
leaf_value=-2.1658515841466395 0.29365367026972433 0.11963922619171408 0.4405857755197069 -2.1483185371040889
leaf_weight=34.947455585002899 4.4108439087867728 4.7501395940780631 3.3929568529129019 4.0715482234954834
leaf_count=103 13 14 10 12
internal_value=0 -0.212836 -0.424308 0.557085
internal_weight=0 47.1621 42.412 7.46451
internal_count=152 139 125 22
shrinkage=1


Tree=168
num_leaves=2
num_cat=0
split_feature=6
split_gain=33.245
threshold=-1.3559044658308566
decision_type=2
left_child=-1
right_child=-2
leaf_value=-3.3556523044513398 1.2849016569418334
leaf_weight=15.225525416433813 1.6670283302664746
leaf_count=137 15
internal_value=0
internal_weight=0
internal_count=152
shrinkage=1


Tree=169
num_leaves=1
num_cat=0
split_feature=
split_gain=
threshold=
decision_type=
left_child=
right_child=
leaf_value=0
leaf_weight=
leaf_count=
internal_value=
internal_weight=
internal_count=
shrinkage=1


Tree=170
num_leaves=7
num_cat=0
split_feature=20 25 22 32 14 24
split_gain=17.6388 19.4665 12.7215 5.39512 12.0357 1.76189
threshold=-0.00031169369897959256 -0.02162567877247069 -4.3689171 -0.016485475252806126 0.0021997251838333444 -0.014071031629613531
decision_type=2 2 2 2 2 2
left_child=-1 -2 -3 5 -5 -4
right_child=1 2 3 4 -6 -7
leaf_value=0.2991899841910125 0.29690257068383563 0.28705083924203501 -1.1115868968720024 0.28883480142203688 -1.6789627833968246 -1.6896445535897173
leaf_weight=12.999999999999998 9.9999999999999982 4.9999999999999991 6.999999999999992 5.4999999999999982 7 28.500000000000007
leaf_count=26 20 10 14 11 14 57
internal_value=0 -0.284695 -0.526861 -0.685744 -0.115538 -0.884669
internal_weight=0 63 53 48 12.5 35.5
internal_count=152 126 106 96 25 71
shrinkage=1


Tree=171
num_leaves=4
num_cat=0
split_feature=41 37 8
split_gain=37.9221 16.4867 4.63491
threshold=0.0044838241666666683 -0.076699576479591608 -1.0692667420817934
decision_type=2 2 2
left_child=2 -2 -1
right_child=1 -3 -4
leaf_value=0.7067408571881344 0.12166436109680401 -2.1367481708949083 -0.55843405997427409
leaf_weight=5.9176950454711914 3.4809970855712882 37.246668815612793 6.2657947540283185
leaf_count=17 10 107 18
internal_value=0 -0.446468 1.56093
internal_weight=0 40.7277 12.1835
internal_count=152 117 35
shrinkage=1


Tree=172
num_leaves=4
num_cat=0
split_feature=27 30 0
split_gain=23.3526 24.3465 10.4714
threshold=0.03855133764399344 -0.018321988772470679 8.3066395609548636
decision_type=2 2 2
left_child=1 2 -1
right_child=-2 -3 -4
leaf_value=-2.1658515841466395 0.55232269461026706 0.35774879091446121 -0.78564046181514535
leaf_weight=34.947455585002899 5.0894352793693534 5.0894352793693534 6.4466180205345145
leaf_count=103 15 15 19
internal_value=0 -0.163653 -0.419054
internal_weight=0 46.4835 41.3941
internal_count=152 137 122
shrinkage=1


Tree=173
num_leaves=2
num_cat=0
split_feature=25
split_gain=65.9942
threshold=-0.01830084555818497
decision_type=2
left_child=-1
right_child=-2
leaf_value=-3.3557593717509362 3.8498048938210112
leaf_weight=15.558931082487108 1.3336226642131794
leaf_count=140 12
internal_value=0
internal_weight=0
internal_count=152
shrinkage=1


Tree=174
num_leaves=1
num_cat=0
split_feature=
split_gain=
threshold=
decision_type=
left_child=
right_child=
leaf_value=0
leaf_weight=
leaf_count=
internal_value=
internal_weight=
internal_count=
shrinkage=1


Tree=175
num_leaves=6
num_cat=0
split_feature=6 20 10 20 25
split_gain=20.1748 19.3067 5.99219 14.699 5.75951
threshold=-1.4281698116641899 -0.00031169369897959256 -1.4256260533308565 0.00048016317824074105 -0.018868045953091557
decision_type=2 2 2 2 2
left_child=-1 -2 -3 -4 -5
right_child=1 2 3 4 -6
leaf_value=0.29997996720637765 0.29638161525157292 -1.6880320910458786 0.29266842227693424 -0.69314718055994529 -1.6871048844874372
leaf_weight=14.499999999999998 9.4999999999999982 19.5 6.9999999999999991 8.9999999999999947 16.500000000000007
leaf_count=29 19 39 14 18 33
internal_value=0 -0.316003 -0.556196 -0.290323 -0.643836
internal_weight=0 61.5 52 32.5 25.5
internal_count=152 123 104 65 51
shrinkage=1


Tree=176
num_leaves=4
num_cat=0
split_feature=43 43 24
split_gain=36.2894 16.4729 5.45731
threshold=0.0087825358333333322 0.73918396104761919 -0.014071031629613531
decision_type=2 2 2
left_child=2 -2 -1
right_child=1 -3 -4
leaf_value=-0.64099511975720547 -2.1367273985860438 0.12166436109680401 0.70674085718813484
leaf_weight=6.6138944625854492 36.898569107055664 3.4809970855712882 5.9176950454711896
leaf_count=19 106 10 17
internal_value=0 -0.444761 1.49991
internal_weight=0 40.3796 12.5316
internal_count=152 116 36
shrinkage=1


Tree=177
num_leaves=4
num_cat=0
split_feature=28 31 42
split_gain=23.3526 20.5549 21.4521
threshold=0.03851117721531732 0.0058094618333333356 -0.36201758488888885
decision_type=2 2 2
left_child=1 -1 -3
right_child=-2 2 -4
leaf_value=0.063133151486131744 0.55232269461026706 0.4405857755197069 -2.1660003221632023
leaf_weight=5.7680266499519339 5.0894352793693534 3.3929568529129019 37.322525382041931
leaf_count=17 15 10 110
internal_value=0 -0.163653 -0.415407
internal_weight=0 46.4835 40.7155
internal_count=152 137 120
shrinkage=1


Tree=178
num_leaves=2
num_cat=0
split_feature=25
split_gain=65.9942
threshold=-0.01830084555818497
decision_type=2
left_child=-1
right_child=-2
leaf_value=-3.3557593717509362 3.8498048938210112
leaf_weight=15.558931082487108 1.3336226642131794
leaf_count=140 12
internal_value=0
internal_weight=0
internal_count=152
shrinkage=1


Tree=179
num_leaves=1
num_cat=0
split_feature=
split_gain=
threshold=
decision_type=
left_child=
right_child=
leaf_value=0
leaf_weight=
leaf_count=
internal_value=
internal_weight=
internal_count=
shrinkage=1


Tree=180
num_leaves=6
num_cat=0
split_feature=18 26 15 26 6
split_gain=20.0317 24.0843 21.8383 1.3111 0.0510184
threshold=-5.2234225000000007 -0.018278777823830628 -0.002409894289351852 -1.0000000180025095e-35 -1.3559044658308566
decision_type=2 2 2 2 2
left_child=-1 -2 -3 4 -4
right_child=1 2 3 -5 -6
leaf_value=0.30098771680075842 0.29888469195001477 0.29360778632747198 -1.6893084089668551 -1.1838304103736097 -1.4753253983817274
leaf_weight=17 12.499999999999998 7.4999999999999991 26 8.0000000000000018 4.9999999999999991
leaf_count=34 25 15 52 16 10
internal_value=0 -0.23624 -0.568206 -0.869398 -0.964573
internal_weight=0 59 46.5 39 31
internal_count=152 118 93 78 62
shrinkage=1


Tree=181
num_leaves=4
num_cat=0
split_feature=41 41 42
split_gain=36.6095 9.25604 3.34643
threshold=0.0044838241666666683 0.37245185958333343 -0.0040427020833333303
decision_type=2 2 2
left_child=2 -2 -1
right_child=1 -3 -4
leaf_value=0.69560489977265605 -2.1367062311546698 -0.44474787933530391 -0.42718543866694048
leaf_weight=4.177196502685546 36.550469398498535 3.4809970855712882 8.7024927139282209
leaf_count=12 105 10 25
internal_value=0 -0.492923 1.44217
internal_weight=0 40.0315 12.8797
internal_count=152 115 37
shrinkage=1


Tree=182
num_leaves=4
num_cat=0
split_feature=31 27 36
split_gain=17.0883 21.3629 7.731
threshold=0.0058094618333333356 0.03855133764399344 0.063163364654762175
decision_type=2 2 2
left_child=-1 2 -2
right_child=1 -3 -4
leaf_value=0.16317488721865558 -2.1659177311379532 0.16317488721865558 -0.89382584848035462
leaf_weight=5.0894352793693534 35.96534264087677 5.0894352793693534 5.4287309646606436
leaf_count=15 106 15 16
internal_value=0 -0.228123 -0.467312
internal_weight=0 46.4835 41.3941
internal_count=152 137 122
shrinkage=1


Tree=183
num_leaves=2
num_cat=0
split_feature=20
split_gain=45.3541
threshold=0.0024194615277777806
decision_type=2
left_child=-1
right_child=-2
leaf_value=-3.3556885091037518 2.2291027905658116
leaf_weight=15.336660638451578 1.5558931082487095
leaf_count=138 14
internal_value=0
internal_weight=0
internal_count=152
shrinkage=1


Tree=184
num_leaves=1
num_cat=0
split_feature=
split_gain=
threshold=
decision_type=
left_child=
right_child=
leaf_value=0
leaf_weight=
leaf_count=
internal_value=
internal_weight=
internal_count=
shrinkage=1


Tree=185
num_leaves=7
num_cat=0
split_feature=5 13 29 19 45 12
split_gain=19.0341 18.2836 12.7586 16.2672 2.02443 0.0408283
threshold=1.0863278466691435 -0.73546038690476101 0.28298295789419609 11.001636000000003 0.010139084166666666 0.9009568928571442
decision_type=2 2 2 2 2 2
left_child=1 5 -2 4 -4 -1
right_child=2 -3 3 -5 -6 -7
leaf_value=-1.6880320910458784 0.30231767204776439 0.29032389382022006 -1.6826759763714629 0.29580309568314844 -0.88126599244113346 -1.4753253983817274
leaf_weight=19.500000000000007 22 5.9999999999999991 9.5000000000000018 8.9999999999999982 4.9999999999999991 4.9999999999999991
leaf_count=39 44 12 19 18 10 10
internal_value=0 -0.571195 0.448957 -0.0615711 -0.718213 -0.955193
internal_weight=0 30.5 45.5 23.5 14.5 24.5
internal_count=152 61 91 47 29 49
shrinkage=1


Tree=186
num_leaves=5
num_cat=0
split_feature=41 41 40 20
split_gain=36.6095 9.25604 4.94348 15.2549
threshold=0.0044838241666666683 0.37245185958333343 -9.1766754006690206e-07 0.0020457035686240032
decision_type=2 2 2 2
left_child=2 -2 -1 -4
right_child=1 -3 3 -5
leaf_value=0.70316890087368411 -2.1367062311546698 -0.44474787933530391 -2.1156639881880128 0.6956048997726556
leaf_weight=5.2214956283569336 36.550469398498535 3.4809970855712882 3.4809970855712873 4.1771965026855469
leaf_count=15 105 10 10 12
internal_value=0 -0.492923 1.44217 0.90981
internal_weight=0 40.0315 12.8797 7.65819
internal_count=152 115 37 22
shrinkage=1


Tree=187
num_leaves=4
num_cat=0
split_feature=32 31 36
split_gain=19.0062 21.4098 7.74083
threshold=0.039977596707332592 0.0058094618333333356 0.063163364654762175
decision_type=2 2 2
left_child=1 -1 -3
right_child=-2 2 -4
leaf_value=0.16317488721865558 0.32796649782617626 -2.1659389570071239 -0.89382584848035462
leaf_weight=5.0894352793693534 4.7501395940780631 36.30463832616806 5.4287309646606436
leaf_count=15 14 107 16
internal_value=0 -0.231091 -0.4687
internal_weight=0 46.8228 41.7334
internal_count=152 138 123
shrinkage=1


Tree=188
num_leaves=2
num_cat=0
split_feature=20
split_gain=45.3541
threshold=0.0024194615277777806
decision_type=2
left_child=-1
right_child=-2
leaf_value=-3.3556885091037518 2.2291027905658116
leaf_weight=15.336660638451578 1.5558931082487095
leaf_count=138 14
internal_value=0
internal_weight=0
internal_count=152
shrinkage=1


Tree=189
num_leaves=1
num_cat=0
split_feature=
split_gain=
threshold=
decision_type=
left_child=
right_child=
leaf_value=0
leaf_weight=
leaf_count=
internal_value=
internal_weight=
internal_count=
shrinkage=1


Tree=190
num_leaves=5
num_cat=0
split_feature=39 15 18 19
split_gain=21.147 25.4303 16.042 3.93554
threshold=-1.6921081123737341e-06 -0.002409894289351852 -5.2234225000000007 2.3884566666666673
decision_type=2 2 2 2
left_child=1 -1 -3 -4
right_child=-2 2 3 -5
leaf_value=0.29888469195001477 0.30098771680075842 0.28883480142203677 -0.82789895360959065 -1.6608417473734551
leaf_weight=12.499999999999998 17 5.4999999999999991 6.9999999999999991 34
leaf_count=25 34 11 14 68
internal_value=0 -0.27011 -0.611171 -0.82704
internal_weight=0 59 46.5 41
internal_count=152 118 93 82
shrinkage=1


Tree=191
num_leaves=4
num_cat=0
split_feature=37 36 36
split_gain=30.0461 21.3365 12.6206
threshold=-0.002572512083333354 0.0027836025595238049 0.070682275904762421
decision_type=2 2 2
left_child=2 -2 -1
right_child=1 -3 -4
leaf_value=-2.1367481708949083 -2.1177538831752405 0.71458240294818576 -0.16154175911925006
leaf_weight=37.246668815612793 3.8290967941284171 8.354393005371092 3.4809970855712882
leaf_count=107 11 24 10
internal_value=0 1.31571 -0.470991
internal_weight=0 12.1835 40.7277
internal_count=152 35 117
shrinkage=1


Tree=192
num_leaves=4
num_cat=0
split_feature=30 32 42
split_gain=19.0711 24.6405 16.9189
threshold=-0.018321988772470679 0.039977596707332592 -0.36201758488888885
decision_type=2 2 2
left_child=1 2 -1
right_child=-2 -3 -4
leaf_value=0.15013776010156654 0.2350127328742817 0.2350127328742817 -2.1659597903402519
leaf_weight=3.3929568529129019 5.7680266499519339 5.7680266499519339 36.643934011459351
leaf_count=10 17 17 108
internal_value=0 -0.156631 -0.436581
internal_weight=0 45.8049 40.0369
internal_count=152 135 118
shrinkage=1


Tree=193
num_leaves=2
num_cat=0
split_feature=25
split_gain=42.1741
threshold=-0.01830084555818497
decision_type=2
left_child=-1
right_child=-2
leaf_value=-3.3557593717509362 2.4043240475369729
leaf_weight=15.558931082487108 1.3336226642131794
leaf_count=140 12
internal_value=0
internal_weight=0
internal_count=152
shrinkage=1


Tree=194
num_leaves=1
num_cat=0
split_feature=
split_gain=
threshold=
decision_type=
left_child=
right_child=
leaf_value=0
leaf_weight=
leaf_count=
internal_value=
internal_weight=
internal_count=
shrinkage=1


Tree=195
num_leaves=6
num_cat=0
split_feature=39 14 19 14 2
split_gain=21.147 21.6582 16.5554 3.43287 1.47912
threshold=-1.6921081123737341e-06 0.0027743593749999999 11.001636000000003 0.001097684363425927 -1.0000000180025095e-35
decision_type=2 2 2 2 2
left_child=1 2 3 -1 -5
right_child=-2 -3 -4 4 -6
