tree
version=v3
num_class=5
num_tree_per_iteration=5
label_index=0
max_feature_idx=47
objective=multiclass num_class:5
average_output
feature_names=average_day_max_mean_magn average_day_min_mean_magn average_day_mean_max_magn average_day_mean_min_magn average_mean_magn average_max_magn average_min_magn average_max_min_magn average_lastday_mean_magn average_lastday_max_magn average_lastday_min_magn average_lastday_max_min_magn diff_1_day_max_mean_magn diff_1_day_min_mean_magn diff_1_day_mean_max_magn diff_1_day_mean_min_magn diff_1_mean_magn diff_1_max_magn diff_1_min_magn diff_1_max_min_magn diff_1_lastday_mean_magn diff_1_lastday_max_magn diff_1_lastday_min_magn diff_1_lastday_max_min_magn average_day_max_mean_sound average_day_min_mean_sound average_day_mean_max_sound average_day_mean_min_sound average_mean_sound average_max_sound average_min_sound average_max_min_sound average_lastday_mean_sound average_lastday_max_sound average_lastday_min_sound average_lastday_max_min_sound diff_1_day_max_mean_sound diff_1_day_min_mean_sound diff_1_day_mean_max_sound diff_1_day_mean_min_sound diff_1_mean_sound diff_1_max_sound diff_1_min_sound diff_1_max_min_sound diff_1_lastday_mean_sound diff_1_lastday_max_sound diff_1_lastday_min_sound diff_1_lastday_max_min_sound
feature_infos=[0.050821208391523084:7.0272658893439068] [-0.36437553889418994:0.56383842505819082] [-0.23540151169736059:1.6033450034081351] [-0.25947876969662398:0.68867381204562428] [-0.24706608917439149:0.8586682237247828] [0.1849477941058098:9.4712677941058114] [-0.3753681068941902:-0.1440479558941902] [0.54474771:9.7984604999999991] [-0.2494831314503633:1.2909538059885255] [-0.0060024058941900993:9.470371127439142] [-0.37493384489419018:0.72981779410580971] [0.19571333333333321:9.7782989333333319] [0.18326744285714072:4.3285849999999986] [-6.414931104761906:-0.15919435714285735] [3.0157150205761077e-05:0.047685775193798463] [-0.022102166666666687:-1.5658000806126573e-05] [-0.0029378032565857675:0.00157439502250463] [0.24293569999999995:7.4334180000000014] [-9.6645863666666632:-0.22962360000000009] [0.57823209999999992:17.093718975000002] [-0.0018331336805555527:0.0012735622299382702] [0.067237500000000269:6.2393579999999984] [-9.6044559166666659:-0.054453333333333465] [0.12169083333333375:15.843813916666665] [-0.094280294045284721:0.76575455404995374] [-0.095764255473856169:-0.057480424521475247] [-0.094922444379119342:0.13306614782861301] [-0.09576425170359236:0.11833671153895238] [-0.094928050830218061:0.12171523107370025] [-0.0942697054738562:1.6267157445261438] [-0.095764255473856169:-0.059992480473856177] [0.001277060999999996:1.72248] [-0.094930522282883928:0.12715210329080445] [-0.09429054547385618:0.76799041119281064] [-0.095764255473856169:-0.057413930473856185] [0.001251134000000001:0.85999295666666686] [3.764714285714058e-05:0.09716282142857148] [-0.28261897618481724:-3.5634285714284241e-05] [7.31597222222154e-08:0.00060866088734567926] [-0.0041165119885057467:-9.9496527777786229e-08] [-0.00047576318765726389:0.00010498626969646708] [5.7420000000002469e-05:0.36120139285714292] [-1.7224799999603877:-4.4730000000006709e-05] [0.00010215000000000918:2.0131449999603883] [-7.0720802083333345e-05:3.5243912037037128e-05] [4.7199999999997244e-05:0.33717208333333343] [-0.24857358333333349:-4.4730000000006709e-05] [9.1930000000003953e-05:0.58574566666666694]
tree_sizes=947 624 429 431 427 865 624 429 431 426 1113 636 529 431 428 1009 636 433 431 424 1013 638 425 433 428 1080 637 433 436 428 1103 629 426 430 428 1100 633 431 437 428 874 633 531 435 426 1019 632 430 435 430 990 734 428 436 430 969 734 440 436 430 982 536 432 435 426 903 536 439 431 432 991 634 433 433 425 1068 632 433 431 430 1017 625 434 430 426 1015 531 528 432 428 900 633 530 431 429 987 639 530 434 429 1014 625 431 437 427 873 624 431 437 427 970 629 437 435 430 985 636 430 432 429 907 636 530 531 434 921 637 432 430 426 963 637 435 427 427 972 629 434 427 427 901 622 530 434 429 969 635 531 437 431 989 636 432 432 426 977 636 432 436 426 968 638 427 438 424 1069 638 433 432 424 893 733 436 432 429 900 734 436 432 430 910 529 436 437 428 891 632 531 532 428 901 629 530 531 423 973 627 433 432 423 984 627 431 434 425 904 627 431 438 428 976 640 433 528 430 867 631 533 533 423 889 631 434 436 429 990 625 434 431 432 1084 629 531 435 429 910 633 435 431 429 887 636 530 434 427 1003 636 529 436 424 987 630 431 435 427 1084 631 433 435 422 977 632 432 428 428 997 633 438 433 427 904 734 426 433 422 893 631 435 432 429 910 630 535 431 427 995 632 432 431 423 1026 529 533 433 328 980 529 533 434 428 992 533 535 433 430 1077 533 532 435 430 932 631 432 433 429 994 635 432 435 428 972 635 532 432 428 983 635 435 437 429 1022 634 434 435 428 928 626 434 435 428 993 631 435 436 429 994 528 434 439 429 888 632 437 437 421 991 631 434 438 429 892 634 439 437 424 875 633 435 529 424 1094 637 435 433 426 978 636 435 432 430 1104 633 440 434 427 1010 634 434 436 422 986 628 533 433 424 964 628 434 433 431 1082 629 531 534 430 999 726 532 531 430 989 634 431 434 427 993 533 431 435 429 1062 635 434 431 432 1057 635 436 431 431 908 633 531 434 426 895 639 433 434 428 974 729 432 435 432 861 636 434 431 432 920 530 433 432 426 975 530 434 433 426 1005 631 432 431 429 1073 631 435 429 428 924 528 438 530 426 1014 536 432 533 429 999 631 430 433 430 926 629 430 431 427 984 628 431 432 431 806 635 431 432 430 1008 635 435 435 426 910 533 435 531 429 891 636 531 428 423 919 632 435 434 423 1112 632 434 435 427 992 638 533 438 428 995 624 431 438 431 913 533 528 436 427 989 535 433 434 429 1011 628 531 435 432

Tree=0
num_leaves=9
num_cat=0
split_feature=9 26 13 41 23 24 39 30
split_gain=21.4112 15.24 8.03467 12.187 7.41748 5.39735 10.622 0.837534
threshold=0.61184934410580993 0.040490091848247318 -0.91542259965986583 0.009881772083333339 0.6819872958333334 0.27857702785947708 -3.5184689771545872e-06 -0.092045366723856187
decision_type=2 2 2 2 2 2 2 2
left_child=4 2 3 -2 -1 -3 -7 -6
right_child=1 5 -4 -5 7 6 -8 -9
leaf_value=-0.41655143587909421 0.29158564386753583 -1.6807248203114975 0.30346872468540154 -1.6766182549401105 -1.6877563449804303 0.29032389382021995 -1.6733452003619256 -1.2534308685032074
leaf_weight=6.9999999999999991 6.4999999999999982 8.0000000000000018 29.5 6 18.5 6 4.9999999999999982 7.0000000000000027
leaf_count=14 13 16 59 12 37 12 10 14
internal_value=0 0.375921 0.712247 0.0358566 -0.628264 -0.364829 0.0859729 -0.878669
internal_weight=0 61 42 12.5 32.5 19 11 25.5
internal_count=187 122 84 25 65 38 22 51
shrinkage=1


Tree=1
num_leaves=5
num_cat=0
split_feature=0 0 0 8
split_gain=32.5671 36.6477 8.68422 0.821432
threshold=0.62063391196295192 0.60995461632803105 1.9317867226772392 -0.053669245854672656
decision_type=2 2 2 2
left_child=1 -1 -2 -3
right_child=2 3 -4 -5
leaf_value=-2.1649967494528979 -2.1729194652103452 0.76961358239201871 -0.58406068618492246 0.12645170705146658
leaf_weight=8.0941815376281756 38.447362303733826 8.0941815376281721 3.7098332047462454 4.7216058969497672
leaf_count=24 114 24 11 14
internal_value=0 1.03225 -0.49264 2.08225
internal_weight=0 20.91 42.1572 12.8158
internal_count=187 62 125 38
shrinkage=1


Tree=2
num_leaves=3
num_cat=0
split_feature=15 6
split_gain=22.5775 41.3694
threshold=-0.00063907476851851944 -0.35033287256085682
decision_type=2 2
left_child=1 -1
right_child=-2 -3
leaf_value=2.4774990470453999 -2.831668656350919 -2.8135469020837225
leaf_weight=2.3931624889373779 28.349771022796631 3.6817884445190421
leaf_count=13 154 20
internal_value=0 1.56171
internal_weight=0 6.07495
internal_count=187 33
shrinkage=1


Tree=3
num_leaves=3
num_cat=0
split_feature=44 6
split_gain=39.327 30.6858
threshold=1.5914961892639176e-05 -0.29334095589419013
decision_type=2 2
left_child=1 -1
right_child=-2 -3
leaf_value=-2.9240923501403966 1.8851788490277861 0.79716685521392039
leaf_weight=27.147578537464149 2.0234220027923575 2.3606590032577506
leaf_count=161 12 14
internal_value=0 -0.244129
internal_weight=0 29.5082
internal_count=187 175
shrinkage=1


Tree=4
num_leaves=3
num_cat=0
split_feature=11 20
split_gain=61.8129 15.666
threshold=0.84263870000000007 0.00011280307694133713
decision_type=2 2
left_child=1 -1
right_child=-2 -3
leaf_value=-0.83052561092178756 -2.957136741638017 3.0094881634954866
leaf_weight=2.2873109877109554 26.140697002410889 2.1239316314458847
leaf_count=14 160 13
internal_value=0 3.4804
internal_weight=0 4.41124
internal_count=187 27
shrinkage=1


Tree=5
num_leaves=8
num_cat=0
split_feature=43 22 5 43 6 29 15
split_gain=18.8121 17.75 16.9685 8.61424 7.95646 0.935573 1.6591
threshold=0.012978032666666669 -0.31105595000000003 1.0965044607724765 0.015537500000000018 -0.36005121589419015 0.13746374452614388 -0.00016376986882716063
decision_type=2 2 2 2 2 2 2
left_child=-1 2 4 -4 -2 6 -6
right_child=1 -3 3 -5 5 -7 -8
leaf_value=0.3008105233675471 -0.52355653728509144 0.29780304568439853 -1.0596068078891376 0.29780304568439853 -0.88126599244113335 -1.6895174164946094 -1.6766182549401107
leaf_weight=16.5 8.4999999999999982 10.999999999999998 8.0000000000000018 10.999999999999998 5 27.5 5.9999999999999982
leaf_count=33 17 22 16 22 10 55 12
internal_value=0 -0.181051 -0.377744 0.417323 -0.700319 -0.893645 -0.628959
internal_weight=0 77 66 19 47 38.5 11
internal_count=187 154 132 38 94 77 22
shrinkage=1


Tree=6
num_leaves=5
num_cat=0
split_feature=0 0 0 8
split_gain=32.5671 36.6477 8.68422 0.821432
threshold=0.62063391196295192 0.60995461632803105 1.9317867226772392 -0.053669245854672656
decision_type=2 2 2 2
left_child=1 -1 -2 -3
right_child=2 3 -4 -5
leaf_value=-2.1649967494528979 -2.1729194652103452 0.76961358239201871 -0.58406068618492246 0.12645170705146658
leaf_weight=8.0941815376281756 38.447362303733826 8.0941815376281721 3.7098332047462454 4.7216058969497672
leaf_count=24 114 24 11 14
internal_value=0 1.03225 -0.49264 2.08225
internal_weight=0 20.91 42.1572 12.8158
internal_count=187 62 125 38
shrinkage=1


Tree=7
num_leaves=3
num_cat=0
split_feature=15 1
split_gain=22.5775 36.5392
threshold=-0.00063907476851851944 -0.32370555232276149
decision_type=2 2
left_child=1 -1
right_child=-2 -3
leaf_value=2.1052978558943631 -2.831668656350919 -2.8124643133357621
leaf_weight=2.5772519111633301 28.349771022796631 3.4976990222930899
leaf_count=14 154 19
internal_value=0 1.56171
internal_weight=0 6.07495
internal_count=187 33
shrinkage=1


Tree=8
num_leaves=3
num_cat=0
split_feature=44 6
split_gain=39.327 30.6858
threshold=1.5914961892639176e-05 -0.29334095589419013
decision_type=2 2
left_child=1 -1
right_child=-2 -3
leaf_value=-2.9240923501403966 1.8851788490277861 0.79716685521392039
leaf_weight=27.147578537464149 2.0234220027923575 2.3606590032577506
leaf_count=161 12 14
internal_value=0 -0.244129
internal_weight=0 29.5082
internal_count=187 175
shrinkage=1


Tree=9
num_leaves=3
num_cat=0
split_feature=9 20
split_gain=61.8129 15.666
threshold=0.53259246077247657 0.00011280307694133713
decision_type=2 2
left_child=1 -1
right_child=-2 -3
leaf_value=-0.83052561092178756 -2.957136741638017 3.0094881634954866
leaf_weight=2.2873109877109554 26.140697002410889 2.1239316314458847
leaf_count=14 160 13
internal_value=0 3.4804
internal_weight=0 4.41124
internal_count=187 27
shrinkage=1


Tree=10
num_leaves=10
num_cat=0
split_feature=23 43 39 10 43 37 37 16 16
split_gain=16.6752 17.3879 14.8377 14.4827 3.3387 0.946886 2.88072 0.88494 0.00315339
threshold=0.65946835666666681 0.012978032666666669 -1.7086881168065952e-05 -0.30754083922752351 0.058385561433333323 -0.0045714193571428129 -0.0076950809523808799 1.1091734797244778e-05 -1.3199566801439456e-05
decision_type=2 2 2 2 2 2 2 2 2
left_child=-1 -2 7 4 5 6 -4 -3 -7
right_child=1 2 3 -5 -6 8 -8 -9 -10
leaf_value=0.30042195127285209 0.2981948107820459 0.29032389382022017 -1.6826759763714629 0.28883480142203555 -0.81115960292019373 -1.511328998741764 -0.82789895360959087 -0.30700856669855919 -1.6880320910458784
leaf_weight=15.499999999999998 11.499999999999998 5.9999999999999982 9.5000000000000018 5.5000000000000062 7.9999999999999991 5.9999999999999956 6.999999999999992 5 19.500000000000007
leaf_count=31 23 12 19 11 16 12 14 10 39
internal_value=0 -0.140295 -0.33734 -0.548155 -0.718282 -0.831153 -0.63142 0.719457 -0.956947
internal_weight=0 78 66.5 55.5 50 42 16.5 11 25.5
internal_count=187 156 133 111 100 84 33 22 51
shrinkage=1


Tree=11
num_leaves=5
num_cat=0
split_feature=41 41 20 18
split_gain=27.9421 37.2493 5.91737 1.51208
threshold=0.010154091222222239 0.0068975015000000009 -1.5007720202664371e-05 -0.95032546666666629
decision_type=2 2 2 2
left_child=1 -1 -3 -4
right_child=-2 2 3 -5
leaf_value=-2.1685132102447886 -2.1725214969720459 -0.79491140120177584 0.76776838388656277 -0.025479786145433669
leaf_weight=12.478529870510103 32.376726150512695 5.7333785891532942 7.4196664094924953 5.0588634610176024
leaf_count=37 96 17 22 15
internal_value=0 0.696422 1.60738 1.9958
internal_weight=0 30.6904 18.2119 12.4785
internal_count=187 91 54 37
shrinkage=1


Tree=12
num_leaves=4
num_cat=0
split_feature=15 10 6
split_gain=37.3235 44.1216 0.63576
threshold=-0.00063907476851851944 -0.3342226725608568 -0.35447563922752351
decision_type=2 2 2
left_child=1 2 -1
right_child=-2 -3 -4
leaf_value=1.1397230434507635 -2.8314581737642941 -2.8145277036238578 2.4561651760815741
leaf_weight=2.2090730667114258 26.324787378311157 3.8658778667449933 2.0249836444854736
leaf_count=12 143 21 11
internal_value=0 1.89415 4.10616
internal_weight=0 8.09993 4.23406
internal_count=187 44 23
shrinkage=1


Tree=13
num_leaves=3
num_cat=0
split_feature=18 6
split_gain=38.0521 4.82806
threshold=-0.31512404999999993 -0.29334095589419013
decision_type=2 2
left_child=1 -1
right_child=-2 -3
leaf_value=-2.9241780943267224 1.7861728239312709 -1.2119415413937469
leaf_weight=27.990671038627628 1.8548035025596608 1.6861850023269678
leaf_count=166 11 10
internal_value=0 -0.447709
internal_weight=0 29.6769
internal_count=187 176
shrinkage=1


Tree=14
num_leaves=3
num_cat=0
split_feature=25 0
split_gain=50.9902 13.1772
threshold=-0.093062657617022343 0.44250491910580925
decision_type=2 2
left_child=1 -1
right_child=-2 -3
leaf_value=2.9654921330880155 -2.9571550777253237 -0.71636012898802126
leaf_weight=1.633793562650683 26.304076358675957 2.6140697002410889
leaf_count=10 161 16
internal_value=0 3.16824
internal_weight=0 4.24786
internal_count=187 26
shrinkage=1


Tree=15
num_leaves=9
num_cat=0
split_feature=42 22 36 21 42 21 1 13
split_gain=17.3295 20.4213 17.2109 4.05612 11.1859 5.65697 0.891826 0.0490637
threshold=-0.0055516624999999839 -0.31105595000000003 0.016176078174603131 0.53493616666666688 -0.0057629333333333232 0.34673587499999997 -0.3248540808941896 -0.30702270071428794
decision_type=2 2 2 2 2 2 2 2
left_child=1 2 3 5 -5 -1 7 -7
right_child=-2 -3 -4 4 -6 6 -8 -9
leaf_value=-0.69314718055994529 0.30062228984503903 0.2991899841910125 0.29443045919160749 0.28883480142203655 -1.6766182549401107 -1.6890738608043447 -1.2198647378118532 -1.4753253983817269
leaf_weight=8.9999999999999982 15.999999999999998 12.999999999999998 7.9999999999999991 5.5 5.9999999999999982 24.499999999999993 6.5000000000000062 5.0000000000000027
leaf_count=18 32 26 16 11 12 49 13 10
internal_value=0 -0.147647 -0.378776 -0.573828 -0.038961 -0.709212 -0.886269 -0.962775
internal_weight=0 77.5 64.5 56.5 11.5 45 36 29.5
internal_count=187 155 129 113 23 90 72 59
shrinkage=1


Tree=16
num_leaves=5
num_cat=0
split_feature=41 41 20 18
split_gain=27.9421 37.2493 5.91737 1.51208
threshold=0.010154091222222239 0.0068975015000000009 -1.5007720202664371e-05 -0.95032546666666629
decision_type=2 2 2 2
left_child=1 -1 -3 -4
right_child=-2 2 3 -5
leaf_value=-2.1685132102447886 -2.1725214969720459 -0.79491140120177584 0.76776838388656277 -0.025479786145433669
leaf_weight=12.478529870510103 32.376726150512695 5.7333785891532942 7.4196664094924953 5.0588634610176024
leaf_count=37 96 17 22 15
internal_value=0 0.696422 1.60738 1.9958
internal_weight=0 30.6904 18.2119 12.4785
internal_count=187 91 54 37
shrinkage=1


Tree=17
num_leaves=3
num_cat=0
split_feature=20 1
split_gain=33.8171 36.2865
threshold=-0.00051594826388888894 -0.36259689370371379
decision_type=2 2
left_child=-1 -2
right_child=1 -3
leaf_value=1.0704366780978751 1.4923021498758415 -2.8317876499898142
leaf_weight=2.7613413333892813 2.0249836444854763 29.638396978378296
leaf_count=15 11 161
internal_value=0 -0.270896
internal_weight=0 31.6634
internal_count=187 172
shrinkage=1


Tree=18
num_leaves=3
num_cat=0
split_feature=18 6
split_gain=38.0521 4.82806
threshold=-0.31512404999999993 -0.29334095589419013
decision_type=2 2
left_child=1 -1
right_child=-2 -3
leaf_value=-2.9241780943267224 1.7861728239312709 -1.2119415413937469
leaf_weight=27.990671038627628 1.8548035025596608 1.6861850023269678
leaf_count=166 11 10
internal_value=0 -0.447709
internal_weight=0 29.6769
internal_count=187 176
shrinkage=1


Tree=19
num_leaves=3
num_cat=0
split_feature=9 9
split_gain=43.1506 38.6616
threshold=0.51662279410580991 0.4346841274391432
decision_type=2 2
left_child=1 -1
right_child=-2 -3
leaf_value=-2.9244609648161268 -2.9570803346182806 2.6907463167185188
leaf_weight=2.1239316314458874 25.650558933615685 2.7774490565061569
leaf_count=13 157 17
internal_value=0 2.67757
internal_weight=0 4.90138
internal_count=187 30
shrinkage=1


Tree=20
num_leaves=9
num_cat=0
split_feature=42 23 36 7 25 15 30 30
split_gain=17.878 17.6842 13.2245 5.29969 12.1071 2.13797 1.45452 0.922733
threshold=-0.0055516624999999839 0.65946835666666681 0.016176078174603131 1.5969581899999998 -0.092537293271475238 -8.5425025830737332e-05 -0.092236245473856157 -0.092030670473856171
decision_type=2 2 2 2 2 2 2 2
left_child=1 -1 3 5 -5 6 -3 -8
right_child=-2 2 -4 4 -6 -7 7 -9
leaf_value=0.29690257068383563 0.29947274563931658 -1.1296112689577358 0.29032389382022006 -1.4732518926018301 0.29158564386753572 -0.85017197394837485 -1.6893084089668555 -1.253430868503207
leaf_weight=9.9999999999999982 13.499999999999998 8.9999999999999911 5.9999999999999991 9.4999999999999982 6.4999999999999991 6.0000000000000062 25.999999999999989 7.0000000000000098
leaf_count=20 27 18 12 19 13 12 52 14
internal_value=0 -0.249219 -0.427552 -0.56128 -0.05919 -0.727367 -0.807372 -0.906203
internal_weight=0 80 70 64 16 48 42 33
internal_count=187 160 140 128 32 96 84 66
shrinkage=1


Tree=21
num_leaves=5
num_cat=0
split_feature=41 41 16 40
split_gain=27.1684 41.8548 4.97058 1.34362
threshold=0.010154091222222239 0.0068975015000000009 -1.0000000180025095e-35 -1.0000000180025095e-35
decision_type=2 2 2 2
left_child=1 -1 -3 -4
right_child=-2 2 3 -5
leaf_value=-2.1690013034464295 -2.172547475239301 -0.71184046694129766 -0.052122211395499329 0.77042612240614927
leaf_weight=13.490302562713625 32.713983714580536 4.7216058969497725 3.7098332047462508 8.4314391016960055
leaf_count=40 97 14 11 25
internal_value=0 0.67832 1.72725 2.06863
internal_weight=0 30.3532 16.8629 12.1413
internal_count=187 90 50 36
shrinkage=1


Tree=22
num_leaves=3
num_cat=0
split_feature=13 19
split_gain=30.4145 64.0144
threshold=-0.80163421785714417 1.9886160750000001
decision_type=2 2
left_child=1 -1
right_child=-2 -3
leaf_value=2.282181255206186 -2.831212682780885 -2.8216986551503753
leaf_weight=4.0499672889709455 24.299803733825684 6.0749509334564209
leaf_count=22 132 33
internal_value=0 1.50458
internal_weight=0 10.1249
internal_count=187 55
shrinkage=1


Tree=23
num_leaves=3
num_cat=0
split_feature=44 21
split_gain=48.8532 22.5069
threshold=1.5914961892639176e-05 0.20072195000000001
decision_type=2 2
left_child=1 -1
right_child=-2 -3
leaf_value=0.16600018393321836 2.3674733282761493 -2.9240745594113497
leaf_weight=2.5292775034904542 2.0234220027923575 26.978960037231445
leaf_count=15 12 160
internal_value=0 -0.277961
internal_weight=0 29.5082
internal_count=187 175
shrinkage=1


Tree=24
num_leaves=3
num_cat=0
split_feature=25 8
split_gain=67.4922 39.6279
threshold=-0.093062657617022343 -0.015022388259802332
decision_type=2 2
left_child=1 -1
right_child=-2 -3
leaf_value=3.061590450478004 -2.9570803346182806 -2.9140883547347736
leaf_weight=3.2675871253013611 25.650558933615685 1.633793562650683
leaf_count=20 157 10
internal_value=0 3.48543
internal_weight=0 4.90138
internal_count=187 30
shrinkage=1


Tree=25
num_leaves=10
num_cat=0
split_feature=43 36 21 42 21 0 0 47 46
split_gain=20.2634 18.4225 6.61319 9.94115 7.87973 6.19689 1.99105 1.16058 0.0114298
threshold=0.012978032666666669 0.016176078174603131 0.53493616666666688 -0.0057629333333333232 0.3369018333333334 0.86426229410580946 0.60995461632803105 0.0098692500000000394 -0.0032428499999999981
decision_type=2 2 2 2 2 2 2 2 2
left_child=-1 2 4 -4 5 -2 -6 8 -8
right_child=1 -3 3 -5 6 -7 7 -9 -10
leaf_value=0.30020830116762942 0.28705083924203512 0.29690257068383563 0.29266842227693413 -1.4949489823617472 -1.0544037250625631 -1.2773055964015294 -1.6891551645918816 -1.1345886220013868 -1.511328998741762
leaf_weight=14.999999999999998 4.9999999999999982 9.9999999999999982 7 5.4999999999999982 9.4999999999999982 5 24.999999999999993 5.4999999999999991 6.0000000000000098
leaf_count=30 10 20 14 11 19 10 50 11 12
internal_value=0 -0.273074 -0.458789 0.195219 -0.605709 0.19403 -0.780673 -0.887825 -0.964573
internal_weight=0 78.5 68.5 12.5 56 10 46 36.5 31
internal_count=187 157 137 25 112 20 92 73 62
shrinkage=1


Tree=26
num_leaves=5
num_cat=0
split_feature=43 28 38 16
split_gain=26.5915 35.4497 8.66049 1.58299
threshold=0.020415607083333353 -0.023368016897147539 1.2428787356128882e-05 -1.0000000180025095e-35
decision_type=2 2 2 2
left_child=1 -1 -3 -4
right_child=-2 2 3 -5
leaf_value=-2.1685132102447886 -2.1725214969720459 -0.93906384378964614 -0.13510887132256877 0.77042612240614838
leaf_weight=12.478529870510103 32.376726150512695 6.4078937172889736 3.3725756406784084 8.4314391016960091
leaf_count=37 96 19 10 25
internal_value=0 0.663892 1.55262 2.06124
internal_weight=0 30.6904 18.2119 11.804
internal_count=187 91 54 35
shrinkage=1


Tree=27
num_leaves=3
num_cat=0
split_feature=20 1
split_gain=45.4605 31.6302
threshold=-0.00051594826388888894 -0.36259689370371379
decision_type=2 2
left_child=-1 -2
right_child=1 -3
leaf_value=1.4981411143450161 1.3846821456233949 -2.8317876499898142
leaf_weight=2.9454307556152335 1.8408942222595239 29.638396978378296
leaf_count=16 10 161
internal_value=0 -0.300941
internal_weight=0 31.4793
internal_count=187 171
shrinkage=1


Tree=28
num_leaves=3
num_cat=0
split_feature=44 10
split_gain=48.8532 20.9928
threshold=1.5914961892639176e-05 -0.26135103922752351
decision_type=2 2
left_child=1 -1
right_child=-2 -3
leaf_value=-2.9240565453161143 2.3674733282761493 -0.023791435863728783
leaf_weight=26.810341536998756 2.0234220027923575 2.6978960037231436
leaf_count=159 12 16
internal_value=0 -0.277961
internal_weight=0 29.5082
internal_count=187 175
shrinkage=1


Tree=29
num_leaves=3
num_cat=0
split_feature=25 8
split_gain=67.4922 39.6279
threshold=-0.093062657617022343 -0.015022388259802332
decision_type=2 2
left_child=1 -1
right_child=-2 -3
leaf_value=3.061590450478004 -2.9570803346182806 -2.9140883547347736
leaf_weight=3.2675871253013611 25.650558933615685 1.633793562650683
leaf_count=20 157 10
internal_value=0 3.48543
internal_weight=0 4.90138
internal_count=187 30
shrinkage=1


Tree=30
num_leaves=10
num_cat=0
split_feature=43 22 21 20 30 3 43 11 18
split_gain=17.5513 15.8916 11.7061 10.5883 6.06258 12.5133 2.93466 0.286442 0.0101496
threshold=0.012978032666666669 -0.31105595000000003 0.53493616666666688 0.00083972784420289722 -0.092074478807189511 -0.051658700574119372 0.040890018500000014 0.99011501000000013 -0.40940570833333328
decision_type=2 2 2 2 2 2 2 2 2
left_child=-1 2 4 -4 6 -6 8 -7 -2
right_child=1 -3 3 -5 5 7 -8 -9 -10
leaf_value=0.2997353817176347 -1.6889891764019414 0.29638161525157292 0.29690257068383563 -1.4753253983817274 0.29158564386753516 -1.2773055964015287 -0.97969688816228451 -1.6733452003619254 -1.5113289987417635
leaf_weight=13.999999999999998 23.999999999999996 9.4999999999999982 9.9999999999999982 4.9999999999999991 6.5000000000000027 5.0000000000000053 8.4999999999999982 5 5.9999999999999991
leaf_count=28 48 19 20 10 13 10 17 10 12
internal_value=0 -0.219359 -0.384725 0.395349 -0.598547 -0.0876133 -0.815824 -0.791045 -0.963394
internal_weight=0 79.5 70 15 55 16.5 38.5 10 30
internal_count=187 159 140 30 110 33 77 20 60
shrinkage=1


Tree=31
num_leaves=5
num_cat=0
split_feature=41 41 9 2
split_gain=27.5459 34.6169 6.5408 1.0503
threshold=0.010154091222222239 0.0068975015000000009 0.61836339410580987 -0.032706287709661212
decision_type=2 2 2 2
left_child=1 -1 3 -3
right_child=-2 2 -4 -5
leaf_value=-2.1681415257832981 -2.1726222972638336 0.017202130386137382 -0.7842145982035047 0.76671490869136205
leaf_weight=11.804014742374422 33.725756406784058 4.0470907688140896 6.4078937172889701 7.0824088454246512
leaf_count=35 100 12 19 21
internal_value=0 0.689566 1.57973 2.04512
internal_weight=0 29.3414 17.5374 11.1295
internal_count=187 87 52 33
shrinkage=1


Tree=32
num_leaves=3
num_cat=0
split_feature=13 17
split_gain=40.5528 67.2346
threshold=-0.80163421785714417 0.98847333333333331
decision_type=2 2
left_child=1 -1
right_child=-2 -3
leaf_value=2.529164368384174 -2.831306537822484 -2.8194505565703749
leaf_weight=4.2340567111968976 25.036161422729492 5.1545038223266602
leaf_count=23 136 28
internal_value=0 1.87732
internal_weight=0 9.38856
internal_count=187 51
shrinkage=1


Tree=33
num_leaves=3
num_cat=0
split_feature=44 6
split_gain=39.327 33.2002
threshold=1.5914961892639176e-05 -0.29334095589419013
decision_type=2 2
left_child=1 -1
right_child=-2 -3
leaf_value=-2.9241099216321089 1.8851788490277861 1.0772483302100881
leaf_weight=27.316197037696845 2.0234220027923575 2.192040503025054
leaf_count=162 12 13
internal_value=0 -0.244129
internal_weight=0 29.5082
internal_count=187 175
shrinkage=1


Tree=34
num_leaves=3
num_cat=0
split_feature=11 32
split_gain=50.9902 36.3598
threshold=0.82755708333333333 -0.028966393337470486
decision_type=2 2
left_child=1 -1
right_child=-2 -3
leaf_value=3.0372953311441266 -2.9571550777253237 -2.9140883547347736
leaf_weight=2.6140697002410889 26.304076358675957 1.633793562650683
leaf_count=16 161 10
internal_value=0 3.16824
internal_weight=0 4.24786
internal_count=187 26
shrinkage=1


Tree=35
num_leaves=10
num_cat=0
split_feature=43 23 36 21 13 33 41 1 47
split_gain=17.5513 16.8572 13.7983 10.4125 9.49252 2.26223 1.35606 1.55545 0.0476468
threshold=0.012978032666666669 0.65946835666666681 0.016176078174603131 0.53493616666666688 -0.91542259965986583 0.28499554452614378 0.014896570000000003 -0.35771043303704692 0.010594166666666573
decision_type=2 2 2 2 2 2 2 2 2
left_child=-1 -2 3 5 -5 6 8 -8 -3
right_child=1 2 -4 4 -6 -7 7 -9 -10
leaf_value=0.2997353817176347 0.29690257068383563 -1.6889008960588834 0.29158564386753572 -1.4753253983817274 0.29360778632747209 -0.9353832054046658 -1.6751291625419273 -0.97969688816228451 -1.4753253983817274
leaf_weight=13.999999999999998 9.9999999999999982 23.500000000000004 6.4999999999999991 5 7.4999999999999982 7.9999999999999991 5.4999999999999991 8.4999999999999982 4.9999999999999991
leaf_count=28 20 47 13 10 15 16 11 17 10
internal_value=0 -0.219359 -0.39468 -0.538462 0.2749 -0.740851 -0.833137 -0.565836 -0.961471
internal_weight=0 79.5 69.5 63 12.5 50.5 42.5 14 28.5
internal_count=187 159 139 126 25 101 85 28 57
shrinkage=1


Tree=36
num_leaves=5
num_cat=0
split_feature=41 27 41 2
split_gain=27.5459 34.6169 7.39641 1.07639
threshold=0.010154091222222239 -0.02607584080227059 0.0075206110000000182 -0.026735622375893497
decision_type=2 2 2 2
left_child=1 -1 -3 -4
right_child=-2 2 3 -5
leaf_value=-2.1681415257832981 -2.1726222972638336 -0.87095914607794744 0.017202130386137382 0.76776838388656499
leaf_weight=11.804014742374422 33.725756406784058 6.070636153221133 4.0470907688140896 7.4196664094924882
leaf_count=35 100 18 12 22
internal_value=0 0.689566 1.57973 2.05342
internal_weight=0 29.3414 17.5374 11.4668
internal_count=187 87 52 34
shrinkage=1


Tree=37
num_leaves=3
num_cat=0
split_feature=1 38
split_gain=35.0575 35.9072
threshold=-0.36259689370371379 2.6526655052264519e-06
decision_type=2 2
left_child=-1 -2
right_child=1 -3
leaf_value=1.344046144018904 0.54182251162586414 -2.831668656350919
leaf_weight=2.5772519111633292 3.4976990222930935 28.349771022796631
leaf_count=14 19 154
internal_value=0 -0.178497
internal_weight=0 31.8475
internal_count=187 173
shrinkage=1


Tree=38
num_leaves=3
num_cat=0
split_feature=44 40
split_gain=39.327 23.3766
threshold=1.5914961892639176e-05 -3.0453369648657606e-06
decision_type=2 2
left_child=1 -1
right_child=-2 -3
leaf_value=-0.01700097513358001 1.8851788490277861 -2.9240198299866895
leaf_weight=3.0351330041885438 2.0234220027923575 26.473104536533356
leaf_count=18 12 157
internal_value=0 -0.244129
internal_weight=0 29.5082
internal_count=187 175
shrinkage=1


Tree=39
num_leaves=3
num_cat=0
split_feature=11 32
split_gain=50.9902 36.3598
threshold=0.82755708333333333 -0.028966393337470486
decision_type=2 2
left_child=1 -1
right_child=-2 -3
leaf_value=3.0372953311441266 -2.9571550777253237 -2.9140883547347736
leaf_weight=2.6140697002410889 26.304076358675957 1.633793562650683
leaf_count=16 161 10
internal_value=0 3.16824
internal_weight=0 4.24786
internal_count=187 26
shrinkage=1


Tree=40
num_leaves=8
num_cat=0
split_feature=23 21 44 10 21 10 39
split_gain=19.5141 26.6983 7.95655 6.54546 8.83815 3.86409 0.50948
threshold=0.65946835666666681 0.51314300000000002 -1.093328379662184e-05 -0.32655374756085681 0.3374688666666667 -0.35603056589419019 -1.4992117221291277e-05
decision_type=2 2 2 2 2 2 2
left_child=-1 3 -3 5 -5 -2 -7
right_child=1 2 -4 4 -6 6 -8
leaf_value=0.30098771680075842 -0.86273782383479913 -1.0154612301467218 0.3014619838605398 -1.4949489823617472 0.28883480142203655 -1.3147688021815673 -1.6894503228889655
leaf_weight=17 8.4999999999999982 6.0000000000000027 18.5 5.4999999999999982 5.5 5.4999999999999956 27.000000000000004
leaf_count=34 17 12 37 11 11 11 54
internal_value=0 -0.188766 0.670061 -0.594621 0.0859729 -0.778319 -0.935484
internal_weight=0 76.5 24.5 52 11 41 32.5
internal_count=187 153 49 104 22 82 65
shrinkage=1


Tree=41
num_leaves=5
num_cat=0
split_feature=41 41 16 2
split_gain=29.1767 35.1852 4.49214 0.184568
threshold=0.010154091222222239 0.0068975015000000009 -1.0000000180025095e-35 -0.026735622375893497
decision_type=2 2 2 2
left_child=1 -1 -3 -4
right_child=-2 2 3 -5
leaf_value=-2.1674972872775582 -2.1728422683417756 -0.61269452255091339 0.26127775053334146 0.76285790359491124
leaf_weight=10.7922420501709 37.098332047462463 5.0588634610176095 4.047090768814086 6.0706361532211277
leaf_count=32 110 15 12 18
internal_value=0 0.74618 1.72636 2.11529
internal_weight=0 25.9688 15.1766 10.1177
internal_count=187 77 45 30
shrinkage=1


Tree=42
num_leaves=4
num_cat=0
split_feature=15 7 15
split_gain=39.6405 37.9665 1.78572
threshold=-0.00063907476851851944 1.4581260000000003 -0.00064840842142391264
decision_type=2 2 2
left_child=1 2 -1
right_child=-2 -3 -4
leaf_value=0.84027677962999414 -2.831498814236495 -2.8112632250228597 2.4561651760815768
leaf_weight=2.3931624889373779 26.692966222763062 3.3136096000671387 2.0249836444854727
leaf_count=13 145 18 11
internal_value=0 2.01013 3.91403
internal_weight=0 7.73176 4.41815
internal_count=187 42 24
shrinkage=1


Tree=43
num_leaves=3
num_cat=0
split_feature=44 6
split_gain=31.8841 20.9928
threshold=1.5914961892639176e-05 -0.29334095589419013
decision_type=2 2
left_child=1 -1
right_child=-2 -3
leaf_value=-2.9240565453161143 1.4028843697794233 -0.023791435863728783
leaf_weight=26.810341536998756 2.0234220027923575 2.6978960037231436
leaf_count=159 12 16
internal_value=0 -0.277961
internal_weight=0 29.5082
internal_count=187 175
shrinkage=1


Tree=44
num_leaves=3
num_cat=0
split_feature=5 9
split_gain=59.5768 2.20263
threshold=0.49056762743914323 0.51662279410580991
decision_type=2 2
left_child=-1 -2
right_child=1 -3
leaf_value=1.4240845205248984 -1.7856840197606734 -2.957041519274636
leaf_weight=3.5943458378314999 1.633793562650683 25.323800221085548
leaf_count=22 10 155
internal_value=0 -0.472374
internal_weight=0 26.9576
internal_count=187 165
shrinkage=1


Tree=45
num_leaves=9
num_cat=0
split_feature=22 5 45 20 10 40 44 36
split_gain=17.4351 19.3805 13.6032 8.71318 4.47308 2.38605 0.586039 0.492483
threshold=-0.31105595000000003 1.0965044607724765 0.0030474666666666689 0.00043562096064814784 -0.35603056589419019 -2.3449565160865423e-07 7.6266859567901289e-06 0.003843295230952368
decision_type=2 2 2 2 2 2 2 2
left_child=1 2 -1 7 -4 6 -6 -3
right_child=-2 3 4 -5 5 -7 -8 -9
leaf_value=0.28883480142203677 0.30042195127285209 -0.10898876471836194 -0.74026759940811282 -1.2773055964015296 -1.6894503228889657 -0.96974292524079608 -1.2773055964015296 0.2997353817176347
leaf_weight=5.4999999999999991 15.499999999999998 5.0000000000000062 9.4999999999999982 4.9999999999999991 26.999999999999996 7.0000000000000062 4.9999999999999991 13.999999999999998
leaf_count=11 31 10 19 10 54 14 10 28
internal_value=0 -0.165919 -0.498612 0.580042 -0.668383 -0.818182 -0.934477 0.889764
internal_weight=0 78 54 24 48.5 39 32 19
internal_count=187 156 108 48 97 78 64 38
shrinkage=1


Tree=46
num_leaves=5
num_cat=0
split_feature=41 41 16 1
split_gain=29.1767 35.1852 4.49214 0.184568
threshold=0.010154091222222239 0.0068975015000000009 -1.0000000180025095e-35 -0.32923737172752293
decision_type=2 2 2 2
left_child=1 -1 -3 -4
right_child=-2 2 3 -5
leaf_value=-2.1674972872775582 -2.1728422683417756 -0.61269452255091339 0.26127775053334146 0.76285790359491124
leaf_weight=10.7922420501709 37.098332047462463 5.0588634610176095 4.047090768814086 6.0706361532211277
leaf_count=32 110 15 12 18
internal_value=0 0.74618 1.72636 2.11529
internal_weight=0 25.9688 15.1766 10.1177
internal_count=187 77 45 30
shrinkage=1


Tree=47
num_leaves=3
num_cat=0
split_feature=20 1
split_gain=36.8057 40.0832
threshold=-0.00051594826388888894 -0.36147932725133275
decision_type=2 2
left_child=-1 -2
right_child=1 -3
leaf_value=1.344046144018904 1.9135324618804463 -2.8318197740948703
leaf_weight=2.5772519111633292 1.8408942222595239 30.0065758228302
leaf_count=14 10 163
internal_value=0 -0.272548
internal_weight=0 31.8475
internal_count=187 173
shrinkage=1


Tree=48
num_leaves=3
num_cat=0
split_feature=44 6
split_gain=31.8841 20.9928
threshold=1.5914961892639176e-05 -0.29334095589419013
decision_type=2 2
left_child=1 -1
right_child=-2 -3
leaf_value=-2.9240565453161143 1.4028843697794233 -0.023791435863728783
leaf_weight=26.810341536998756 2.0234220027923575 2.6978960037231436
leaf_count=159 12 16
internal_value=0 -0.277961
internal_weight=0 29.5082
internal_count=187 175
shrinkage=1


Tree=49
num_leaves=3
num_cat=0
split_feature=25 34
split_gain=54.6417 42.7205
threshold=-0.093062657617022343 -0.092059650473856183
decision_type=2 2
left_child=1 -1
right_child=-2 -3
leaf_value=-2.9215653534463115 -2.9570803346182806 3.0507700551980923
leaf_weight=1.9605522751808164 25.650558933615685 2.9408284127712276
leaf_count=12 157 18
internal_value=0 3.0815
internal_weight=0 4.90138
internal_count=187 30
shrinkage=1


Tree=50
num_leaves=9
num_cat=0
split_feature=43 36 3 16 30 30 10 33
split_gain=22.7417 17.016 11.5055 8.05474 3.79028 13.9293 1.23559 0.455213
threshold=0.012978032666666669 0.016176078174603131 -0.10052858490458337 -1.3199566801439456e-05 -0.092069305473856181 -0.091948883973856158 -0.30583750589419018 0.13471653619281052
decision_type=2 2 2 2 2 2 2 2
left_child=-1 2 -2 -4 6 -6 7 -5
right_child=1 -3 3 4 5 -7 -8 -9
leaf_value=0.3008105233675471 0.28705083924203501 0.29580309568314844 -0.2747074642478885 -1.3460397425434172 0.28883480142203677 -1.6831969318037263 -1.079285794421331 -1.6897630858052921
leaf_weight=16.5 4.9999999999999991 8.9999999999999982 6.9999999999999991 5.999999999999992 5.4999999999999991 9.9999999999999982 5.0000000000000062 29.5
leaf_count=33 10 18 14 12 11 20 10 59
internal_value=0 -0.297859 -0.469508 -0.586043 -0.712756 -0.286174 -0.874229 -0.940928
internal_weight=0 77 68 63 56 15.5 40.5 35.5
internal_count=187 154 136 126 112 31 81 71
shrinkage=1


Tree=51
num_leaves=6
num_cat=0
split_feature=41 41 38 37 22
split_gain=29.6148 41.3361 8.51304 12.4488 0.495809
threshold=0.010154091222222239 0.0068975015000000009 1.2428787356128882e-05 -0.0053084785714284941 -0.41051776666666656
decision_type=2 2 2 2 2
left_child=1 -1 3 -3 -4
right_child=-2 2 4 -5 -6
leaf_value=-2.1688469175893044 -2.1723535241145013 0.47981626339392758 0.77187162403613341 -2.1511343783632411 0.15706873851966918
leaf_weight=13.153044998645781 30.353180766105652 3.7098332047462463 9.1059542298316938 3.3725756406784084 3.3725756406784049
leaf_count=39 90 11 27 10 10
internal_value=0 0.73617 1.65698 0.76277 2.15544
internal_weight=0 32.714 19.5609 7.08241 12.4785
internal_count=187 97 58 21 37
shrinkage=1


Tree=52
num_leaves=3
num_cat=0
split_feature=1 22
split_gain=43.2909 5.54484
threshold=-0.36259689370371379 -1.0002947499999997
decision_type=2 2
left_child=-1 -2
right_child=1 -3
leaf_value=1.6588879133376984 -1.320334847545209 -2.8317712872841732
leaf_weight=2.393162488937377 2.5772519111633292 29.454307556152344
leaf_count=13 14 160
internal_value=0 -0.430034
internal_weight=0 32.0316
internal_count=187 174
shrinkage=1


Tree=53
num_leaves=3
num_cat=0
split_feature=44 40
split_gain=49.7517 20.0411
threshold=1.5914961892639176e-05 -2.6344061020977222e-06
decision_type=2 2
left_child=1 -1
right_child=-2 -3
leaf_value=0.18520379867766845 2.0416398193462721 -2.9240745594113497
leaf_weight=2.1920405030250611 2.3606590032577506 26.978960037231445
leaf_count=13 14 160
internal_value=0 -0.309029
internal_weight=0 29.171
internal_count=187 173
shrinkage=1


Tree=54
num_leaves=3
num_cat=0
split_feature=25 4
split_gain=68.9232 42.9775
threshold=-0.093062657617022343 -1.0000000180025095e-35
decision_type=2 2
left_child=1 -1
right_child=-2 -3
leaf_value=3.0662388643325951 -2.957041519274636 -2.9181575181079107
leaf_weight=3.4309664815664291 25.323800221085548 1.797172918915751
leaf_count=21 155 11
internal_value=0 3.42511
internal_weight=0 5.22814
internal_count=187 32
shrinkage=1


Tree=55
num_leaves=9
num_cat=0
split_feature=43 22 39 8 3 6 33 36
split_gain=22.7417 21.4655 10.1233 8.45609 5.19263 1.1346 0.942697 6.7623e-05
threshold=0.012978032666666669 -0.31105595000000003 -1.7086881168065952e-05 0.011190301333819054 0.067686237682198683 -0.36005121589419015 0.13471653619281052 0.0080078949999999854
decision_type=2 2 2 2 2 2 2 2
left_child=-1 2 4 5 -2 -4 -7 -8
right_child=1 -3 3 -5 -6 6 7 -9
leaf_value=0.3008105233675471 0.29032389382022017 0.29780304568439853 -1.1501008229440517 -0.31910137903322772 -1.0792857944213314 -1.2198647378118532 -1.6895821181713533 -1.5252082492622354
leaf_weight=16.5 5.9999999999999982 10.999999999999998 7.499999999999992 6.4999999999999991 5 6.5000000000000062 28 6.4999999999999991
leaf_count=33 12 22 15 13 10 13 56 13
internal_value=0 -0.297859 -0.514005 -0.689373 0.357466 -0.833162 -0.900122 -0.968162
internal_weight=0 77 66 55 11 48.5 41 34.5
internal_count=187 154 132 110 22 97 82 69
shrinkage=1


Tree=56
num_leaves=6
num_cat=0
split_feature=41 41 38 37 22
split_gain=29.6148 41.3361 8.51304 12.4488 0.495809
threshold=0.010154091222222239 0.0068975015000000009 1.2428787356128882e-05 -0.0053084785714284941 -0.41051776666666656
decision_type=2 2 2 2 2
left_child=1 -1 3 -3 -4
right_child=-2 2 4 -5 -6
leaf_value=-2.1688469175893044 -2.1723535241145013 0.47981626339392758 0.77187162403613341 -2.1511343783632411 0.15706873851966918
leaf_weight=13.153044998645781 30.353180766105652 3.7098332047462463 9.1059542298316938 3.3725756406784084 3.3725756406784049
leaf_count=39 90 11 27 10 10
internal_value=0 0.73617 1.65698 0.76277 2.15544
internal_weight=0 32.714 19.5609 7.08241 12.4785
internal_count=187 97 58 21 37
shrinkage=1


Tree=57
num_leaves=3
num_cat=0
split_feature=44 16
split_gain=34.2056 7.13876
threshold=-1.6867759182258958e-05 -0.00012524724034202993
decision_type=2 2
left_child=-1 -2
right_child=1 -3
leaf_value=0.83045750618550152 -0.91735541563847733 -2.8317712872841732
leaf_weight=2.9454307556152335 2.0249836444854763 29.454307556152344
leaf_count=16 11 160
internal_value=0 -0.427807
internal_weight=0 31.4793
internal_count=187 171
shrinkage=1


Tree=58
num_leaves=3
num_cat=0
split_feature=44 40
split_gain=49.7517 20.0411
threshold=1.5914961892639176e-05 -2.6344061020977222e-06
decision_type=2 2
left_child=1 -1
right_child=-2 -3
leaf_value=0.18520379867766845 2.0416398193462721 -2.9240745594113497
leaf_weight=2.1920405030250611 2.3606590032577506 26.978960037231445
leaf_count=13 14 160
internal_value=0 -0.309029
internal_weight=0 29.171
internal_count=187 173
shrinkage=1


Tree=59
num_leaves=3
num_cat=0
split_feature=25 4
split_gain=68.9232 42.9775
threshold=-0.093062657617022343 -1.0000000180025095e-35
decision_type=2 2
left_child=1 -1
right_child=-2 -3
leaf_value=3.0662388643325951 -2.957041519274636 -2.9181575181079107
leaf_weight=3.4309664815664291 25.323800221085548 1.797172918915751
leaf_count=21 155 11
internal_value=0 3.42511
internal_weight=0 5.22814
internal_count=187 32
shrinkage=1


Tree=60
num_leaves=9
num_cat=0
split_feature=22 21 20 30 14 10 9 3
split_gain=17.8874 21.0168 12.4975 7.20001 14.4537 2.9944 0.956878 0.46045
threshold=-0.31105595000000003 0.51314300000000002 0.00061320130420054091 -0.092074478807189511 9.0722334798827852e-05 -0.3280632850608568 0.63605446077247629 0.017642134607835241
decision_type=2 2 2 2 2 2 2 2
left_child=1 3 -3 5 6 -1 -5 -7
right_child=-2 2 -4 4 -6 7 -8 -9
leaf_value=-1.6890738608043445 0.30020830116762942 0.30131265323506828 -1.4753253983817274 -1.0792857944213312 0.29443045919160749 -0.85017197394837496 -1.6789627833968246 -1.2773055964015294
leaf_weight=24.499999999999996 14.999999999999998 18.000000000000004 4.9999999999999991 5.0000000000000018 7.9999999999999991 6.0000000000000018 7 5
leaf_count=49 30 36 10 10 16 12 14 10
internal_value=0 -0.19669 0.605206 -0.530153 -0.0473815 -0.800281 -0.742739 -0.357466
internal_weight=0 78.5 23 55.5 20 35.5 12 11
internal_count=187 157 46 111 40 71 24 22
shrinkage=1


Tree=61
num_leaves=4
num_cat=0
split_feature=41 41 20
split_gain=27.3028 40.4051 6.58699
threshold=0.010154091222222239 0.0068975015000000009 -1.5007720202664371e-05
decision_type=2 2 2
left_child=1 -1 -3
right_child=-2 2 -4
leaf_value=-2.1686844377389631 -2.1726697369981531 -0.70944496104811927 0.67901283843812799
leaf_weight=12.815787434577944 34.400271534919739 5.3961210250854501 10.454984486103054
leaf_count=38 102 16 31
internal_value=0 0.685896 1.75189
internal_weight=0 28.6669 15.8511
internal_count=187 85 47
shrinkage=1


Tree=62
num_leaves=3
num_cat=0
split_feature=1 20
split_gain=29.2818 26.1917
threshold=-0.36259689370371379 -0.00051594826388888894
decision_type=2 2
left_child=-1 -2
right_child=1 -3
leaf_value=1.1397230434507648 0.69706360839924653 -2.8318197740948703
leaf_weight=2.2090730667114249 2.2090730667114249 30.0065758228302
leaf_count=12 12 163
internal_value=0 -0.306788
internal_weight=0 32.2156
internal_count=187 175
shrinkage=1


Tree=63
num_leaves=3
num_cat=0
split_feature=18 40
split_gain=57.9934 24.1812
threshold=-0.31512404999999993 -3.0453369648657606e-06
decision_type=2 2
left_child=1 -1
right_child=-2 -3
leaf_value=0.38234253383646122 2.1596972778516332 -2.9240198299866895
leaf_weight=2.3606590032577577 2.6978960037231436 26.473104536533356
leaf_count=14 16 157
internal_value=0 -0.271579
internal_weight=0 28.8338
internal_count=187 171
shrinkage=1


Tree=64
num_leaves=3
num_cat=0
split_feature=25 0
split_gain=60.2261 8.9161
threshold=-0.093062657617022343 0.7654295960899361
decision_type=2 2
left_child=1 -1
right_child=-2 -3
leaf_value=2.9654921330880155 -2.9571731878680172 -0.16987909342365182
leaf_weight=1.633793562650683 26.467455714941025 2.4506903439760208
leaf_count=10 162 15
internal_value=0 3.55701
internal_weight=0 4.08448
internal_count=187 25
shrinkage=1


Tree=65
num_leaves=8
num_cat=0
split_feature=22 46 10 0 25 45 38
split_gain=17.8874 17.2078 11.2691 14.6426 8.95429 3.75386 4.18019
threshold=-0.31105595000000003 -0.002769086666666649 -0.35844088089419018 1.0919851155343814 -0.092622766104054025 0.0048924166666666916 8.534560814210292e-06
decision_type=2 2 2 2 2 2 2
left_child=1 2 -1 5 -5 -4 -7
right_child=-2 -3 3 4 -6 6 -8
leaf_value=0.28883480142203677 0.30020830116762942 0.29737414645427263 -1.6897048397682068 -1.3147688021815669 0.29580309568314844 -1.5779639344866463 -0.64602676171177775
leaf_weight=5.4999999999999991 14.999999999999998 10.499999999999998 29 5.4999999999999991 8.9999999999999982 9.5000000000000018 9.4999999999999982
leaf_count=11 30 21 58 11 18 19 19
internal_value=0 -0.19669 -0.381337 -0.502798 0.37457 -0.768991 -0.417323
internal_weight=0 78.5 68 62.5 14.5 48 19
internal_count=187 157 136 125 29 96 38
shrinkage=1


Tree=66
num_leaves=4
num_cat=0
split_feature=41 41 20
split_gain=27.3028 40.4051 6.58699
threshold=0.010154091222222239 0.0068975015000000009 -1.5007720202664371e-05
decision_type=2 2 2
left_child=1 -1 -3
right_child=-2 2 -4
leaf_value=-2.1686844377389631 -2.1726697369981531 -0.70944496104811927 0.67901283843812799
leaf_weight=12.815787434577944 34.400271534919739 5.3961210250854501 10.454984486103054
leaf_count=38 102 16 31
internal_value=0 0.685896 1.75189
internal_weight=0 28.6669 15.8511
internal_count=187 85 47
shrinkage=1


Tree=67
num_leaves=3
num_cat=0
split_feature=44 38
split_gain=32.4357 20.6686
threshold=-1.6867759182258958e-05 2.6526655052264519e-06
decision_type=2 2
left_child=-1 -2
right_child=1 -3
leaf_value=1.4923021498758477 0.0033303873313190735 -2.8317876499898142
leaf_weight=2.0249836444854727 2.7613413333892813 29.638396978378296
leaf_count=11 15 161
internal_value=0 -0.308208
internal_weight=0 32.3997
internal_count=187 176
shrinkage=1


Tree=68
num_leaves=3
num_cat=0
split_feature=18 21
split_gain=57.9934 24.1812
threshold=-0.31512404999999993 0.20072195000000001
decision_type=2 2
left_child=1 -1
right_child=-2 -3
leaf_value=0.38234253383646122 2.1596972778516332 -2.9240198299866895
leaf_weight=2.3606590032577577 2.6978960037231436 26.473104536533356
leaf_count=14 16 157
internal_value=0 -0.271579
internal_weight=0 28.8338
internal_count=187 171
shrinkage=1


Tree=69
num_leaves=3
num_cat=0
split_feature=25 2
split_gain=60.2261 8.9161
threshold=-0.093062657617022343 -1.0000000180025095e-35
decision_type=2 2
left_child=1 -1
right_child=-2 -3
leaf_value=2.9654921330880244 -2.9571731878680172 -0.16987909342365448
leaf_weight=1.6337935626506803 26.467455714941025 2.4506903439760235
leaf_count=10 162 15
internal_value=0 3.55701
internal_weight=0 4.08448
internal_count=187 25
shrinkage=1


Tree=70
num_leaves=9
num_cat=0
split_feature=43 23 37 21 20 30 14 1
split_gain=20.9471 16.6727 13.1513 6.23377 8.24212 6.44469 11.1969 0.718395
threshold=0.012978032666666669 0.65946835666666681 -0.025502670079364995 0.53493616666666688 0.0005036460648148146 -0.092077745473856179 5.3220470980420742e-05 -0.29403281422752325
decision_type=2 2 2 2 2 2 2 2
left_child=-1 -2 -3 5 -5 7 -7 -4
right_child=1 2 3 4 -6 6 -8 -9
leaf_value=0.3008105233675471 0.29638161525157292 0.29032389382022006 -1.6897048397682071 0.28883480142203688 -1.4753253983817274 -1.5565012178270252 0.28883480142203677 -1.3305740811447406
leaf_weight=16.5 9.4999999999999982 5.9999999999999991 28.999999999999993 5.4999999999999982 5 8.0000000000000053 5.4999999999999991 8.4999999999999982
leaf_count=33 19 12 58 11 10 16 11 17
internal_value=0 -0.245944 -0.42117 -0.559708 0.137441 -0.704212 -0.107011 -0.917443
internal_weight=0 77 67.5 61.5 10.5 51 13.5 37.5
internal_count=187 154 135 123 21 102 27 75
shrinkage=1


Tree=71
num_leaves=5
num_cat=0
split_feature=41 41 16 2
split_gain=26.0272 42.996 4.97058 0.938273
threshold=0.010154091222222239 0.0068975015000000009 -1.0000000180025095e-35 -0.026735622375893497
decision_type=2 2 2 2
left_child=1 -1 -3 -4
right_child=-2 2 3 -5
leaf_value=-2.1692880976161639 -2.1724949726460667 -0.71184046694129766 0.07598144643467486 0.76873083924364849
leaf_weight=14.164817690849306 32.039468586444855 4.7216058969497725 4.3843483328819302 7.756923973560327
leaf_count=42 95 14 13 23
internal_value=0 0.649778 1.72725 2.06863
internal_weight=0 31.0277 16.8629 12.1413
internal_count=187 92 50 36
shrinkage=1


Tree=72
num_leaves=3
num_cat=0
split_feature=20 1
split_gain=44.7587 36.2713
threshold=-0.00051594826388888894 -0.36259689370371379
decision_type=2 2
left_child=-1 -2
right_child=1 -3
leaf_value=1.4981411143450161 1.4923021498758415 -2.8317712872841732
leaf_weight=2.9454307556152335 2.0249836444854763 29.454307556152344
leaf_count=16 11 160
internal_value=0 -0.269225
internal_weight=0 31.4793
internal_count=187 171
shrinkage=1


Tree=73
num_leaves=3
num_cat=0
split_feature=44 6
split_gain=31.1732 20.0798
threshold=1.5914961892639176e-05 -0.29334095589419013
decision_type=2 2
left_child=1 -1
right_child=-2 -3
leaf_value=-2.9241444229163331 1.6679358442493863 0.18520379867767245
leaf_weight=27.653434038162235 1.6861850023269642 2.1920405030250576
leaf_count=164 10 13
internal_value=0 -0.314493
internal_weight=0 29.8455
internal_count=187 177
shrinkage=1


Tree=74
num_leaves=3
num_cat=0
split_feature=11 12
split_gain=60.8977 41.3761
threshold=0.82755708333333333 0.37212306761904546
decision_type=2 2
left_child=1 -1
right_child=-2 -3
leaf_value=-2.9181575181079107 -2.9570803346182806 3.0564604863142213
leaf_weight=1.797172918915751 25.650558933615685 3.104207769036293
leaf_count=11 157 19
internal_value=0 3.28347
internal_weight=0 4.90138
internal_count=187 30
shrinkage=1


Tree=75
num_leaves=10
num_cat=0
split_feature=45 23 36 21 20 11 24 2 22
split_gain=16.4646 17.2319 15.8677 10.6778 9.49252 2.03781 3.8586 0.832972 0.962981
threshold=0.0030474666666666689 0.65946835666666681 0.016176078174603131 0.51314300000000002 0.0005036460648148146 0.99541110333333349 0.12941673857376304 -0.033630491853501164 -0.32531120833333332
decision_type=2 2 2 2 2 2 2 2 2
left_child=-1 -2 3 5 -5 7 -7 8 -3
right_child=1 2 -4 4 -6 6 -8 -9 -10
leaf_value=0.29947274563931658 0.29737414645427263 -1.0671929820866628 0.29360778632747198 0.29360778632747209 -1.4753253983817274 -1.6778800049874265 -0.6335445315533228 -1.6889891764019409 -1.6733452003619271
leaf_weight=13.499999999999998 10.499999999999998 6.5 7.4999999999999991 7.4999999999999982 5 6.4999999999999982 7.5 24.000000000000007 4.9999999999999911
leaf_count=27 21 13 15 15 10 13 15 48 10
internal_value=0 -0.19925 -0.380302 -0.547139 0.2749 -0.755802 -0.423488 -0.884669 -0.645022
internal_weight=0 80 69.5 62 12.5 49.5 14 35.5 11.5
internal_count=187 160 139 124 25 99 28 71 23
shrinkage=1


Tree=76
num_leaves=5
num_cat=0
split_feature=43 27 16 9
split_gain=24.9345 40.4637 7.33024 1.12425
threshold=0.020415607083333353 -0.02607584080227059 -1.0000000180025095e-35 0.62002671077247651
decision_type=2 2 2 2
left_child=1 -1 -3 -4
right_child=-2 2 3 -5
leaf_value=-2.1692880976161639 -2.1724402154708891 -0.89306188134635844 0.7696135823920196 0.017202130386138048
leaf_weight=14.164817690849306 31.364953458309174 5.3961210250854537 8.0941815376281685 4.0470907688140878
leaf_count=42 93 16 24 12
internal_value=0 0.622448 1.63659 2.06863
internal_weight=0 31.7022 17.5374 12.1413
internal_count=187 94 52 36
shrinkage=1


Tree=77
num_leaves=3
num_cat=0
split_feature=20 6
split_gain=44.7587 40.0531
threshold=-0.00051594826388888894 -0.36832786539419016
decision_type=2 2
left_child=-1 -2
right_child=1 -3
leaf_value=1.4981411143450161 1.9135324618804463 -2.8317876499898142
leaf_weight=2.9454307556152335 1.8408942222595239 29.638396978378296
leaf_count=16 10 161
internal_value=0 -0.269225
internal_weight=0 31.4793
internal_count=187 171
shrinkage=1


Tree=78
num_leaves=3
num_cat=0
split_feature=18 6
split_gain=31.1732 20.0798
threshold=-0.31512404999999993 -0.29334095589419013
decision_type=2 2
left_child=1 -1
right_child=-2 -3
leaf_value=-2.9241444229163331 1.6679358442493863 0.18520379867767245
leaf_weight=27.653434038162235 1.6861850023269642 2.1920405030250576
leaf_count=164 10 13
internal_value=0 -0.314493
internal_weight=0 29.8455
internal_count=187 177
shrinkage=1


Tree=79
num_leaves=3
num_cat=0
split_feature=9 46
split_gain=66.0369 11.7925
threshold=0.51662279410580991 -0.0069585215000000011
decision_type=2 2
left_child=1 -1
right_child=-2 -3
leaf_value=2.9972062590495039 -2.9571181753511806 -0.34099458297480867
leaf_weight=1.9605522751808164 25.977317646145821 2.6140697002410915
leaf_count=12 159 16
internal_value=0 3.55428
internal_weight=0 4.57462
internal_count=187 28
shrinkage=1


Tree=80
num_leaves=9
num_cat=0
split_feature=23 21 0 45 40 11 41 28
split_gain=17.9181 22.7843 11.0525 5.25069 14.4736 1.79308 1.31423 0.0408283
threshold=0.65946835666666681 0.51314300000000002 1.9317867226772392 0.0048924166666666916 -3.256560772883895e-07 0.99541110333333349 0.017386337500000005 0.024661019738307335
decision_type=2 2 2 2 2 2 2 2
left_child=-1 3 -3 6 5 -5 7 -2
right_child=1 2 -4 4 -6 -7 -8 -9
leaf_value=0.2997353817176347 -1.6880320910458786 0.30115481374204878 -1.3147688021815669 -1.6054977781695063 0.29266842227693424 -0.88126599244113346 -1.1501008229440512 -1.4753253983817274
leaf_weight=13.999999999999998 19.500000000000004 17.500000000000004 5.4999999999999991 12.500000000000005 6.9999999999999991 4.9999999999999991 7.4999999999999991 4.9999999999999991
leaf_count=28 39 35 11 25 14 10 15 10
internal_value=0 -0.23193 0.605206 -0.573828 -0.221996 -0.709402 -0.840874 -0.955193
internal_weight=0 79.5 23 56.5 24.5 17.5 32 24.5
internal_count=187 159 46 113 49 35 64 49
shrinkage=1


Tree=81
num_leaves=5
num_cat=0
split_feature=43 41 9 5
split_gain=27.3492 41.3694 10.7587 11.6168
threshold=0.020415607083333353 0.0068975015000000009 0.61836339410580987 2.2427219607724767
decision_type=2 2 2 2
left_child=1 -1 -3 -4
right_child=-2 2 3 -5
leaf_value=-2.1690013034464295 -2.1724949726460667 0.77469851491105413 -2.1511343783632415 0.44924634836190513
leaf_weight=13.490302562713625 32.039468586444855 10.7922420501709 3.3725756406784049 3.3725756406784058
leaf_count=40 95 32 10 10
internal_value=0 0.681955 1.69345 0.685066
internal_weight=0 31.0277 17.5374 6.74515
internal_count=187 92 52 20
shrinkage=1


Tree=82
num_leaves=3
num_cat=0
split_feature=6 20
split_gain=40.1525 32.2507
threshold=-0.36649456172752348 -0.00051594826388888894
decision_type=2 2
left_child=-1 -2
right_child=1 -3
leaf_value=1.4261387750200609 0.71473458117568622 -2.8317209506744594
leaf_weight=2.7613413333892813 2.7613413333892849 28.902039289474487
leaf_count=15 15 157
internal_value=0 -0.239364
internal_weight=0 31.6634
internal_count=187 172
shrinkage=1


Tree=83
num_leaves=3
num_cat=0
split_feature=18 21
split_gain=45.8109 17.5418
threshold=-0.31512404999999993 0.20072195000000001
decision_type=2 2
left_child=1 -1
right_child=-2 -3
leaf_value=0.21120724282794212 1.9692928617424994 -2.9241272779142022
leaf_weight=1.8548035025596679 2.192040503025054 27.484815537929535
leaf_count=11 13 163
internal_value=0 -0.344444
internal_weight=0 29.3396
internal_count=187 174
shrinkage=1


Tree=84
num_leaves=3
num_cat=0
split_feature=11 45
split_gain=61.8129 13.2375
threshold=0.82755708333333333 0.023313309166666678
decision_type=2 2
left_child=1 -1
right_child=-2 -3
leaf_value=-0.5697686599416294 -2.957136741638017 2.9972062590495039
leaf_weight=2.4506903439760235 26.140697002410889 1.9605522751808164
leaf_count=15 160 12
internal_value=0 3.4804
internal_weight=0 4.41124
internal_count=187 27
shrinkage=1


Tree=85
num_leaves=9
num_cat=0
split_feature=43 36 3 10 21 8 41 13
split_gain=18.6817 19.4897 11.044 7.0389 8.19488 0.820892 1.66034 2.25126
threshold=0.012978032666666669 0.016176078174603131 -0.10052858490458337 -0.30583750589419018 0.34673587499999997 -0.048933748943128137 0.024781365783500011 -0.93676022857142849
decision_type=2 2 2 2 2 2 2 2
left_child=-1 2 -2 4 -4 -6 7 -7
right_child=1 -3 3 -5 5 6 -8 -9
leaf_value=0.29997996720637765 0.28705083924203501 0.29780304568439853 -0.45091115571522461 -0.40659747295760634 -1.6886120331676553 -1.6733452003619269 -1.6844891719019364 -0.81115960292019351
leaf_weight=14.499999999999998 4.9999999999999991 10.999999999999998 7.999999999999992 8.5000000000000053 21.999999999999993 4.999999999999992 11.499999999999998 8.000000000000016
leaf_count=29 10 22 16 17 44 10 23 16
internal_value=0 -0.239722 -0.440118 -0.554322 -0.686526 -0.847476 -0.710794 -0.455939
internal_weight=0 79 68 63 54.5 46.5 24.5 13
internal_count=187 158 136 126 109 93 49 26
shrinkage=1


Tree=86
num_leaves=4
num_cat=0
split_feature=43 41 2
split_gain=27.3492 41.3694 8.53273
threshold=0.020415607083333353 0.0068975015000000009 -0.026622663567615518
decision_type=2 2 2
left_child=1 -1 -3
right_child=-2 2 -4
leaf_value=-2.1690013034464295 -2.1724949726460667 0.68571211768108187 -0.7842145982035047
leaf_weight=13.490302562713625 32.039468586444855 11.129499614238741 6.4078937172889701
leaf_count=40 95 33 19
internal_value=0 0.681955 1.69345
internal_weight=0 31.0277 17.5374
internal_count=187 92 52
shrinkage=1


Tree=87
num_leaves=4
num_cat=0
split_feature=15 1 6
split_gain=43.8763 41.8468 1.5677
threshold=-0.00063907476851851944 -0.32559894875133283 -0.36649456172752348
decision_type=2 2 2
left_child=1 2 -1
right_child=-2 -3 -4
leaf_value=2.4677013486053174 -2.8314374250469978 -2.8124643133357621 0.96342028808117242
leaf_weight=2.2090730667114258 26.140697956085205 3.497699022293089 2.5772519111633301
leaf_count=12 142 19 14
internal_value=0 2.07998 3.98719
internal_weight=0 8.28402 4.78632
internal_count=187 45 26
shrinkage=1


Tree=88
num_leaves=3
num_cat=0
split_feature=18 10
split_gain=45.8109 12.6366
threshold=-0.31512404999999993 -0.26135103922752351
decision_type=2 2
left_child=1 -1
right_child=-2 -3
leaf_value=-2.9240565453161143 1.9692928617424994 -0.60941074703141318
leaf_weight=26.810341536998756 2.192040503025054 2.5292775034904471
leaf_count=159 13 15
internal_value=0 -0.344444
internal_weight=0 29.3396
internal_count=187 174
shrinkage=1


Tree=89
num_leaves=3
num_cat=0
split_feature=9 45
split_gain=67.5383 9.65972
threshold=0.51662279410580991 0.023313309166666678
decision_type=2 2
left_child=1 -1
right_child=-2 -3
leaf_value=-0.21048423227029112 -2.9571731878680172 2.9972062590495039
leaf_weight=2.1239316314458874 26.467455714941025 1.9605522751808164
leaf_count=13 162 12
internal_value=0 3.79888
internal_weight=0 4.08448
internal_count=187 25
shrinkage=1


Tree=90
num_leaves=8
num_cat=0
split_feature=22 21 20 16 12 15 1
split_gain=16.9413 29.0247 10.2982 7.23938 9.76353 1.34217 0.36927
threshold=-0.31105595000000003 0.51314300000000002 0.0005036460648148146 -2.0947950187163991e-06 0.51326062928571237 -0.00010780221595173517 -0.31121653982276126
decision_type=2 2 2 2 2 2 2
left_child=1 3 -3 4 -1 6 -5
right_child=-2 2 -4 5 -6 -7 -8
leaf_value=0.29032389382022006 0.30062228984503903 0.30231767204776427 -1.2773055964015296 -1.6886120331676548 -1.3506057440958568 -1.111586896872002 -1.3725364935370445
leaf_weight=5.9999999999999991 15.999999999999998 22.000000000000004 4.9999999999999991 22 8.9999999999999982 7.0000000000000027 6.4999999999999991
leaf_count=12 32 44 10 44 18 14 13
internal_value=0 -0.134752 0.700555 -0.582591 -0 -0.828411 -0.926445
internal_weight=0 77.5 27 50.5 15 35.5 28.5
internal_count=187 155 54 101 30 71 57
shrinkage=1


Tree=91
num_leaves=5
num_cat=0
split_feature=41 41 14 11
split_gain=21.3855 32.925 3.67122 3.54008
threshold=0.010154091222222239 0.0075206110000000182 0.00014028883597883585 0.9720539233333334
decision_type=2 2 2 2
left_child=1 2 -1 -3
right_child=-2 3 -4 -5
leaf_value=-1.0116417008492777 -2.1726462516369396 0.64063942019251119 -2.1688469175893044 -0.50226742344310615
leaf_weight=3.372575640678412 34.063013970851898 7.7569239735603315 13.153044998645781 4.7216058969497681
leaf_count=10 101 23 39 14
internal_value=0 0.532869 -0.390479 1.75635
internal_weight=0 29.0042 16.5256 12.4785
internal_count=187 86 49 37
shrinkage=1


Tree=92
num_leaves=4
num_cat=0
split_feature=15 1 1
split_gain=39.1711 42.8895 2.13935
threshold=-0.00063907476851851944 -0.32370555232276149 -0.32757993744180885
decision_type=2 2 2
left_child=1 2 -1
right_child=-2 -3 -4
leaf_value=0.83045750618550063 -2.8313514290241097 -2.8154204287594191 2.4561651760815741
leaf_weight=2.9454307556152344 25.404340267181396 4.0499672889709455 2.0249836444854736
leaf_count=16 138 22 11
internal_value=0 1.86589 3.82056
internal_weight=0 9.02038 4.97041
internal_count=187 49 27
shrinkage=1


Tree=93
num_leaves=3
num_cat=0
split_feature=18 21
split_gain=37.5143 14.7203
threshold=-0.31512404999999993 0.20072195000000001
decision_type=2 2
left_child=1 -1
right_child=-2 -3
leaf_value=-0.26081846708853629 1.5232705959762933 -2.9240923501403966
leaf_weight=2.1920405030250611 2.192040503025054 27.147578537464142
leaf_count=13 13 161
internal_value=0 -0.344444
internal_weight=0 29.3396
internal_count=187 174
shrinkage=1


Tree=94
num_leaves=3
num_cat=0
split_feature=25 34
split_gain=44.9099 42.4393
threshold=-0.093062657617022343 -0.092059650473856183
decision_type=2 2
left_child=1 -1
right_child=-2 -3
leaf_value=-2.9244609648161273 -2.9570993745023868 3.0372953311441213
leaf_weight=2.1239316314458847 25.813938289880753 2.6140697002410915
leaf_count=13 158 16
internal_value=0 2.78768
internal_weight=0 4.738
internal_count=187 29
shrinkage=1


Tree=95
num_leaves=9
num_cat=0
split_feature=23 23 18 8 11 0 20 39
split_gain=16.3016 21.6322 8.59235 10.8599 3.52955 2.01036 1.66429 1.63559
threshold=0.65946835666666681 0.96363456666666691 -1.0568801666666665 0.098862261814143051 0.99541110333333349 0.60995461632803105 -0.00022474124160925608 -1.1740756051516672e-05
decision_type=2 2 2 2 2 2 2 2
left_child=-1 4 3 6 5 -2 -3 -7
right_child=1 2 -4 -5 -6 7 -8 -9
leaf_value=0.30042195127285209 -0.97969688816228451 -1.6751291625419273 0.30062228984503903 0.29266842227693424 -0.6244448904836094 -1.6883965867357174 -0.91452122636147193 -1.111586896872002
leaf_weight=15.499999999999998 8.4999999999999982 5.4999999999999991 15.999999999999998 6.9999999999999991 6.4999999999999991 21 6.5000000000000027 7.0000000000000027
leaf_count=31 17 11 32 14 13 42 13 14
internal_value=0 -0.127482 0.455064 -0 -0.602787 -0.723666 -0.576763 -0.853832
internal_weight=0 78 35 19 43 36.5 12 28
internal_count=187 156 70 38 86 73 24 56
shrinkage=1


Tree=96
num_leaves=5
num_cat=0
split_feature=43 15 20 14
split_gain=20.9294 28.3366 15.2092 2.97909
threshold=0.020415607083333353 -0.00016376986882716063 0.00083972784420289722 0.00010409103927930568
decision_type=2 2 2 2
left_child=1 2 -1 -3
right_child=-2 3 -4 -5
leaf_value=-2.1697871104367228 -2.1726222972638336 0.76285790359491079 0.15706873851966918 -0.3750430988327309
leaf_weight=15.513847947120672 33.725756406784058 6.0706361532211286 3.3725756406784049 4.3843483328819275
leaf_count=46 100 18 10 13
internal_value=0 0.519448 -0.209947 1.83655
internal_weight=0 29.3414 18.8864 10.455
internal_count=187 87 56 31
shrinkage=1


Tree=97
num_leaves=4
num_cat=0
split_feature=15 1 1
split_gain=39.1711 42.8895 2.13935
threshold=-0.00063907476851851944 -0.32370555232276149 -0.32757993744180885
decision_type=2 2 2
left_child=1 2 -1
right_child=-2 -3 -4
leaf_value=0.83045750618550063 -2.8313514290241097 -2.8154204287594191 2.4561651760815741
leaf_weight=2.9454307556152344 25.404340267181396 4.0499672889709455 2.0249836444854736
leaf_count=16 138 22 11
internal_value=0 1.86589 3.82056
internal_weight=0 9.02038 4.97041
internal_count=187 49 27
shrinkage=1


Tree=98
num_leaves=3
num_cat=0
split_feature=44 10
split_gain=37.5143 12.6366
threshold=1.5914961892639176e-05 -0.26135103922752351
decision_type=2 2
left_child=1 -1
right_child=-2 -3
leaf_value=-2.9240565453161143 1.5232705959762933 -0.60941074703141318
leaf_weight=26.810341536998756 2.192040503025054 2.5292775034904471
leaf_count=159 13 15
internal_value=0 -0.344444
internal_weight=0 29.3396
internal_count=187 174
shrinkage=1


Tree=99
num_leaves=3
num_cat=0
split_feature=7 7
split_gain=37.7476 13.8328
threshold=0.82589652083333343 3.0270643166666669
decision_type=2 2
left_child=-1 -2
right_child=1 -3
leaf_value=1.1604676010780492 -2.9571550777253237 -0.0039929624424095422
leaf_weight=2.6140697002410915 26.30407635867596 1.6337935626506794
leaf_count=16 161 10
internal_value=0 -0.367879
internal_weight=0 27.9379
internal_count=187 171
shrinkage=1


Tree=100
num_leaves=9
num_cat=0
split_feature=43 46 30 8 46 40 39 43
split_gain=19.3441 14.6866 12.0705 12.6666 5.76374 1.62074 1.59014 0.544145
threshold=0.012978032666666669 -0.0041982916666666861 -0.092215285473856171 0.027811096394984674 -0.0032428499999999981 -5.2336633498358196e-07 -1.1163822844823064e-05 0.023307783333333328
decision_type=2 2 2 2 2 2 2 2
left_child=-1 2 3 5 6 -2 7 -3
right_child=1 4 -4 -5 -6 -7 -8 -9
leaf_value=0.30115481374204889 -1.5888817777163433 -1.6880320910458786 0.29997996720637765 0.29158564386753572 -0.5881748048693376 -0.88126599244113324 -1.0154612301467218 -1.2773055964015296
leaf_weight=17.5 10.499999999999998 19.500000000000004 14.499999999999998 6.4999999999999991 8.9999999999999982 5.0000000000000027 6.0000000000000027 4.9999999999999991
leaf_count=35 21 39 29 13 18 10 12 10
internal_value=0 -0.170283 0.28591 -0.179138 -0.59292 -0.672026 -0.800327 -0.91446
internal_weight=0 76 36.5 22 39.5 15.5 30.5 24.5
internal_count=187 152 73 44 79 31 61 49
shrinkage=1


Tree=101
num_leaves=5
num_cat=0
split_feature=0 0 9 6
split_gain=28.8566 36.2954 8.67 1.78825
threshold=0.62063391196295192 0.60995461632803105 1.9314127941058101 -0.35985895089419012
decision_type=2 2 2 2
left_child=1 -1 -2 -3
right_child=2 3 -4 -5
leaf_value=-2.1657653277751292 -2.1728815551226495 -0.083121336446724259 -0.58406068618492246 0.76961358239201871
leaf_weight=8.7686966657638568 37.772847175598145 4.7216058969497672 3.7098332047462454 8.0941815376281721
leaf_count=26 112 14 11 24
internal_value=0 0.933991 -0.4903 2.00452
internal_weight=0 21.5845 41.4827 12.8158
internal_count=187 64 123 38
shrinkage=1


Tree=102
num_leaves=3
num_cat=0
split_feature=1 20
split_gain=25.226 24.0803
threshold=-0.36259689370371379 -0.00051594826388888894
decision_type=2 2
left_child=-1 -2
right_child=1 -3
leaf_value=1.0103706367729832 0.43097121277614381 -2.8318197740948703
leaf_weight=2.0249836444854727 2.393162488937377 30.0065758228302
leaf_count=11 13 163
internal_value=0 -0.308208
internal_weight=0 32.3997
internal_count=187 176
shrinkage=1


Tree=103
num_leaves=3
num_cat=0
split_feature=40 40
split_gain=30.6936 22.5318
threshold=9.354734381791131e-06 -3.0453369648657606e-06
decision_type=2 2
left_child=1 -1
right_child=-2 -3
leaf_value=0.16600018393321836 1.6679358442493863 -2.9241099216321089
leaf_weight=2.5292775034904542 1.6861850023269642 27.316197037696838
leaf_count=15 10 162
internal_value=0 -0.281043
internal_weight=0 29.8455
internal_count=187 177
shrinkage=1


Tree=104
num_leaves=3
num_cat=0
split_feature=9 32
split_gain=46.8648 39.952
threshold=0.51662279410580991 -0.028966393337470486
decision_type=2 2
left_child=1 -1
right_child=-2 -3
leaf_value=2.7164145390547674 -2.9570610511110287 -2.9244609648161268
leaf_weight=2.940828412771225 25.487179577350616 2.1239316314458874
leaf_count=18 156 13
internal_value=0 2.77001
internal_weight=0 5.06476
internal_count=187 31
shrinkage=1


Tree=105
num_leaves=8
num_cat=0
split_feature=42 23 21 42 9 13 44
split_gain=19.3441 22.3303 15.0979 5.51221 4.32861 1.55235 1.46571
threshold=-0.005446896666666679 0.65946835666666681 0.53493616666666688 -0.016666792499999996 1.9314127941058101 -0.31619049952381134 4.8273879784346363e-07
decision_type=2 2 2 2 2 2 2
left_child=1 -1 3 5 -4 -3 -5
right_child=-2 2 4 6 -6 -7 -8
leaf_value=0.29947274563931658 0.30115481374204889 -0.5881748048693376 0.29443045919160771 -1.1838304103736099 -0.88126599244113335 -1.2773055964015296 -1.6895174164946094
leaf_weight=13.499999999999998 17.5 8.9999999999999982 7.9999999999999982 7.9999999999999991 5 4.9999999999999991 27.5
leaf_count=27 35 18 16 16 10 10 55
internal_value=0 -0.170283 -0.422862 -0.675076 0.532567 -0.13879 -0.884669
internal_weight=0 76 62.5 49.5 13 14 35.5
internal_count=187 152 125 99 26 28 71
shrinkage=1


Tree=106
num_leaves=5
num_cat=0
split_feature=0 0 9 9
split_gain=28.8566 36.2954 8.67 1.78825
threshold=0.62063391196295192 0.60995461632803105 1.9314127941058101 0.60977069410580997
decision_type=2 2 2 2
left_child=1 -1 -2 -3
right_child=2 3 -4 -5
leaf_value=-2.1657653277751292 -2.1728815551226495 0.76961358239201871 -0.58406068618492246 -0.083121336446724259
leaf_weight=8.7686966657638568 37.772847175598145 8.0941815376281721 3.7098332047462454 4.7216058969497672
leaf_count=26 112 24 11 14
internal_value=0 0.933991 -0.4903 2.00452
internal_weight=0 21.5845 41.4827 12.8158
internal_count=187 64 123 38
shrinkage=1


Tree=107
num_leaves=3
num_cat=0
split_feature=1 20
split_gain=25.226 24.0803
threshold=-0.36259689370371379 -0.00051594826388888894
decision_type=2 2
left_child=-1 -2
right_child=1 -3
leaf_value=1.0103706367729832 0.43097121277614381 -2.8318197740948703
leaf_weight=2.0249836444854727 2.393162488937377 30.0065758228302
leaf_count=11 13 163
internal_value=0 -0.308208
internal_weight=0 32.3997
internal_count=187 176
shrinkage=1


Tree=108
num_leaves=3
num_cat=0
split_feature=40 40
split_gain=30.6936 22.5318
threshold=9.354734381791131e-06 -3.0453369648657606e-06
decision_type=2 2
left_child=1 -1
right_child=-2 -3
leaf_value=0.16600018393321836 1.6679358442493863 -2.9241099216321089
leaf_weight=2.5292775034904542 1.6861850023269642 27.316197037696838
leaf_count=15 10 162
internal_value=0 -0.281043
internal_weight=0 29.8455
internal_count=187 177
shrinkage=1


Tree=109
num_leaves=3
num_cat=0
split_feature=9 32
split_gain=46.8648 39.952
threshold=0.51662279410580991 -0.028966393337470486
decision_type=2 2
left_child=1 -1
right_child=-2 -3
leaf_value=2.7164145390547674 -2.9570610511110287 -2.9244609648161268
leaf_weight=2.940828412771225 25.487179577350616 2.1239316314458874
leaf_count=18 156 13
internal_value=0 2.77001
internal_weight=0 5.06476
internal_count=187 31
shrinkage=1


Tree=110
num_leaves=9
num_cat=0
split_feature=21 22 6 10 44 6 44 25
split_gain=18.3585 25.0445 7.19537 6.46387 10.1846 6.19689 6.13732 0.455213
threshold=0.51314300000000002 -0.31105595000000003 -0.36005121589419015 -0.3280632850608568 7.8037866512345524e-06 -0.36445176089419012 -1.1655375771604891e-05 -0.091932365116713391
decision_type=2 2 2 2 2 2 2 2
left_child=1 2 5 7 -5 -1 -2 -4
right_child=6 -3 3 4 -6 -7 -8 -9
leaf_value=-1.2773055964015294 -0.85017197394837496 0.29888469195001477 -1.6897630858052923 0.28705083924203512 -1.6751291625419271 0.28705083924203512 0.30160347560803369 -1.3460397425434156
leaf_weight=5 6.0000000000000027 12.499999999999998 29.499999999999993 4.9999999999999982 5.5 4.9999999999999982 19 6.0000000000000062
leaf_count=10 12 25 59 10 11 10 38 12
internal_value=0 -0.283735 -0.570027 -0.737242 -0.042654 0.19403 0.716567 -0.940928
internal_weight=0 68.5 56 46 10.5 10 25 35.5
internal_count=187 137 112 92 21 20 50 71
shrinkage=1


Tree=111
num_leaves=5
num_cat=0
split_feature=0 0 0 16
split_gain=30.8981 40.531 8.34736 1.01969
threshold=0.62063391196295192 0.60995461632803105 1.9317867226772392 -1.0000000180025095e-35
decision_type=2 2 2 2
left_child=1 -1 -2 -3
right_child=2 3 -4 -5
leaf_value=-2.166107151315583 -2.1727375128248978 0.075981446434675526 -0.80843276801940578 0.77187162403613385
leaf_weight=9.1059542298316973 35.41204422712326 4.3843483328819284 5.0588634610176078 9.105954229831692
leaf_count=27 105 13 15 27
internal_value=0 0.996287 -0.461965 2.09451
internal_weight=0 22.5963 40.4709 13.4903
internal_count=187 67 120 40
shrinkage=1


Tree=112
num_leaves=3
num_cat=0
split_feature=20 44
split_gain=33.344 26.1801
threshold=-0.00051594826388888894 -1.6867759182258958e-05
decision_type=2 2
left_child=-1 -2
right_child=1 -3
leaf_value=1.2495823464838467 0.69706360839924653 -2.8318038110248618
leaf_weight=2.393162488937377 2.2090730667114249 29.822486400604248
leaf_count=13 12 162
internal_value=0 -0.305352
internal_weight=0 32.0316
internal_count=187 174
shrinkage=1


Tree=113
num_leaves=3
num_cat=0
split_feature=18 20
split_gain=43.3998 4.59931
threshold=-0.31512404999999993 -0.00040277881711040767
decision_type=2 2
left_child=1 -1
right_child=-2 -3
leaf_value=-1.6376766214366474 1.6268154979688219 -2.9239821689740593
leaf_weight=3.0351330041885438 2.3606590032577506 26.135867536067963
leaf_count=18 14 155
internal_value=0 -0.411695
internal_weight=0 29.171
internal_count=187 173
shrinkage=1


Tree=114
num_leaves=3
num_cat=0
split_feature=25 2
split_gain=59.2536 38.1092
threshold=-0.093062657617022343 0.020552464873813941
decision_type=2 2
left_child=1 -1
right_child=-2 -3
leaf_value=3.0507700551980923 -2.9571181753511806 -2.9140883547347745
leaf_weight=2.9408284127712276 25.977317646145821 1.6337935626506803
leaf_count=18 159 10
internal_value=0 3.33804
internal_weight=0 4.57462
internal_count=187 28
shrinkage=1


Tree=115
num_leaves=9
num_cat=0
split_feature=9 39 41 36 30 44 39 9
split_gain=17.1467 14.2123 13.5597 14.9199 5.08343 11.2173 2.21595 0.398976
threshold=0.61184934410580993 -1.4992117221291277e-05 0.009881772083333339 0.016176078174603131 -0.092215285473856171 7.8037866512345524e-06 -1.2938557870370337e-05 0.96253446077247651
decision_type=2 2 2 2 2 2 2 2
left_child=1 -1 -2 4 7 -6 -3 -4
right_child=2 6 3 -5 5 -7 -8 -9
leaf_value=0.28705083924203501 0.30173772992598813 -1.6886120331676548 -1.2773055964015296 0.29737414645427263 0.29158564386753516 -1.4475331454722258 -1.0596068078891376 -1.6814512741271965
leaf_weight=4.9999999999999991 19.5 22 4.9999999999999991 10.499999999999998 6.5000000000000027 8.4999999999999982 8.0000000000000018 8.4999999999999982
leaf_count=10 39 44 10 21 13 17 16 17
internal_value=0 -0.569187 0.315115 -0.0243278 -0.401051 -0 -0.830283 -0.845018
internal_weight=0 35 58.5 39 28.5 15 30 13.5
internal_count=187 70 117 78 57 30 60 27
shrinkage=1


Tree=116
num_leaves=5
num_cat=0
split_feature=8 8 20 8
split_gain=30.8981 43.111 11.7708 0.289187
threshold=-0.050680287002171663 -0.057212677468322981 0.00061320130420054091 -0.053669245854672656
decision_type=2 2 2 2
left_child=1 -1 -2 -3
right_child=2 3 -4 -5
leaf_value=-2.1664246874858399 -2.1728220850419144 0.77187162403613341 -0.31809144879020979 0.26127775053334146
leaf_weight=9.4432117938995379 36.761074483394623 9.1059542298316938 3.7098332047462454 4.047090768814086
leaf_count=28 109 27 11 12
internal_value=0 0.996287 -0.461965 2.16427
internal_weight=0 22.5963 40.4709 13.153
internal_count=187 67 120 39
shrinkage=1


Tree=117
num_leaves=3
num_cat=0
split_feature=20 1
split_gain=33.344 28.6796
threshold=-0.00051594826388888894 -0.36259689370371379
decision_type=2 2
left_child=-1 -2
right_child=1 -3
leaf_value=1.2495823464838467 1.0103706367729832 -2.8318197740948703
leaf_weight=2.393162488937377 2.0249836444854727 30.0065758228302
leaf_count=13 11 163
internal_value=0 -0.305352
internal_weight=0 32.0316
internal_count=187 174
shrinkage=1


Tree=118
num_leaves=3
num_cat=0
split_feature=18 21
split_gain=43.3998 8.58366
threshold=-0.31512404999999993 0.23467530000000003
decision_type=2 2
left_child=1 -1
right_child=-2 -3
leaf_value=-0.63596606426512547 1.6268154979688219 -2.9241272779142022
leaf_weight=1.6861850023269713 2.3606590032577506 27.484815537929535
leaf_count=10 14 163
internal_value=0 -0.411695
internal_weight=0 29.171
internal_count=187 173
shrinkage=1


Tree=119
num_leaves=3
num_cat=0
split_feature=25 4
split_gain=59.2536 38.1092
threshold=-0.093062657617022343 -0.010669590916743967
decision_type=2 2
left_child=1 -1
right_child=-2 -3
leaf_value=3.0507700551980967 -2.9571181753511806 -2.9140883547347736
leaf_weight=2.940828412771225 25.977317646145821 1.633793562650683
leaf_count=18 159 10
internal_value=0 3.33804
internal_weight=0 4.57462
internal_count=187 28
shrinkage=1


Tree=120
num_leaves=8
num_cat=0
split_feature=23 21 45 44 6 6 16
split_gain=22.6494 27.2083 6.05981 5.36865 1.39869 0.903956 2.80929
threshold=0.65946835666666681 0.51314300000000002 0.0069551366666666678 -1.0321915289188818e-05 -0.36005121589419015 -0.35364132589419012 9.7961809438277997e-06
decision_type=2 2 2 2 2 2 2
left_child=-1 2 4 -3 -2 -6 -7
right_child=1 3 -4 -5 5 6 -8
leaf_value=0.30098771680075842 -1.0966559524897699 -0.88126599244113324 -0.5881748048693376 0.30042195127285209 -1.6889008960588838 -0.77422826164102632 -1.6826759763714634
leaf_weight=17 8.4999999999999982 5.0000000000000027 8.9999999999999982 15.499999999999998 23.499999999999996 5.5000000000000027 9.4999999999999982
leaf_count=34 17 10 18 31 47 11 19
internal_value=0 -0.280209 -0.641392 0.703163 -0.785335 -0.867704 -0.66113
internal_weight=0 76.5 56 20.5 47 38.5 15
internal_count=187 153 112 41 94 77 30
shrinkage=1


Tree=121
num_leaves=5
num_cat=0
split_feature=41 41 15 26
split_gain=29.6097 35.7887 6.40549 2.38692
threshold=0.010154091222222239 0.0068975015000000009 -0.00016376986882716063 0.029185587073724342
decision_type=2 2 2 2
left_child=1 -1 -3 -4
right_child=-2 2 3 -5
leaf_value=-2.1679393568999012 -2.1726462516369396 -0.92141351043948805 0.77117651372047158 -0.22687348976106403
leaf_weight=11.466757178306581 34.063013970851898 4.7216058969497707 8.7686966657638532 4.047090768814086
leaf_count=34 101 14 26 12
internal_value=0 0.73938 1.63659 2.00452
internal_weight=0 29.0042 17.5374 12.8158
internal_count=187 86 52 38
shrinkage=1


Tree=122
num_leaves=4
num_cat=0
split_feature=15 10 6
split_gain=55.4273 38.2248 0.974847
threshold=-0.00063907476851851944 -0.33643955589419011 -0.35447563922752351
decision_type=2 2 2
left_child=1 2 -1
right_child=-2 -3 -4
leaf_value=1.1642993102652577 -2.831478634847485 -2.8067161786189647 2.4677013486053174
leaf_weight=2.9454307556152344 26.508876800537109 2.7613413333892813 2.2090730667114258
leaf_count=16 144 15 12
internal_value=0 2.45294 4.04999
internal_weight=0 7.91585 5.1545
internal_count=187 43 28
shrinkage=1


Tree=123
num_leaves=4
num_cat=0
split_feature=26 3 3
split_gain=34.3517 54.4709 0.182791
threshold=0.040490091848247318 -0.048198940432053965 -1.0000000180025095e-35
decision_type=2 2 2
left_child=-1 -2 -3
right_child=1 2 -4
leaf_value=-2.9235938451063199 -2.9100927620491341 1.523270595976292 2.8198867985066394
leaf_weight=23.100734531879429 4.5526995062828064 2.1920405030250549 1.6861850023269638
leaf_count=137 27 13 10
internal_value=0 1.80435 4.53441
internal_weight=0 8.43093 3.87823
internal_count=187 50 23
shrinkage=1


Tree=124
num_leaves=3
num_cat=0
split_feature=25 20
split_gain=47.1731 1.99776
threshold=-0.093062657617022343 7.0810043981481415e-05
decision_type=2 2
left_child=1 -1
right_child=-2 -3
leaf_value=0.012951663953263637 -2.9572262036332009 1.7776980948758503
leaf_weight=1.9605522751808198 26.957593783736229 1.6337935626506803
leaf_count=12 165 10
internal_value=0 3.28609
internal_weight=0 3.59435
internal_count=187 22
shrinkage=1


Tree=125
num_leaves=8
num_cat=0
split_feature=22 21 30 3 20 20 22
split_gain=19.4551 25.2 6.64589 14.7751 5.36865 3.65923 0.236665
threshold=-0.31105595000000003 0.51314300000000002 -0.092069305473856181 -0.051658700574119372 0.00024275997211700319 6.1268056748830295e-05 -0.35579497999999993
decision_type=2 2 2 2 2 2 2
left_child=1 2 5 -4 -3 6 -1
right_child=-2 4 3 -5 -6 -7 -8
leaf_value=-1.6892332862350923 0.30020830116762942 0.30042195127285187 0.29360778632747153 -1.5779639344866467 -0.88126599244113346 -0.82789895360959065 -1.4475331454722258
leaf_weight=25.499999999999996 14.999999999999998 15.500000000000002 7.5000000000000027 9.4999999999999982 4.9999999999999991 6.9999999999999991 8.5000000000000018
leaf_count=51 30 31 15 19 10 14 17
internal_value=0 -0.247613 -0.584841 -0.0557185 0.703163 -0.80268 -0.938326
internal_weight=0 78.5 58 17 20.5 41 34
internal_count=187 157 116 34 41 82 68
shrinkage=1


Tree=126
num_leaves=5
num_cat=0
split_feature=41 41 14 44
split_gain=29.6097 35.7887 7.24973 19.3375
threshold=0.010154091222222239 0.0068975015000000009 0.00010904475065943581 -8.6739456999828165e-06
decision_type=2 2 2 2
left_child=1 -1 -3 -4
right_child=-2 2 3 -5
leaf_value=-2.1679393568999012 -2.1726462516369396 0.77042612240614616 0.75747319572853433 -2.1550708881965637
leaf_weight=11.466757178306581 34.063013970851898 8.4314391016960162 5.0588634610176104 4.0470907688140834
leaf_count=34 101 25 15 12
internal_value=0 0.73938 1.63659 0.99956
internal_weight=0 29.0042 17.5374 9.10595
internal_count=187 86 52 27
shrinkage=1


Tree=127
num_leaves=3
num_cat=0
split_feature=15 41
split_gain=55.4273 46.6344
threshold=-0.00063907476851851944 0.014799919999999996
decision_type=2 2
left_child=1 -1
right_child=-2 -3
leaf_value=-2.8099230543068296 -2.831478634847485 2.1234571441270353
leaf_weight=3.1295201778411856 26.508876800537109 4.7863249778747559
leaf_count=17 144 26
internal_value=0 2.45294
internal_weight=0 7.91585
internal_count=187 43
shrinkage=1


Tree=128
num_leaves=3
num_cat=0
split_feature=18 6
split_gain=35.1503 32.813
threshold=-0.31512404999999993 -0.29334095589419013
decision_type=2 2
left_child=1 -1
right_child=-2 -3
leaf_value=-2.9240383036215056 1.5232705959762933 0.70403813537472493
leaf_weight=26.641723036766059 2.192040503025054 2.6978960037231436
leaf_count=158 13 16
internal_value=0 -0.208342
internal_weight=0 29.3396
internal_count=187 174
shrinkage=1


Tree=129
num_leaves=3
num_cat=0
split_feature=9 11
split_gain=39.0215 32.6021
threshold=0.51662279410580991 0.75503112083333346
decision_type=2 2
left_child=1 -1
right_child=-2 -3
leaf_value=-2.9181575181079107 -2.9571550777253237 2.6293478722021764
leaf_weight=1.797172918915751 26.304076358675957 2.4506903439760208
leaf_count=11 161 15
internal_value=0 2.70289
internal_weight=0 4.24786
internal_count=187 26
shrinkage=1


Tree=130
num_leaves=9
num_cat=0
split_feature=21 23 20 6 1 10 4 0
split_gain=15.7759 27.5826 13.1378 8.54384 6.50611 4.3758 3.46422 0.0108001
threshold=0.51314300000000002 0.65946835666666681 0.00083972784420289722 -0.36005121589419015 -0.36259689370371379 -0.3280632850608568 0.10515746945253533 0.60995461632803105
decision_type=2 2 2 2 2 2 2 2
left_child=1 -1 -2 4 -3 7 -7 -5
right_child=2 3 -4 5 -6 6 -8 -9
leaf_value=0.29997996720637765 0.30251442464612821 -1.2773055964015294 -1.4753253983817274 -1.5113289987417635 0.28883480142203688 -0.30700856669855936 -1.4753253983817274 -1.6890738608043443
leaf_weight=14.499999999999998 23.000000000000004 5 4.9999999999999991 5.9999999999999991 5.4999999999999982 5.0000000000000018 5 24.5
leaf_count=29 46 10 10 12 11 10 10 49
internal_value=0 -0.220442 0.675579 -0.567091 0.232227 -0.775586 -0.19403 -0.963993
internal_weight=0 65.5 28 51 10.5 40.5 10 30.5
internal_count=187 131 56 102 21 81 20 61
shrinkage=1


Tree=131
num_leaves=5
num_cat=0
split_feature=41 41 15 15
split_gain=31.3687 34.24 6.28441 0.438228
threshold=0.010154091222222239 0.0068975015000000009 -0.00016376986882716063 -0.00011318333725847194
decision_type=2 2 2 2
left_child=1 -1 -3 -4
right_child=-2 2 3 -5
leaf_value=-2.1672549638118177 -2.1727592534317255 -0.70757744111066179 0.15706873851966741 0.76776838388656499
leaf_weight=10.45498448610306 35.749301791191101 6.070636153221133 3.3725756406784084 7.4196664094924882
leaf_count=31 106 18 10 22
internal_value=0 0.787631 1.66813 2.12855
internal_weight=0 27.3179 16.8629 10.7922
internal_count=187 81 50 32
shrinkage=1


Tree=132
num_leaves=3
num_cat=0
split_feature=20 6
split_gain=33.0991 28.6195
threshold=-0.00051594826388888894 -0.36832786539419016
decision_type=2 2
left_child=-1 -2
right_child=1 -3
leaf_value=0.72660278926412492 1.0103706367729774 -2.8317379415706423
leaf_weight=3.3136096000671378 2.0249836444854763 29.086128711700439
leaf_count=18 11 158
internal_value=0 -0.297914
internal_weight=0 31.1111
internal_count=187 169
shrinkage=1


Tree=133
num_leaves=3
num_cat=0
split_feature=26 44
split_gain=25.2789 41.1
threshold=0.040490091848247318 7.8037866512345524e-06
decision_type=2 2
left_child=-1 -2
right_child=1 -3
leaf_value=-2.9237115674844283 -2.9087604542638026 1.74162225447408
leaf_weight=23.943827033042911 4.2154625058174124 3.3723700046539307
leaf_count=142 25 20
internal_value=0 1.54066
internal_weight=0 7.58783
internal_count=187 45
shrinkage=1


Tree=134
num_leaves=3
num_cat=0
split_feature=5 5
split_gain=42.089 4.96872
threshold=0.49056762743914323 2.2728819607724762
decision_type=2 2
left_child=-1 -2
right_child=1 -3
leaf_value=1.4296791726482456 -2.9571731878680168 -1.1917870006545845
leaf_weight=2.4506903439760235 26.467455714941028 1.6337935626506794
leaf_count=15 162 10
internal_value=0 -0.439977
internal_weight=0 28.1012
internal_count=187 172
shrinkage=1


Tree=135
num_leaves=9
num_cat=0
split_feature=21 22 0 30 14 10 3 3
split_gain=15.7759 22.8563 9.46465 8.04203 10.0563 3.91787 3.46422 0.571876
threshold=0.51314300000000002 -0.30217972916666663 1.9317867226772392 -0.092074478807189511 7.526102679344074e-05 -0.3280632850608568 0.067686237682198683 -0.07759928783485727
decision_type=2 2 2 2 2 2 2 2
left_child=1 3 -2 5 -5 7 -7 -1
right_child=2 -3 -4 4 -6 6 -8 -9
leaf_value=-1.2773055964015301 0.30221244821035609 0.29888469195001477 -1.0671929820866628 -1.3952748401344135 0.29266842227693413 -0.30700856669855936 -1.4753253983817274 -1.6889891764019409
leaf_weight=4.9999999999999956 21.500000000000004 12.499999999999998 6.4999999999999991 6.9999999999999982 7 5.0000000000000018 5 24.000000000000004
leaf_count=10 43 25 13 14 14 10 10 48
internal_value=0 -0.220442 0.675579 -0.508011 0.13879 -0.741357 -0.19403 -0.927711
internal_weight=0 65.5 28 53 14 39 10 29
internal_count=187 131 56 106 28 78 20 58
shrinkage=1


Tree=136
num_leaves=5
num_cat=0
split_feature=41 41 9 2
split_gain=31.3687 34.24 6.28441 0.438228
threshold=0.010154091222222239 0.0068975015000000009 0.61836339410580987 -0.032706287709661212
decision_type=2 2 2 2
left_child=1 -1 3 -3
right_child=-2 2 -4 -5
leaf_value=-2.1672549638118177 -2.1727592534317255 0.15706873851966741 -0.70757744111066123 0.7677683838865641
leaf_weight=10.45498448610306 35.749301791191101 3.3725756406784084 6.0706361532211295 7.4196664094924918
leaf_count=31 106 10 18 22
internal_value=0 0.787631 1.66813 2.12855
internal_weight=0 27.3179 16.8629 10.7922
internal_count=187 81 50 32
shrinkage=1


Tree=137
num_leaves=3
num_cat=0
split_feature=16 1
split_gain=35.5563 28.6318
threshold=-0.00015357645638195742 -0.36259689370371379
decision_type=2 2
left_child=-1 -2
right_child=1 -3
leaf_value=0.93278006559812532 1.0103706367729774 -2.831754719109322
leaf_weight=3.1295201778411856 2.0249836444854763 29.270218133926392
leaf_count=17 11 159
internal_value=0 -0.299437
internal_weight=0 31.2952
internal_count=187 170
shrinkage=1


Tree=138
num_leaves=3
num_cat=0
split_feature=26 44
split_gain=25.2789 41.1
threshold=0.040490091848247318 7.8037866512345524e-06
decision_type=2 2
left_child=-1 -2
right_child=1 -3
leaf_value=-2.9237115674844283 -2.9087604542638026 1.74162225447408
leaf_weight=23.943827033042911 4.2154625058174124 3.3723700046539307
leaf_count=142 25 20
internal_value=0 1.54066
internal_weight=0 7.58783
internal_count=187 45
shrinkage=1


Tree=139
num_leaves=3
num_cat=0
split_feature=5 5
split_gain=42.089 4.96872
threshold=0.49056762743914323 2.2728819607724762
decision_type=2 2
left_child=-1 -2
right_child=1 -3
leaf_value=1.4296791726482456 -2.9571731878680168 -1.1917870006545845
leaf_weight=2.4506903439760235 26.467455714941028 1.6337935626506794
leaf_count=15 162 10
internal_value=0 -0.439977
internal_weight=0 28.1012
internal_count=187 172
shrinkage=1


Tree=140
num_leaves=8
num_cat=0
split_feature=21 22 30 3 5 11 20
split_gain=19.5963 23.5831 6.12239 11.6758 5.25093 4.957 0.810303
threshold=0.51314300000000002 -0.31105595000000003 -0.092074478807189511 -0.051658700574119372 1.0965044607724765 2.1450935666666671 9.3673275112142305e-05
decision_type=2 2 2 2 2 2 2
left_child=1 2 4 -4 6 -2 -1
right_child=5 -3 3 -5 -6 -7 -8
leaf_value=-1.6577204494810402 0.30131265323506828 0.2981948107820459 0.29158564386753572 -1.4611029816649177 -0.50502836867875711 -0.77422826164102632 -1.2534308685032078
leaf_weight=31 18.000000000000004 11.499999999999998 6.4999999999999991 8.9999999999999982 4.9999999999999991 5.4999999999999991 6.9999999999999991
leaf_count=62 36 23 13 18 10 11 14
internal_value=0 -0.313348 -0.571307 -0.0289389 -0.765389 0.740977 -0.892247
internal_weight=0 70 58.5 15.5 43 23.5 38
internal_count=187 140 117 31 86 47 76
shrinkage=1


Tree=141
num_leaves=5
num_cat=0
split_feature=0 0 0 6
split_gain=38.972 37.6322 9.62202 0.5235
threshold=0.62063391196295192 0.60995461632803105 1.9317867226772392 -0.35985895089419012
decision_type=2 2 2 2
left_child=1 -1 -2 -3
right_child=2 3 -4 -5
leaf_value=-2.1640893650107986 -2.1729379264114361 0.15706873851966829 -0.42728648116480361 0.77368027814439255
leaf_weight=7.4196664094924953 38.784619867801666 3.3725756406784066 3.3725756406784049 10.117726922035214
leaf_count=22 115 10 10 30
internal_value=0 1.17538 -0.49264 2.16836
internal_weight=0 20.91 42.1572 13.4903
internal_count=187 62 125 40
shrinkage=1


Tree=142
num_leaves=4
num_cat=0
split_feature=15 10 2
split_gain=44.1656 53.5364 0.0604175
threshold=-0.00063907476851851944 -0.34477930589419015 0.15151463928810155
decision_type=2 2 2
left_child=1 2 -1
right_child=-2 -3 -4
leaf_value=1.4261387750200596 -2.831306537822484 -2.816985195217383 2.4677013486053174
leaf_weight=2.7613413333892822 25.036161422729492 4.4181461334228498 2.2090730667114258
leaf_count=15 136 24 12
internal_value=0 1.98327 4.21893
internal_weight=0 9.38856 4.97041
internal_count=187 51 27
shrinkage=1


Tree=143
num_leaves=3
num_cat=0
split_feature=18 6
split_gain=31.1732 18.5609
threshold=-0.31512404999999993 -0.29334095589419013
decision_type=2 2
left_child=1 -1
right_child=-2 -3
leaf_value=-2.9241272779142022 1.6679358442493863 -0.032481787540985074
leaf_weight=27.484815537929538 1.6861850023269642 2.3606590032577541
leaf_count=163 10 14
internal_value=0 -0.314493
internal_weight=0 29.8455
internal_count=187 177
shrinkage=1


Tree=144
num_leaves=3
num_cat=0
split_feature=9 26
split_gain=51.5244 14.2328
threshold=0.51662279410580991 -0.02186272304197397
decision_type=2 2
left_child=1 -1
right_child=-2 -3
leaf_value=2.9827517267769155 -2.9572087468213022 -0.98179986774548045
leaf_weight=1.7971729189157488 26.794214427471161 1.9605522751808193
leaf_count=11 164 12
internal_value=0 3.38415
internal_weight=0 3.75773
internal_count=187 23
shrinkage=1


Tree=145
num_leaves=9
num_cat=0
split_feature=21 23 10 1 44 30 10 3
split_gain=19.5963 27.3839 6.19596 7.85773 5.59921 3.18674 0.556468 0.344463
threshold=0.51314300000000002 0.65946835666666681 -0.3280632850608568 -0.27825657613228511 -1.0321915289188818e-05 -0.092037348807189487 -0.35454802756085685 -0.07759928783485727
decision_type=2 2 2 2 2 2 2 2
left_child=1 -1 5 -4 -2 7 -7 -3
right_child=4 2 3 -5 -6 6 -8 -9
leaf_value=0.2991899841910125 -0.88126599244113324 -1.3952748401344142 0.28705083924203478 -1.3725364935370448 0.3014619838605398 -0.82789895360959065 -1.2773055964015296 -1.6893807022171954
leaf_weight=12.999999999999998 5.0000000000000027 6.999999999999992 5 6.4999999999999982 18.5 7 4.9999999999999982 26.500000000000007
leaf_count=26 10 14 10 13 37 14 10 53
internal_value=0 -0.313348 -0.612621 0.038961 0.740977 -0.778266 -0.327801 -0.937407
internal_weight=0 70 57 11.5 23.5 45.5 12 33.5
internal_count=187 140 114 23 47 91 24 67
shrinkage=1


Tree=146
num_leaves=5
num_cat=0
split_feature=11 1 20 30
split_gain=27.9261 39.1177 9.5291 4.91396
threshold=0.96732961500000003 -0.32637440589419009 0.00061320130420054091 -0.092077745473856179
decision_type=2 2 2 2
left_child=1 3 -2 -1
right_child=2 -3 -4 -5
leaf_value=0.77368027814439211 -2.1726927669883804 -2.1669965648903942 -0.42728648116480361 -0.5022674234431066
leaf_weight=10.117726922035216 34.737529098987579 10.117726922035216 3.3725756406784049 4.7216058969497707
leaf_count=30 103 30 10 14
internal_value=0 0.88211 -0.477358 1.91421
internal_weight=0 24.9571 38.1101 14.8393
internal_count=187 74 113 44
shrinkage=1


Tree=147
num_leaves=4
num_cat=0
split_feature=15 10 3
split_gain=44.1656 53.5364 0.0604175
threshold=-0.00063907476851851944 -0.34477930589419015 0.085703119286654694
decision_type=2 2 2
left_child=1 2 -1
right_child=-2 -3 -4
leaf_value=1.4261387750200596 -2.831306537822484 -2.816985195217383 2.4677013486053174
leaf_weight=2.7613413333892822 25.036161422729492 4.4181461334228498 2.2090730667114258
leaf_count=15 136 24 12
internal_value=0 1.98327 4.21893
internal_weight=0 9.38856 4.97041
internal_count=187 51 27
shrinkage=1


Tree=148
num_leaves=3
num_cat=0
split_feature=44 40
split_gain=27.9378 21.8362
threshold=1.5914961892639176e-05 -3.0453369648657606e-06
decision_type=2 2
left_child=1 -1
right_child=-2 -3
leaf_value=0.43829541128268712 1.2611842968968312 -2.9241444229163331
leaf_weight=2.0234220027923646 1.8548035025596608 27.653434038162231
leaf_count=12 11 164
internal_value=0 -0.31315
internal_weight=0 29.6769
internal_count=187 176
shrinkage=1


Tree=149
num_leaves=3
num_cat=0
split_feature=9 20
split_gain=51.5244 14.2328
threshold=0.51662279410580991 0.00011280307694133713
decision_type=2 2
left_child=1 -1
right_child=-2 -3
leaf_value=-0.98179986774548089 -2.9572087468213022 2.9827517267769164
leaf_weight=1.9605522751808193 26.794214427471161 1.7971729189157486
leaf_count=12 164 11
internal_value=0 3.38415
internal_weight=0 3.75773
internal_count=187 23
shrinkage=1


Tree=150
num_leaves=9
num_cat=0
split_feature=23 23 13 12 30 30 43 4
split_gain=16.7598 24.6962 9.34115 13.7789 4.01357 10.9005 1.16517 0.038763
threshold=0.65946835666666681 0.96363456666666691 -0.91542259965986583 0.8392793722789097 -0.092074478807189511 -0.091948883973856158 0.040890018500000014 -0.053146267151816438
decision_type=2 2 2 2 2 2 2 2
left_child=-1 4 3 -3 6 -6 7 -2
right_child=1 2 -4 -5 5 -7 -8 -9
leaf_value=0.30020830116762942 -1.4753253983817269 -1.5716002192339784 0.30115481374204889 0.29266842227693424 0.28705083924203501 -1.5644922097997109 -1.1838304103736099 -1.6877563449804303
leaf_weight=14.999999999999998 5.0000000000000027 8.9999999999999982 17.5 6.9999999999999991 4.9999999999999991 8.5000000000000018 7.9999999999999991 18.5
leaf_count=30 10 18 35 14 10 17 16 37
internal_value=0 -0.158498 0.490313 -0.05919 -0.642619 -0.180812 -0.838352 -0.953291
internal_weight=0 78.5 33.5 16 45 13.5 31.5 23.5
internal_count=187 157 67 32 90 27 63 47
shrinkage=1


Tree=151
num_leaves=5
num_cat=0
split_feature=41 41 16 18
split_gain=24.2624 38.1357 6.66452 1.07639
threshold=0.010154091222222239 0.0068975015000000009 -1.0000000180025095e-35 -0.54397136499999987
decision_type=2 2 2 2
left_child=1 -1 -3 -4
right_child=-2 2 3 -5
leaf_value=-2.1690013034464295 -2.1725978596876052 -0.92141351043948827 0.017202130386137382 0.76776838388656543
leaf_weight=13.490302562713625 33.388498842716217 4.7216058969497725 4.0470907688140896 7.4196664094924865
leaf_count=40 99 14 12 22
internal_value=0 0.607244 1.6407 2.05342
internal_weight=0 29.6787 16.1884 11.4668
internal_count=187 88 48 34
shrinkage=1


Tree=152
num_leaves=3
num_cat=0
split_feature=1 13
split_gain=45.0054 16.9167
threshold=-0.36147932725133275 -0.9580238142857147
decision_type=2 2
left_child=-1 -2
right_child=1 -3
leaf_value=1.7246719999566342 -0.46259587092595389 -2.8316863123204792
leaf_weight=2.5772519111633292 3.3136096000671413 28.533860445022583
leaf_count=14 18 155
internal_value=0 -0.303898
internal_weight=0 31.8475
internal_count=187 173
shrinkage=1


Tree=153
num_leaves=3
num_cat=0
split_feature=18 21
split_gain=39.9168 24.2328
threshold=-0.31512404999999993 0.20072195000000001
decision_type=2 2
left_child=1 -1
right_child=-2 -3
leaf_value=0.38234253383646122 1.8851788490277861 -2.9240923501403966
leaf_weight=2.3606590032577577 2.0234220027923575 27.147578537464142
leaf_count=14 12 161
internal_value=0 -0.277961
internal_weight=0 29.5082
internal_count=187 175
shrinkage=1


Tree=154
num_leaves=3
num_cat=0
split_feature=11 11
split_gain=43.1506 33.7298
threshold=0.82755708333333333 0.75503112083333346
decision_type=2 2
left_child=1 -1
right_child=-2 -3
leaf_value=-2.9215653534463106 -2.9570803346182806 2.382059022911438
leaf_weight=1.9605522751808193 25.650558933615685 2.940828412771225
leaf_count=12 157 18
internal_value=0 2.67757
internal_weight=0 4.90138
internal_count=187 30
shrinkage=1


Tree=155
num_leaves=9
num_cat=0
split_feature=43 36 22 21 0 21 10 6
split_gain=16.093 17.6851 14.0238 10.8416 7.09425 2.76213 2.20588 0.852881
threshold=0.012978032666666669 0.016176078174603131 -0.31105595000000003 0.53493616666666688 1.9317867226772392 0.3369018333333334 -0.32490343922752352 -0.36005121589419015
decision_type=2 2 2 2 2 2 2 2
left_child=-1 2 3 5 -5 -2 7 -7
right_child=1 -3 -4 4 -6 6 -8 -9
leaf_value=0.29997996720637765 -0.82789895360959087 0.2981948107820459 0.29266842227693324 0.29266842227693435 -1.1807504863450693 -1.2825511540698797 -0.88126599244113313 -1.6895821181713533
leaf_weight=14.499999999999998 6.999999999999992 11.499999999999998 7.0000000000000062 6.9999999999999982 6 7.499999999999992 5.0000000000000062 28
leaf_count=29 14 23 14 14 12 15 10 56
internal_value=0 -0.15117 -0.34715 -0.50289 0.302682 -0.724501 -0.824908 -0.912799
internal_weight=0 79 67.5 60.5 13 47.5 40.5 35.5
internal_count=187 158 135 121 26 95 81 71
shrinkage=1


Tree=156
num_leaves=5
num_cat=0
split_feature=41 41 16 18
split_gain=24.2624 38.1357 6.66452 1.07639
threshold=0.010154091222222239 0.0068975015000000009 -1.0000000180025095e-35 -0.54397136499999987
decision_type=2 2 2 2
left_child=1 -1 -3 -4
right_child=-2 2 3 -5
leaf_value=-2.1690013034464295 -2.1725978596876052 -0.92141351043948827 0.017202130386137382 0.76776838388656543
leaf_weight=13.490302562713625 33.388498842716217 4.7216058969497725 4.0470907688140896 7.4196664094924865
leaf_count=40 99 14 12 22
internal_value=0 0.607244 1.6407 2.05342
internal_weight=0 29.6787 16.1884 11.4668
internal_count=187 88 48 34
shrinkage=1


Tree=157
num_leaves=3
num_cat=0
split_feature=6 20
split_gain=49.1084 22.2319
threshold=-0.36832786539419016 -0.00051594826388888894
decision_type=2 2
left_child=-1 -2
right_child=1 -3
leaf_value=2.06819348019155 0.20216857620571282 -2.8317712872841732
leaf_weight=2.393162488937377 2.5772519111633292 29.454307556152344
leaf_count=13 14 160
internal_value=0 -0.305352
internal_weight=0 32.0316
internal_count=187 174
shrinkage=1


Tree=158
num_leaves=3
num_cat=0
split_feature=40 40
split_gain=33.2255 22.4814
threshold=9.354734381791131e-06 -3.0453369648657606e-06
decision_type=2 2
left_child=1 -1
right_child=-2 -3
leaf_value=0.16600018393321836 1.2119911765913707 -2.9240383036215056
leaf_weight=2.5292775034904542 2.3606590032577506 26.641723036766052
leaf_count=15 14 158
internal_value=0 -0.274807
internal_weight=0 29.171
internal_count=187 173
shrinkage=1


Tree=159
num_leaves=3
num_cat=0
split_feature=11 11
split_gain=43.1506 33.7298
threshold=0.82755708333333333 0.75503112083333346
decision_type=2 2
left_child=1 -1
right_child=-2 -3
leaf_value=-2.9215653534463106 -2.9570803346182806 2.382059022911438
leaf_weight=1.9605522751808193 25.650558933615685 2.940828412771225
leaf_count=12 157 18
internal_value=0 2.67757
internal_weight=0 4.90138
internal_count=187 30
shrinkage=1


Tree=160
num_leaves=9
num_cat=0
split_feature=23 0 20 10 30 14 36 5
split_gain=18.6638 19.7507 8.92913 8.47849 5.10822 13.9592 0.923904 1.50806
threshold=0.65946835666666681 0.88141946077247624 0.00061320130420054091 -0.34477930589419015 -0.092077745473856179 9.0722334798827852e-05 0.0064672391666666367 0.49056762743914323
decision_type=2 2 2 2 2 2 2 2
left_child=-1 4 3 -3 6 -6 -2 -8
right_child=1 2 -4 -5 5 -7 7 -9
